0.68396 0.17624 -0.981074 -0.345238 0.780962 -0.132415 0.63122 -0.889778 0.716885 0.984277 0.521441 -0.47924 0.415938 -0.0934918 -0.747477 0.0845068 0.492903 -0.964612 0.427039 -0.389234 -0.0449812 0.757885 0.973294 0.287019 -0.680561 0.724454 -0.773574 0.729662 -0.816549 0.503238 0.55248 -0.101982 -0.0129736 0.0908261 -0.469286 -0.255947 -0.653363 -0.09866 -0.823696 0.640258 0.595492 -0.692497 -0.830692 0.653454 -0.509778 0.783375 -0.513522 0.492812 -0.292663 0.879473 -0.862195 -0.134547 0.348837 -0.174096 -0.851088 0.866937 0.324843 -0.970422 -0.000493592 0.932397 0.0216507 0.250265 0.98898 -0.419847 0.448652 -0.289115 0.571399 0.118947 1.00394 -0.500558 -0.18614 0.0369629 -0.629498 0.458539 -0.837077 0.770824 0.521593 0.215546 -0.744921 0.285721 -0.348911 0.733889 0.853905 0.131157 0.729309 -0.551077 0.581472 -0.118826 -0.139015 0.0149548 -0.642596 -0.149742 0.634452 0.712586 0.370459 0.477616 1.06816 -0.746994 -0.313296 0.371662 0.283613 -0.925817 0.589809 0.477601 -0.902217 -0.139971 -0.148444 0.8069 0.225282 -0.843701 -0.90783 -0.134842 0.217699 0.898608 -0.974493 0.0155447 -0.310389 0.230543 0.532296 0.747465 0.532839 1.05504 1.16325 1.26783 0.257633 -0.172377 -0.788116 -0.256533 0.0194528 -0.139817 -0.951119 -1.04292 0.826241 0.238361 0.088342 -0.0301832 -0.687217 -0.474151 -0.242024 -0.360867 0.219979 0.194884 0.985432 0.600729 0.545832 -0.354286 -0.957867 0.704172 0.768483 0.584542 -0.159958 1.09698 0.532178 0.365373 0.026309 0.139024 -0.0223332 -1.01776 -0.881673 -0.717042 -0.672621 -0.212313 -0.549334 0.0393899 0.163793 0.0912487 0.779808 -0.372236 -0.133515 -0.889455 0.410109 0.617777 -0.464892 0.127175 -0.415773 -0.116486 0.445015 0.165048 0.446746 1.044 -0.0288382 -0.319174 0.174074 0.502348 -0.9679 -0.0839385 -0.936753 0.00609456 0.314616 -0.0811311 0.0108383 0.225131 -0.730767 -0.128812 -0.716215 0.00384448 0.483376 0.0231552 -0.817905 -0.454368 -0.323982 -0.583597 0.356471 0.276769 0.0990248 0.282675 0.819248 0.725261 0.913252 0.150106 0.774976 -0.732315 -0.886186 -1.16095 0.562127 -0.861871 -0.651739 0.21076 0.955656 -0.465155 -0.673892 -0.0309202 -0.737583 0.788974 -0.00666413 0.681481 0.609788 -0.807329 -0.340316 -0.503457 -0.595957 1.13829 0.136605 0.263935 1.22943 -0.446226 1.43859 0.905468 -0.446587 0.97368 -0.740367 -0.568877 -0.94383 -0.148246 -0.522152 -0.991244 -0.903805 0.999857 -1.05063 0.676477 -0.702761 0.705875 0.0766807 -0.404832 -0.540715 0.347842 0.0355204 0.36878 0.0144629 -0.236445 -0.523259 -0.412419 -0.540201 -0.28276 1.48182 0.150543 0.0793485 0.00325722 -0.251059 -0.916952 0.00941313 0.615828 0.141594 -1.2003 0.253457 0.436715 -0.906118 -0.694613 0.713099 -0.411783 0.410424 -0.652026 0.497768 -0.0325499 -0.505177 -0.036459 0.470088 -0.00890103 0.593138 0.262425 1.10151 1.23908 -0.318488 1.47894 0.0197271 0.00678291 0.738189 -0.450574 -0.924776 0.194506 0.500842 0.225538 -0.384418 -0.929678 -0.588671 0.323064 0.242012 0.493289 0.359182 0.868549 -0.108205 -1.04665 0.981734 0.0999356 1.18108 -0.398422 -0.139196 -0.691002 1.15173 0.81976 0.239428 0.544428 1.21906 0.284466 1.01362 -0.0674956 -0.369392 -0.204689 0.310077 -0.462538 0.476864 -0.945031 0.591107 0.468235 0.0297158 -0.452868 -0.331891 -0.617994 -0.623524 0.467454 -0.612443 1.08427 -0.754581 1.02176 -0.563721 -0.0298088 -0.893045 0.430895 -0.0269883 0.842725 1.16177 -0.605523 0.252299 -0.0289192 0.314947 0.199754 0.788634 0.406998 0.564776 -0.796099 0.598216 -0.741262 -0.876664 0.275498 0.0470635 0.689656 -0.3799 0.0474091 -0.729216 -0.138553 -0.579481 -0.281614 -0.39654 -0.953104 0.201323 0.863983 -0.262784 -0.545464 0.925731 0.494178 -0.0647477 0.0465816 0.124571 -0.039573 0.714502 -0.489054 0.630907 -0.769936 -0.349297 -0.413047 -0.693234 -0.551344 -0.107085 0.712475 0.215263 0.732556 0.312234 0.554177 -0.672012 0.56663 0.0799185 0.0726935 0.314491 -0.222637 -0.767201 0.373914 0.0676768 1.00751 0.625627 -0.731189 0.986059 -0.507953 0.490596 -0.0477366 -0.261131 0.671927 -0.751564 0.436185 0.549973 0.329789 -0.0910863 0.205342 0.0879378 0.374695 -0.395804 0.980011 0.394434 0.408639 -0.00538462 -0.319271 -0.760738 0.15162 -0.781185 -0.363333 -0.702915 0.232943 -0.276128 -0.589583 -0.375348 0.22488 0.89577 -0.0905728 0.44516 0.589433 -0.538601 -0.978049 -0.840532 -0.815079 0.864498 0.848296 -0.49284 0.604126 -0.103777 0.601099 -0.217988 -0.794771 1.04758 -0.0414552 0.0793487 -0.469613 -0.952635 0.725257 -0.883271 -0.0563939 -0.141235 0.562185 -0.813155 0.151672 0.566335 -0.54558 -0.142569 -0.206106 -0.286561 -1.15762 0.825209 0.152805 0.299418 -0.282154 0.623635 -0.132569 0.00169422 -0.4937 0.549165 0.248222 -0.529888 0.220846 0.660847 -0.494142 -0.384687 -0.213998 -0.416856 0.0881707 0.114181 0.227239 -0.684701 -1.32516 -0.398584 -0.558716 -0.768146 -0.378002 0.44176 -0.315618 0.000124036 0.480527 -0.150014 0.771426 -0.829161 0.583808 0.755865 -0.686422 0.798286 -0.438757 1.01386 -0.757865 0.959078 -0.330122 0.0788742 -0.51949 -0.564719 -0.399992 0.460722 -0.16394 0.317471 -1.09152 0.498196 -0.538172 -0.877666 0.909543 0.722176 -0.668207 0.961116 0.635016 -0.855926 -0.79914 0.0850636 -0.667415 -0.559433 0.808518 -0.259989 0.109454 0.664433 -1.03872 0.653429 0.391454 -0.274054 0.992895 0.0489336 -0.887694 -0.275384 -1.1169 -0.273322 -1.11443 0.489342 -0.652321 -0.907865 -0.301739 -1.23006 -0.361964 0.643151 -0.00645134 0.733449 -0.136193 -0.0843904 0.0109991 0.00612768 -0.431204 -0.111394 -0.0714552 -0.31328 -0.723428 0.948436 0.916968 -0.349809 -0.711166 0.50179 -0.776411 0.0822771 -1.17931 -0.898702 -1.04261 -0.704637 0.541789 -0.636825 0.23327 -0.422392 0.770565 -0.346814 0.49202 0.523682 0.732915 0.706903 0.133163 0.518001 0.86109 0.89207 -0.269519 0.95662 -0.632586 0.59382 -0.766706 -0.100337 0.79499 -0.310425 0.591589 -0.154375 -0.60512 0.514043 -0.431656 -0.0372635 -0.758313 -0.484947 -0.0745285 -0.149046 0.642817 -0.998468 0.407429 0.660262 -0.878629 -0.287824 0.124366 0.480783 0.354823 0.886543 0.411009 -0.28232 -0.448371 -0.146791 0.519326 -0.666152 -0.127685 -0.667979 -1.3013 -0.81651 -0.765871 -0.364462 -0.920964 0.0701347 -1.05398 -0.52312 -0.935761 0.0325312 -0.533071 -0.584198 0.358805 0.18623 0.895191 0.733836 -0.455859 0.0194594 0.824245 -0.191325 0.223528 0.956843 0.236251 0.315803 0.415672 0.76229 -0.633466 -0.85501 -0.178909 -0.423907 0.0712013 -0.0569543 0.107756 -0.313081 0.0963151 -0.508239 0.0870292 0.465223 0.495865 -0.634935 -0.965541 0.333945 -0.869476 -0.326053 0.577955 0.261436 0.757712 0.238823 1.05071 0.143173 0.1272 0.0526463 1.13876 0.509942 0.606315 0.734016 -0.26667 -0.0156849 -0.186435 -1.11483 -0.192588 -0.590721 -0.49251 0.179312 -0.824898 0.799227 -0.144052 0.139372 -0.749708 0.470408 0.599071 0.327994 -0.0755312 0.532323 0.961921 0.84013 -0.248628 -0.248867 -0.698897 -0.174439 -0.237103 0.863205 -0.387075 0.607665 -0.443818 -0.377685 -0.76361 0.18711 0.13057 -0.0775758 0.0330167 -0.397101 -0.444754 0.324722 0.933417 0.149311 -0.276453 -0.74677 0.0893275 0.675055 -0.0724507 -0.909672 -0.555281 0.0232852 -0.848313 -0.79103 0.575642 -0.154873 0.375192 0.494606 -0.506207 0.489938 -0.676101 -0.536341 -0.793172 0.596638 0.8337 -0.210285 -0.408811 -0.416445 -0.931092 -0.267854 0.352087 0.832058 0.518063 -0.254112 0.450246 0.866788 0.939148 0.118815 -0.682969 -0.332373 0.531611 -0.381099 -0.785212 0.679299 -0.847446 
0.44537 0.622359 -0.400586 -0.544965 0.319348 0.762989 0.577719 -0.214077 -0.224263 -0.538022 0.0628996 0.458022 0.402684 -0.152231 -0.437321 -0.0874716 -0.541784 -0.269528 0.54152 0.0846858 -0.638109 -0.891465 0.280353 -0.794637 -0.413025 0.300053 0.093262 0.739323 0.638635 -0.00317891 0.213456 -0.952077 -0.2234 0.183887 0.597894 -0.409925 -0.971676 -0.72776 -0.398866 0.704452 0.334571 -0.668744 0.641786 0.178134 -0.304836 0.0841301 0.0143059 -0.858931 -0.615327 -0.661473 0.0110306 -0.238131 0.0601816 -0.697807 0.37753 -0.691099 0.613452 0.837381 0.619544 -0.291424 0.253223 0.27077 0.430983 -0.282582 -0.342698 -0.118821 -0.608393 0.677431 0.207708 0.997534 0.00611326 0.19739 0.97004 0.1138 1.04007 0.337463 -0.685423 1.05285 -0.174363 0.556416 0.459607 -0.766735 -0.577433 -0.0157644 0.0893271 -0.706419 -0.677442 -0.902013 0.611685 -0.82486 -0.603116 -0.671367 -1.09395 -0.545899 0.00219322 0.256802 0.697963 0.318456 1.51861 1.1894 0.757122 0.815126 -0.207725 1.01533 0.314993 -0.754567 -0.694909 -0.684701 0.458309 -0.389455 0.422852 0.0793849 0.386928 0.136346 0.0718944 0.11927 0.241325 -0.946406 -0.109352 0.121155 -0.448249 -0.620684 -0.797071 0.833613 0.291024 1.46182 0.241081 1.37774 0.316492 1.03785 0.152704 0.615151 -0.0116075 0.753667 -0.545633 0.106301 -0.618452 0.0105831 -0.194486 0.416015 -0.939803 -0.349122 0.306571 -0.570635 -0.540364 -0.510691 0.103019 -0.742322 -0.959219 -0.813284 0.737953 -0.422614 0.889093 0.701946 0.194252 0.101671 1.16047 0.402872 -1.06125 -0.0365546 0.583159 -0.668173 -0.35064 -0.266999 0.5644 0.442792 -0.682277 0.549356 0.753729 0.241306 -0.607616 -0.313629 0.248831 0.613097 -0.863948 -0.84707 -0.757131 0.0337285 -0.556047 0.0884635 0.509863 0.634751 1.33064 1.72739 0.403674 0.151101 0.774376 0.475066 -0.0199874 0.630427 0.773576 -0.180548 -0.413403 0.280223 -0.0302993 0.523274 -0.284201 0.2642 0.497574 -0.810333 -1.02213 0.336444 0.332639 0.120872 -1.10736 -0.34129 -0.776841 0.262514 0.589949 0.549551 0.498708 1.46568 0.94787 -0.440661 0.426118 -0.407314 -0.800782 -0.204654 0.00837822 0.337684 0.640441 -0.444331 0.119724 0.301306 0.460364 -0.351997 0.84017 -0.663865 0.531903 -0.226457 0.150401 0.156005 -0.128983 -0.700042 -0.851784 -0.165053 -0.137387 0.635354 1.47493 -0.0760998 1.35128 0.705603 1.02748 0.447472 1.13289 0.522561 0.792785 0.0488843 -0.16202 0.411986 -0.292425 0.964973 -0.335883 0.0359987 0.666995 0.222902 0.550266 -0.822749 0.690582 0.31521 0.414659 -0.134998 0.364506 -0.632619 0.232558 0.527931 -0.0954243 0.10811 0.862746 0.146451 0.467725 0.873348 -0.752032 -0.0493898 0.888918 0.296013 0.347623 0.245167 -0.391921 -0.23295 0.520386 0.87658 -0.46197 -0.175717 -0.682411 -0.434131 0.58199 -0.103014 0.289791 -0.886452 -0.295814 0.427049 -0.161279 -1.26706 -0.0520082 0.0453081 0.178959 0.218131 0.0327612 0.730327 -0.276288 0.664362 0.354041 -0.0745593 1.10371 -0.642565 0.837033 0.031181 -0.36459 -0.852702 0.743063 0.428022 -0.624841 -0.90005 -0.00778255 -0.623984 -0.316119 0.171735 -0.572303 -0.80138 -0.347516 -0.382705 -0.638722 -0.591799 0.178647 0.735662 -0.332754 -0.196536 0.239477 -0.191677 0.567453 0.0234521 0.337749 -0.766287 -0.690324 0.647131 0.490046 -0.163059 -0.41858 0.193174 0.319156 0.72486 0.504054 0.169462 -0.778835 0.504018 0.0059291 -0.956841 -0.82771 -0.717913 -0.900017 0.891356 0.561156 0.903259 0.785989 0.486786 -0.579987 -0.076757 -0.469177 -0.864108 -0.233681 -0.696196 0.133597 -0.263838 -0.0859946 -0.813196 -0.542063 -0.162957 -0.784753 0.0697294 0.335258 -0.326954 0.360764 0.283876 0.163657 -0.917861 -0.0962852 0.825589 -0.373266 0.281233 0.796496 0.750133 -0.684915 0.237978 -0.835289 0.0807086 -0.611425 0.577806 -0.785547 -0.480249 0.685593 0.265753 -0.0806423 0.254216 -0.363243 0.951138 -0.487564 -0.962221 -0.294584 -0.863033 0.302389 0.434731 0.157669 -1.62821 -0.505721 -0.000149913 -0.0584649 0.913597 0.692697 -0.716078 0.207537 -0.400684 -0.117401 0.131711 -0.832615 0.546592 -0.894514 0.123403 0.849178 0.334465 0.493616 -0.175578 0.309064 -0.916536 -0.0204909 0.279456 0.0139372 0.18044 0.56395 -0.677383 0.133695 -0.491423 -0.914333 -0.523167 -0.234937 -0.377455 -0.314953 0.678207 -0.553146 0.596276 -0.645767 0.408287 -0.439425 0.837123 -0.523288 -0.56606 0.54494 0.904182 0.398945 0.544189 -0.236897 -0.0663185 -0.214132 0.189881 -0.412824 -0.875207 0.0512947 0.528782 -0.898893 -1.09069 0.286052 -0.325323 -0.36464 0.627934 0.81043 0.552343 0.152577 0.307481 -0.689939 -0.278378 0.717012 -0.482846 0.472653 0.48932 0.106326 0.932756 -0.0899354 -0.608079 -0.279956 0.339919 -0.862869 -0.333531 -0.200544 0.411693 0.424129 -0.757632 0.22375 -0.619588 -1.43982 0.0467329 0.307923 -0.266125 0.120431 -0.102123 -0.892153 -0.823776 0.23444 0.462426 0.7803 -0.0220297 -0.275001 1.10244 0.743105 -0.767141 -0.180591 1.02188 -0.431496 -0.61306 0.422932 0.310995 0.213902 0.424461 0.334244 0.698512 -0.641864 -0.254212 -0.076964 -0.883946 0.670779 1.10249 1.01004 -0.111886 0.471878 -5.10575e-05 -0.56876 -0.164684 -0.581132 0.563956 -0.656295 -0.825665 -0.0302759 -0.193114 0.270481 -0.448457 1.17148 -0.614585 -1.02139 0.281872 -0.0163868 -0.801332 -0.538509 0.804675 -0.835443 -0.918813 0.0324405 0.198442 -0.0930204 0.262337 0.508871 0.255143 0.0858973 -0.42542 -0.201849 -1.00895 0.183734 0.40009 0.710375 0.286843 -0.0521982 -0.219004 0.360653 0.926364 -0.365629 0.88653 -0.912875 0.00742452 0.120358 -0.810728 -0.597751 -0.211153 -0.437043 0.720189 0.968236 0.791188 0.7538 -0.292526 0.1309 -0.987092 -0.680099 -0.676654 0.972677 0.723477 -0.569966 0.866554 0.779244 -0.315868 0.101972 0.0669903 0.828934 -0.501039 0.124966 0.642177 0.333197 -1.25728 0.502021 -0.523437 0.641744 0.364296 -0.684585 0.0891197 0.186254 0.616143 0.803767 0.120384 0.687819 0.66504 -0.883545 0.034648 0.561276 -0.0019482 -0.6099 0.704332 0.0433015 -0.628502 0.669652 0.739812 0.584693 -0.400247 0.68695 -0.478552 0.523207 -0.230194 0.543841 -0.625478 0.0647837 -0.278341 0.0827465 0.336545 -0.118165 -0.196596 0.904861 0.741098 -0.23988 -0.500674 0.179409 -0.864471 -0.210575 -0.782192 -0.41821 0.934082 0.665964 -0.884299 -0.205773 0.340322 0.28472 -0.716209 0.893828 0.0649209 -0.15536 -0.850089 -0.534369 -0.635694 -0.291495 0.467826 -0.0284883 1.09807 0.836996 -0.460495 1.19662 -0.625866 0.683646 0.577902 -0.0651927 -0.366626 -0.798677 0.26135 0.425256 -0.64715 0.419802 0.285554 0.701973 0.67128 -0.556344 -0.0457049 -0.752027 -0.220276 -0.296192 0.594881 -0.911894 0.469715 -1.09678 0.378408 0.622277 0.250689 -0.0482323 1.27018 0.858811 1.22008 -0.709102 -0.800001 0.842689 0.86299 0.5888 0.101793 -0.227237 0.758845 -0.197924 -0.0810321 0.0547492 -0.516477 -0.692072 -0.149715 -0.889419 0.833757 -0.168607 -0.364904 -0.533239 -0.744734 0.553457 0.572646 -0.812574 0.416062 -0.685424 -0.505326 0.761873 0.212563 0.612456 -0.383243 0.568739 0.562644 -0.88773 -0.378849 0.0962268 0.749882 0.639799 -0.0211558 0.404101 -0.588045 0.957921 -0.842541 0.651406 -0.100758 0.998122 -0.742038 -0.970854 0.0031524 0.177619 -0.73928 0.583835 -0.37878 -0.481386 0.0523733 0.711888 0.146559 0.738404 -0.0417756 0.541303 -0.218207 0.961045 -0.576994 -0.648877 0.00627368 0.300414 -0.140369 0.0820821 -0.632554 -0.270853 -0.80419 0.995064 0.979523 -0.665392 0.937155 -0.452747 0.300202 0.862047 -0.965652 -0.88272 -0.773287 
0.03466 0.919439 -0.313738 -0.0484036 0.594674 0.839736 0.0508271 0.912401 -0.0260586 -0.377376 0.44139 0.122362 0.969374 0.336696 -0.465284 -0.788752 -0.255733 -0.568973 0.222172 0.791198 -0.403118 0.407925 0.902645 0.355917 -0.251878 -0.796283 0.177878 -0.674803 -0.0968051 0.881799 -0.042 0.500685 -0.713768 0.173461 -0.744292 -0.00874446 0.637562 -0.782253 -0.698687 0.815945 -0.41517 0.694122 -0.284292 -0.662696 -0.545985 -0.318332 1.00365 0.217521 -0.528082 0.564928 -0.509123 -0.373264 -0.701251 -0.859145 -0.576043 0.248833 -0.425827 0.146981 -0.107472 0.882692 -0.450427 0.418033 -0.693066 -0.563494 -0.869872 -0.672597 -0.336002 0.631619 0.830247 -0.90973 0.580543 0.896056 0.541217 -0.667226 0.840757 0.48071 -0.650923 -0.0166982 -0.463016 0.175548 0.820117 0.27651 0.855686 -0.0637039 0.611493 -0.821249 -0.15796 0.304691 0.0167217 -0.0126784 0.477735 -0.433104 -0.0470701 -0.412526 -0.24584 -0.507555 0.39308 0.523215 -0.697787 -0.608589 -0.0391914 -0.600929 -0.710227 0.110539 -0.191525 0.0756269 0.748868 -0.854781 -0.831916 -0.418794 0.883851 0.585775 -0.628733 -0.461618 -0.95695 0.0520189 -0.714421 0.304429 -0.73153 -0.164522 0.200733 -0.318432 -0.2768 -0.789697 -0.617576 -0.137404 0.14926 -1.08367 0.691488 0.13195 0.958795 0.245342 -0.935836 0.594694 -0.432887 0.129194 -0.499789 0.265191 -0.0074835 -0.528401 -0.108958 0.686406 0.783506 0.547911 0.992807 -0.591311 -0.344294 -0.298975 0.353621 -0.567671 0.855331 -0.999003 0.281645 0.0564385 -0.44898 0.199441 0.099152 -0.357262 0.888201 -0.686034 -0.214472 -0.418297 0.948495 0.665914 0.776119 -0.443931 -0.769231 0.685023 0.949162 0.685509 0.0104279 -0.209672 0.638203 0.970123 -0.661679 0.860319 0.954293 0.0181632 0.680521 -0.506589 -0.194883 0.560942 -0.0972041 0.0206378 -0.742244 0.10408 -0.968655 0.8505 0.0845314 -0.396042 0.776263 -0.438113 -0.841756 -0.761632 -0.02824 0.933926 -0.446258 -0.849913 -0.901521 -0.677616 -0.317452 0.941527 -0.578074 0.511639 0.633385 -0.024542 0.107863 -0.937726 0.197935 -1.0279 0.464655 -0.895606 -0.670955 -0.943723 -0.53794 -0.313626 0.782622 0.464107 0.746482 -0.61693 0.0188082 0.249885 0.121369 0.716626 -0.538132 -0.865216 -0.776832 -0.0145548 0.324304 0.599057 -0.574584 0.397644 -0.766974 -0.44457 0.408775 0.629624 0.450738 -1.15997 0.68445 -0.534169 -0.69832 -0.993293 -0.139369 -0.1534 -0.0412362 0.894926 0.040099 0.742588 -0.463927 0.594857 0.981322 0.383332 0.588464 0.121855 0.258423 -0.825183 0.498109 0.185414 0.256702 -0.0673702 0.20008 -0.0933255 0.258294 0.753952 -0.589755 -0.996404 -0.589159 -0.793821 -1.14622 -0.528216 -1.0709 -0.621762 0.356748 -0.104264 -0.437438 0.538346 0.220803 -0.131318 0.380712 -0.582166 0.9656 -0.776709 -0.219576 0.791358 0.833679 0.271563 -0.805763 0.387895 0.757036 -0.913791 -0.817017 -0.0852458 -0.300752 -0.54051 0.36675 -0.826174 -0.935907 -0.249239 -0.947883 0.45861 -0.111465 -0.283168 -0.339447 -0.574196 0.659961 -0.576354 -0.0584692 -0.638954 0.320737 0.01106 0.423103 0.423508 0.141464 -0.470086 -0.961199 -0.327904 0.690315 0.477605 0.302585 0.428959 0.764024 -0.216025 0.444931 0.215852 -0.453785 -0.168875 -1.02698 0.630247 -0.702993 -0.443471 -0.208812 0.11486 0.538738 0.00524795 -0.154775 0.832724 0.358551 -0.519947 0.169443 0.630522 0.181622 0.681074 0.52198 0.232574 0.656261 0.0132041 -0.900194 1.14589 -0.797385 0.89305 -0.7206 1.07427 -0.543747 -0.135932 -0.122376 0.509027 -0.904781 -0.659262 0.953128 -0.396148 0.63869 0.0321167 -0.310883 -0.458445 -0.0330103 -0.981265 0.0505663 -0.362874 -0.612882 -0.443428 0.377674 0.470293 0.188899 -0.860826 0.509219 1.01781 -0.092993 -0.301169 -0.0305522 -0.524127 0.913432 -0.735343 -0.320205 -0.923494 -0.394704 -0.425648 -0.463465 0.521826 -0.196666 -0.043224 -0.135038 -0.547825 0.899403 -0.203745 0.935777 -0.0241084 -0.395121 -0.221219 -1.1272 -1.15339 0.109028 0.45689 -0.559265 0.926376 0.721156 0.0693614 0.983838 0.235154 -0.572118 -0.190686 -0.624166 0.0929917 -0.0437336 0.825304 0.035762 -0.663957 -0.160262 0.650985 0.593201 -0.769787 -0.774722 -0.695049 -0.134078 -0.359962 -0.596215 0.801803 -0.341287 -0.716231 -0.0304707 0.822033 1.03462 -0.632857 0.800328 0.285344 -0.223439 1.14027 0.329421 -0.772759 -0.570878 -0.608141 0.0659479 -0.150743 0.527374 -0.883172 0.280092 -0.928225 -0.576895 -0.153593 0.261903 0.191833 -1.06236 -0.707624 -0.249116 -0.856601 -0.869535 0.0717689 0.439298 -0.659722 -0.000271432 -0.0221706 -0.275731 0.479653 -0.444184 0.887708 -0.546977 -0.780703 -0.0242975 -0.715184 0.311239 0.66543 -0.502542 -0.0851118 -0.32322 0.456662 -0.554816 -0.208436 -0.652911 0.47452 -0.030485 -1.16096 -0.512057 -0.639427 0.337671 -0.265237 -0.654478 -0.0383593 0.699115 -0.702527 0.111183 -0.0494903 0.768255 -0.908385 -0.710253 -0.0542905 0.151742 0.739376 -0.72906 0.302744 -0.134763 0.743814 0.674156 0.618707 -0.936061 0.400485 0.427221 0.190223 -0.075501 -0.046831 -0.102234 -0.626837 -0.529254 0.543861 0.259256 0.075855 -0.131879 -1.101 -0.534007 0.298506 -0.819187 0.991417 -0.831285 0.206243 0.767465 -0.25974 -0.440631 -0.451877 0.84537 -0.392624 0.59702 0.167902 -0.0513374 0.739116 0.0445372 -0.432259 0.339256 -0.527943 -0.746313 -0.625013 -0.562376 -0.898425 -0.491942 0.568368 0.0221449 -0.884249 0.672372 -0.516617 0.207914 -0.790334 -0.94311 0.740608 -0.552335 -0.381148 0.73639 0.442297 0.395481 -0.99794 0.685257 -0.888324 0.825037 0.912246 0.943921 -0.290309 0.885195 0.645517 0.898497 0.893293 -0.330525 0.628385 0.265661 0.441681 0.835173 0.524164 -0.820621 0.508163 -0.873802 0.849288 0.471414 -0.478245 0.361327 -0.694125 0.749481 -0.372872 0.723319 -0.266522 -0.874453 -0.513252 0.568776 0.940703 -0.52048 0.31881 -0.90189 -0.331734 0.639365 -0.482112 0.788279 0.066029 -0.105207 -0.466031 -0.384128 -0.0240135 0.707656 -0.0778983 0.53 -0.36487 0.0102287 -0.841311 0.435233 -0.51361 -0.2203 -0.654396 -0.607472 -0.726264 -0.864544 1.00871 -0.030248 -0.268493 -0.296796 0.886503 -0.1996 -0.0988106 0.585217 -0.396752 -0.242106 1.02145 0.0854901 -0.310153 -0.325904 0.899564 -0.0606796 0.670248 0.387721 -0.425816 0.304959 0.66933 0.0586193 0.862888 -0.750576 0.165501 -0.421903 0.650209 -0.0362756 0.138405 -0.704273 -0.626146 -0.818279 0.244289 -0.0776661 -0.50011 0.851533 -0.217032 0.39326 -0.635256 0.942943 0.34873 -0.395321 0.552939 0.957364 -0.405662 1.29217 0.833076 0.549264 0.180259 0.976683 -0.699588 0.850703 0.0607925 0.798348 -0.413046 0.840973 -0.692985 0.379059 0.253135 0.589472 0.949831 0.883892 0.270887 -0.295261 -0.221076 -0.231633 0.600569 0.567962 0.0444512 0.87604 0.166299 0.796781 0.137015 1.30714 0.559703 1.11325 0.289261 -0.469108 0.806968 0.719963 -0.672112 -0.49466 0.74365 -0.350826 -0.583443 -0.850451 0.815571 0.268443 -0.740555 0.777715 0.104938 -0.0771013 -0.326788 -0.589309 -0.231743 0.184143 -0.514959 -0.780297 0.371143 0.997473 0.0951768 0.959001 0.848089 0.0391192 0.215734 0.885445 -0.725382 -0.628496 -0.331175 -0.820503 0.21298 -0.901074 -0.334244 0.61834 0.485381 0.480598 0.529312 -0.286702 -0.268285 -0.0594873 0.817689 0.54635 -0.123422 0.224451 0.635818 0.961981 -0.947379 0.321474 -0.403986 0.193661 0.179151 -0.0144052 -0.0192628 0.578057 0.490123 -0.913772 0.840862 0.881466 -0.136423 0.274344 0.815286 -0.817154 -0.656704 -0.162476 -0.836756 -0.0534709 0.25723 0.926561 0.834596 -0.379203 -0.492961 0.0383764 0.291606 0.0620724 -0.854404 
-0.90425 0.223498 0.901682 -0.754589 -0.92116 -0.659083 0.268037 -0.194171 -0.415796 -0.0849211 -0.98688 0.568555 -0.795863 -0.753871 -0.673957 -0.985792 -0.374354 -0.233769 0.771776 0.834818 -0.685405 -0.258005 -0.0400535 0.294365 0.392559 0.47268 -0.706689 0.240647 0.39764 0.666865 -0.998138 0.539053 -0.842687 -0.429233 -0.0489857 0.358797 -0.0337788 -0.0996112 0.240462 0.696123 -0.892968 0.489593 0.817484 -0.45094 0.311089 -0.0313451 0.501546 -0.185082 0.516466 -0.731235 0.141609 0.192834 -0.525207 0.7589 0.90252 -0.463322 -0.825323 -0.916747 -0.49572 0.595087 -0.628283 0.461489 0.493816 0.440403 0.249336 -0.897016 0.767314 -0.410512 0.364148 0.863269 0.470316 0.406502 -0.109681 -0.803195 0.696194 -0.299808 0.574926 -0.0991065 0.0111935 0.990135 -0.710412 -0.747117 0.925624 0.814531 0.755161 0.500179 0.205493 -0.816407 0.649146 0.200172 -0.564683 0.53925 0.464434 -0.0919851 0.920019 -0.955042 0.0901289 0.701953 -0.21214 0.674598 -0.0594224 -0.398084 -0.333508 -0.546681 -0.442583 0.196882 0.669663 0.0470327 0.631898 0.0416734 -0.877026 0.691304 -0.14098 0.85566 0.576589 0.525544 -0.587252 0.109801 0.26109 -0.381017 -0.772503 0.427136 -0.537351 -0.120115 -0.517483 0.626534 -0.118794 -1.11188 -0.496729 -0.843622 0.275618 -0.999016 -0.559874 0.384448 0.420834 1.24547 -0.448562 0.275897 -0.363036 -0.97369 0.985304 0.925905 -0.505743 -0.626868 -0.253668 1.05083 -0.826978 -0.795514 -0.914729 -0.731533 -0.255935 -0.0724124 -0.519922 -0.954503 -1.20389 -0.182222 -1.28472 0.0925853 -1.18512 -0.0300247 -0.221345 -0.906569 -0.810866 0.452786 -0.618938 0.0829037 0.822516 -0.308546 -0.843311 -0.676361 0.298348 0.0257862 0.68695 -0.432826 0.543184 -0.89356 0.557592 0.334645 -0.993537 -0.602288 -0.739253 -0.816268 0.36171 -0.332025 -0.580335 0.00218044 -0.620577 0.274062 -0.190653 0.732675 -0.33747 0.560671 0.33929 0.834891 0.29022 0.947894 -0.7029 -0.438543 0.871435 0.136711 0.413461 -0.444212 -0.13618 0.893824 -0.397309 -0.103326 -0.151768 -0.134333 -0.169226 0.584218 -1.02997 -0.512278 -0.210852 -0.163832 -0.800837 0.486636 -0.144419 -0.509725 -0.625995 -0.337537 -0.380075 0.424638 0.529426 0.458368 -0.582636 -0.528106 0.272848 1.16754 -0.113165 0.342592 0.408029 0.105732 0.438935 -0.0590159 0.204378 0.971075 0.373579 -1.05217 0.572481 0.405258 0.000219985 -0.982577 -0.242053 0.469942 0.36525 -0.936399 -0.706653 0.51081 0.44808 0.619801 -0.895576 0.299554 0.713739 -0.25578 0.161374 0.179675 0.228992 0.333364 -0.288799 -0.231612 0.741259 -0.821091 0.331929 -0.16504 0.805019 -0.511231 -0.837118 0.453665 -0.0595118 0.137483 -1.45383 0.0453002 -0.0107192 -0.853264 -0.362715 0.105304 -0.240413 0.212178 -0.637842 0.426447 0.822099 -0.214473 -0.364463 1.40633 0.214773 0.086503 0.861778 -0.603917 0.738444 -0.0765015 -0.0439281 -0.695135 0.0521078 -0.447601 0.784469 -0.305635 0.379877 0.771913 0.151306 -0.014939 0.366076 -0.683677 0.625449 -0.858821 0.524747 0.908372 -0.621445 0.186333 -0.389845 -0.016205 1.07459 0.811516 1.09392 -0.961246 -0.494272 0.323794 -0.563886 0.501607 0.778143 -0.608415 -0.617304 -0.23594 0.738935 -0.126542 -0.258721 -0.10876 -0.782839 -0.288393 -0.65882 -0.362391 0.741567 -0.833156 0.53306 -0.598263 -0.0968147 0.0226552 0.981819 0.97486 0.21527 0.927673 -0.711041 0.493854 0.898416 -0.769812 -0.49863 -0.283243 0.5163 0.974137 1.01859 0.550859 1.1579 1.11608 1.11098 -0.322575 0.126123 0.818309 -1.00433 -1.13508 -0.599813 -0.134066 0.805763 -0.470111 -0.95709 -0.643406 0.00262458 0.0804561 0.529997 0.266784 0.973066 0.171799 0.361476 0.812731 -0.852191 0.389417 0.203475 0.976142 -0.784973 1.1459 -0.0978123 0.032755 -0.277866 0.741156 -0.695589 0.444411 -0.0798661 -0.246536 -0.0886814 0.158544 0.378174 -0.691864 -0.741696 0.578237 0.536497 0.556371 0.185736 -0.503285 -0.165041 -0.186861 -0.722544 -0.445601 -0.903313 -0.547104 0.680958 0.094338 1.17592 0.191761 0.708644 -0.386195 -0.571868 0.768082 0.380048 0.182852 0.470882 -0.524103 -0.627634 0.253008 0.0364765 0.480955 -0.382025 -0.807389 -0.204678 0.979688 1.15382 0.880939 0.670608 -0.168334 0.732343 -0.145671 -0.478201 -0.864825 0.282573 0.837934 -0.440899 0.648517 0.0112622 0.94102 -0.652026 0.66325 -0.297824 -0.950021 0.308208 0.611405 0.0652251 0.902783 0.111841 0.984214 0.0397474 0.349367 0.952632 0.456133 0.453746 0.188534 0.59411 -0.591251 -0.870696 -0.880948 -0.981113 0.634348 0.0846046 -0.215533 0.589069 0.321326 -0.187041 0.152962 0.6806 0.551933 0.859288 0.747086 0.305461 0.491261 0.51318 -0.000818104 0.498862 0.0190949 -0.486244 0.440818 0.06641 0.12115 0.434949 0.783538 -0.0100236 -0.499895 -0.863059 0.66777 0.222674 0.145746 -0.173609 0.329412 0.0480334 -0.807022 0.210644 0.434694 -0.473902 -0.780396 0.0099998 -0.314583 -0.552815 -0.48419 0.184008 -0.0346773 -0.442308 0.0321209 -0.254517 -0.207675 0.441384 0.44618 1.08512 0.417461 -0.652904 -0.578075 0.232488 0.199256 -0.535448 -0.705201 0.145576 0.424476 -0.502584 -0.713117 -0.832416 0.783256 0.866331 1.01437 -0.17644 0.187665 -0.235767 0.0975639 -0.222286 0.617955 -0.0387893 -0.711507 0.408491 0.206446 -0.169961 -0.890288 0.0414074 0.459895 0.838292 0.208146 -1.164 -0.600929 0.821975 -0.741578 -0.534527 0.590784 -0.0190065 -0.974845 0.264828 -1.09647 0.723487 -0.684006 0.407076 0.180526 0.926953 0.00495485 -1.06511 0.258422 0.261725 -0.851203 -0.0610728 -0.0181176 0.2535 -0.499094 -0.178238 0.0557386 0.25308 -0.0674062 -0.0315841 -0.112011 0.53478 1.06524 -0.157454 0.53815 -0.178774 -0.436602 0.445195 0.491887 -0.255175 0.164016 -0.385557 -0.251893 -0.537173 -0.611847 0.269721 1.0355 0.525379 0.796433 0.0229008 -0.484829 -0.0982341 -0.490969 0.415112 0.235331 0.779669 0.512706 -0.407349 0.3361 -0.415266 0.214936 -0.017271 0.237524 -0.131028 0.445764 -0.262204 0.148456 -0.385258 -0.766703 -0.0347095 -0.754436 0.312656 0.441216 -0.450736 1.1971 1.23634 -0.527279 0.397223 -0.185336 -0.705602 -0.0446733 -0.809909 -0.439389 -0.688736 -0.263108 0.773328 -0.288509 0.490704 1.36375 0.533432 1.10749 0.873774 0.988179 -0.536599 1.17238 0.23882 1.08846 0.97371 -0.565624 0.863875 0.982508 -0.69796 0.232257 0.474192 0.382383 -0.685509 -0.034683 0.297975 0.300928 0.0571704 0.0133777 -0.0792079 0.614663 0.678125 -0.435475 0.853377 0.103194 0.421506 0.44933 0.365431 -0.472423 1.11169 0.507203 0.952091 0.523545 0.703262 -0.218934 0.65301 -0.190898 1.12321 -0.172306 0.132403 -0.644089 -0.124969 -0.0378845 -0.0403415 -0.578144 -0.729724 0.860951 -0.276124 -0.498864 -0.315808 -0.617305 1.09346 -0.0465918 1.39316 -0.0300925 -0.374412 -0.358525 0.51376 0.799255 -0.197126 0.834945 -0.620561 -0.693539 -0.603942 0.778654 0.989843 0.534641 -0.507167 0.826179 -0.48405 0.905476 0.0367071 -0.649245 0.174681 -0.558404 -0.376382 1.03512 0.10986 0.20116 1.07591 0.183736 0.298676 -0.697039 0.301323 0.193119 0.638279 0.971655 0.338018 0.954451 -0.647467 0.987889 -0.0256266 -0.839876 0.95775 -0.142341 0.700446 -0.849153 0.749223 0.134207 -0.726562 -0.351354 -0.249404 -0.727139 0.191415 0.0425621 -0.441639 0.563883 0.0704455 0.346947 -0.676993 0.1085 -0.672086 -0.302694 -0.535875 -0.358513 -0.174346 -0.270883 0.0773142 -0.0261587 -0.815631 0.695669 0.146059 0.395335 -0.411553 0.02742 -0.735795 -0.586578 0.465387 0.337133 -0.862489 -0.890279 -0.0325034 -0.456025 0.25435 0.0954205 -0.772841 -0.957214 -0.316007 -0.815813 
0.225785 0.117527 -0.0768452 0.886785 -0.502989 -0.893825 -0.797443 -0.511758 0.377642 -0.146587 0.493697 -0.0472845 0.289846 0.18373 -0.959189 -0.461217 -0.718665 -0.951035 0.530953 -0.45117 0.630026 -0.964936 -0.593878 0.00981217 -0.839751 0.305757 -0.28324 0.657582 -0.751286 0.22654 -0.225957 0.0322297 0.394416 -0.172274 0.848723 -0.551489 0.559963 0.000635209 0.173874 0.309242 -0.131335 0.0109356 -0.00390724 -0.44392 0.0523994 0.421809 0.527502 -0.371532 -0.239453 0.674559 -0.130737 0.208519 -0.216998 -0.918631 0.876698 0.620288 -0.371371 0.190205 -0.492842 0.152676 0.270523 0.561061 -0.351801 0.501134 -0.0604098 0.85021 -0.530339 0.224724 0.043246 0.938132 0.827099 -0.0817537 -0.211524 0.562324 -0.311966 0.370645 0.181276 0.104012 0.327466 0.871855 -0.665819 -0.650166 -0.197917 0.588479 0.946524 0.974335 -0.546749 0.0933067 -0.0404592 0.802346 0.179218 -0.0945514 -0.592342 0.611221 0.332429 -0.482167 -0.965123 0.78782 -0.407878 -0.573928 0.781068 1.06878 1.17041 1.05252 -0.537859 0.422423 -0.0953635 -0.60369 -0.569622 -0.4345 0.687992 -0.608403 -0.838323 -0.470845 -0.474388 0.513871 0.833881 0.413035 -0.684141 -1.04606 -0.37546 -1.10864 0.635988 -0.646825 0.237542 0.546239 0.514046 -0.0508077 -0.387561 -0.582664 0.105395 0.548542 0.66118 -0.701504 -0.42301 -0.211799 0.742864 -0.809261 -0.355907 0.905622 0.682025 -0.88968 0.153107 -0.891941 0.777722 -0.574246 -0.977572 -0.567723 -0.359934 -0.133353 -1.0442 -0.711752 -1.245 -0.587512 -0.850814 0.881381 -0.63505 1.02274 -0.277906 0.321441 -0.332422 -0.606163 0.386957 -0.748167 0.844738 -0.803394 -0.455943 -0.633612 -0.326922 0.595961 0.250156 -0.0165715 0.806157 0.304074 0.215951 0.047364 0.239579 0.41584 -0.315252 0.573011 0.210606 -0.376292 -0.655552 0.481448 0.803389 0.437591 0.92314 -0.288396 -0.397837 -0.0656453 -1.3299 -1.12548 -0.117512 0.767184 0.196754 -0.645524 -0.161417 -0.896 -0.345397 -0.846801 0.245968 0.392054 -0.533032 0.414437 -0.72584 -0.662371 -1.17695 0.149937 -0.0880491 -0.897963 -0.887911 0.666342 0.84829 -0.558138 0.354611 0.347908 0.270281 0.711564 0.484414 -0.22774 -0.153156 -0.459757 1.03959 -0.650652 0.945379 -0.365773 0.640796 0.459068 -0.567184 -0.336027 0.138207 0.145114 0.414069 0.69723 -0.0369941 0.172286 0.476735 -0.00793364 -0.396198 -0.777384 -0.695992 -0.349377 -0.0349493 -0.58915 -0.364814 0.798714 -0.980166 -0.0433372 0.663088 -0.649479 -0.479345 0.478661 0.135697 0.5646 0.473139 0.25724 0.747429 -0.561691 -0.43106 0.473304 -0.724212 -0.793085 -0.445071 -1.17023 -0.832135 -0.764492 -0.152046 0.138751 0.821599 -0.135378 -0.84063 -0.102835 0.261909 -0.863734 0.490408 -0.522651 -0.161029 0.407983 0.611059 -0.252913 0.601568 0.0316511 0.385387 0.727507 0.72033 0.871899 -0.784907 0.717854 -0.913901 -0.682794 0.251138 -0.245989 -0.0329784 -0.726978 -0.597994 -0.777629 0.405363 0.438258 -0.483806 0.792872 -0.994781 0.014714 -0.0650128 -0.172851 0.526508 0.901945 0.224984 -0.339611 0.839711 0.749861 1.14181 -0.149092 0.610178 0.824774 0.921204 -0.40593 0.520541 0.247759 0.347114 -0.398351 -0.98746 0.183835 -0.5536 0.339777 0.199971 -0.545842 -0.922813 -0.833561 -1.07797 0.12207 0.856554 -0.531589 -0.307977 0.542442 0.505584 -0.327293 -0.431171 -0.906138 0.337537 1.47771 0.878871 0.403723 0.470628 0.142408 0.640106 -0.12937 -0.806173 -0.0377076 -0.0303782 0.434841 -0.537497 -0.302739 -0.598832 -0.237239 -1.1925 -0.00411821 -0.684454 -0.346317 -0.843868 0.454868 0.00330295 0.661616 -0.745472 0.405518 -0.95249 -0.604142 1.0342 0.270944 -0.285147 0.28861 0.967491 -0.313692 -0.770541 -0.612829 0.587123 -0.448077 -0.526682 -0.614162 -0.480896 -0.473633 -0.698129 -0.170635 0.0813427 0.570014 -0.756643 0.865367 -0.708608 0.366476 -0.353669 0.999862 -0.0169744 -0.829437 0.399428 -0.00926885 1.18453 0.115649 1.35084 0.173885 0.108504 1.17767 0.288907 -0.391815 -0.0232077 0.68223 -0.318069 -0.176173 0.0382488 0.0813043 -0.168348 0.374926 0.675451 -0.282641 -0.618647 -0.247254 -0.116867 -0.405813 1.22394 -0.810263 0.0335042 0.731365 0.486937 1.01516 1.13496 0.955541 0.447632 1.02796 0.305669 0.686294 0.0952738 0.0561427 -1.10327 0.967549 0.101337 -0.569193 0.0822876 0.55303 -0.938508 0.0329219 -0.564974 0.549683 0.83747 -0.290342 -0.340365 0.303272 0.365454 -0.0064334 1.00595 0.151691 0.215888 0.654635 1.3006 -0.117541 0.627666 -0.388437 -0.51806 -0.173088 0.449444 0.402982 -1.1107 -0.214198 0.439551 1.19253 0.168082 0.524152 1.00543 0.864309 -0.542154 -0.156564 -0.845484 -1.05706 0.59537 -0.330696 0.703322 0.16502 -0.988392 -0.03919 0.198557 -0.210175 0.211211 1.14121 0.325449 -0.122432 0.917219 0.0377218 -0.723404 -0.471315 -0.156588 0.676707 0.959953 0.650447 0.520701 0.672366 0.418022 -0.25878 -0.944579 0.413398 -1.19825 0.219973 -0.210963 -0.127455 -0.387714 0.0173092 0.249691 -0.333191 -0.169941 0.67182 -0.315864 1.29569 -0.218461 1.29907 -0.427107 -0.389872 0.322601 -0.589463 -0.0977231 0.109192 -0.49289 0.516462 0.906115 0.356426 0.373345 0.273318 -0.482695 -1.38572 -0.566194 -0.0640238 0.0766684 -0.419154 0.941065 -0.245146 -0.920258 0.846694 0.772792 -0.284814 0.704882 0.0422223 0.705346 0.36637 0.389669 -0.0306127 0.568929 0.488719 0.170465 0.247098 0.950288 -0.367836 0.902117 0.0919148 -0.127315 0.0593262 0.184618 -0.515425 -1.15597 0.570843 -0.386774 0.85685 -0.818274 0.0795076 0.931096 -0.681638 -0.126313 0.515461 0.0917014 0.159136 0.184895 -0.658389 0.191817 0.507509 -0.859825 -0.196413 0.353069 0.456749 0.662032 0.364457 0.847329 -0.707045 0.42088 0.425541 -0.756609 -0.836806 0.479037 0.616326 -0.738086 0.334151 0.885799 -0.591609 0.994165 0.845752 -0.499464 0.0638736 -0.40615 -0.2594 0.277463 0.548956 -0.280866 1.16672 0.266481 -0.890393 0.396949 0.823723 -0.253472 -0.244209 0.0746867 0.590627 0.160326 -0.0539506 -0.211013 0.00464611 0.786707 -0.0562384 1.03813 -0.931666 0.887402 0.650816 0.904463 -0.929542 0.80389 0.921131 1.07218 1.30793 1.22177 -0.126182 0.732972 -0.472965 0.551678 -0.774658 -0.843 -0.846349 -0.484641 0.835538 0.935575 0.708327 -0.618484 0.757786 0.938453 0.0858828 -0.712708 -0.0815762 -0.0583021 1.03508 -0.769328 -0.235236 0.0636412 -0.236632 0.548827 0.760796 -0.436509 0.76754 -0.0203974 1.00346 1.27452 -0.0257608 -0.174094 0.199919 -0.808635 0.371863 -0.828068 -0.166457 0.988738 0.535006 -0.000239746 -0.156915 0.947363 -0.696625 0.546309 -0.23447 -0.139017 -0.258029 0.779012 -0.300293 -0.292189 -0.563899 -0.457425 -0.860276 0.654514 -0.739853 -0.610808 -0.492013 1.22588 0.93424 0.535085 0.914901 -0.403734 -0.58033 -0.424645 0.472941 -0.715455 -0.659683 0.491696 0.765908 0.281054 -0.695449 -0.348376 -0.607797 -0.236646 -0.325022 -0.866924 -0.580967 -0.754035 0.361508 0.0461936 -0.907063 0.392102 -0.783543 0.0302404 -0.160983 -0.529191 0.185386 -0.747528 -0.774517 -0.22289 0.0211185 -0.657422 0.756122 1.00025 0.990669 -0.448086 0.691823 -0.841818 -0.441803 0.803063 0.282521 -0.907037 0.334697 0.187391 0.0393065 0.357639 -0.118994 0.985121 -0.992532 -0.755741 0.247632 -0.489436 -0.541551 -0.909085 -0.877333 -0.594594 0.204432 -0.621068 -0.519 -0.870996 0.773919 0.815244 -0.563603 -0.720141 0.929748 0.0932263 -0.252588 0.0909397 0.745041 0.364427 0.712548 0.122633 -0.168065 0.532252 -0.942283 0.240875 -0.170203 -0.0238382 -0.772672 0.782574 0.197408 0.64423 -0.651511 -0.378164 0.820416 -0.103194 0.54513 
0.55717 -0.770656 0.289722 -0.332013 0.0350004 -0.309494 -0.279998 -0.454224 -0.386961 0.910277 -0.942245 0.76156 -0.613682 0.287503 0.306938 -0.171569 0.802886 -0.165888 0.877593 0.0288259 -0.0556206 -0.388403 -0.162488 0.954224 0.141131 -0.561794 -0.0989225 -0.0142978 -0.797601 0.284146 -0.938471 -0.968318 -0.0840997 -0.204226 -0.586425 -0.231248 -0.422522 0.43292 0.112179 -0.591624 0.161803 -0.378503 0.579894 0.44298 0.600813 -0.687532 -0.553972 -0.756224 -0.361125 0.158975 -0.335112 0.109167 0.831992 -0.952138 -0.166592 -0.322017 0.930042 0.0672119 -0.507863 -0.688095 0.523625 -0.609183 -0.757512 0.807301 -0.228147 -0.564197 0.297088 0.0222797 -0.791462 0.647271 -0.220321 -0.231296 0.552624 0.851648 0.603236 -0.787265 0.775178 0.556444 -0.870795 0.415891 0.673476 0.851983 0.380818 0.920477 0.636663 -0.0260507 0.0362698 0.209765 0.194498 -0.516578 -0.674507 -0.285026 -0.71036 -0.925947 0.868147 0.43475 -0.922377 -0.829141 -0.338466 -0.184781 0.138433 -0.840217 0.66176 -0.182283 0.865235 0.261352 0.889845 0.113536 -0.310276 0.462089 -0.0453341 -0.206957 -0.00961416 -0.934525 0.0179884 -0.787989 0.548512 0.139115 0.301272 0.805359 -0.916043 -0.0947858 0.678845 -0.38562 -0.238739 -1.23279 -0.388787 -1.00178 0.373781 -1.1194 0.583786 -0.390363 -0.339063 -0.769257 0.272868 0.0206427 0.607899 -0.3802 -0.786129 -0.340859 0.39484 0.123235 0.0511574 0.872837 0.98248 0.636696 0.414149 -0.570025 0.169664 -0.768857 -0.556775 -0.0832397 0.0614032 0.732084 -0.0609666 -0.224211 -0.235842 0.297241 0.468244 0.432813 0.408877 -0.470755 0.751338 0.914351 -0.338842 -0.848211 0.81936 0.956642 -0.715505 0.428452 -0.133841 0.925909 -0.606281 -0.423158 -0.908856 0.800714 0.786482 -0.114835 0.513099 -0.502819 0.559746 0.292642 0.0509726 -0.0464343 0.565411 -0.758959 0.216465 0.0159446 0.495706 -0.309133 0.41004 -0.569129 0.789475 -0.186072 0.880447 -0.311925 0.704619 0.785823 0.145112 0.744006 -0.702002 1.00781 -0.561083 -0.702228 0.711043 -0.134438 -0.759078 0.86839 -0.806664 -0.213672 1.18533 -0.0183266 0.741731 0.205057 -1.17208 -0.98863 -0.67044 -0.433035 0.422665 -0.466542 0.456301 0.504174 0.601089 0.771234 -0.968372 0.151317 -0.784449 0.109926 -0.751163 -0.189257 -0.554959 0.657154 -0.779742 -0.469782 -0.0509101 -0.14026 0.250843 0.27193 -0.5331 -0.453914 0.674712 0.856519 -0.324055 -0.107705 0.233712 -0.284968 0.116717 0.650362 -0.11089 -0.140673 -0.0850568 -0.0124563 -0.0255276 -1.00126 -0.487383 -0.60271 -0.820782 0.454336 -0.0691834 -0.0846974 0.123122 -0.579103 0.58611 -0.0214714 0.800397 1.10902 0.349332 0.29375 1.15821 -0.956956 0.540056 0.495135 -0.885021 0.510103 0.0710964 0.371527 -0.416536 -0.260246 -0.103021 0.343309 0.0937963 0.515949 0.806233 -0.630829 -0.667763 -0.467407 -0.0885157 -0.588274 -0.104747 -0.720176 0.455772 0.391834 0.248905 0.174356 -0.749853 -0.685029 -0.499446 0.635716 0.641996 -0.136515 0.615374 -0.607728 0.517396 -0.424551 -0.993257 -0.802248 -0.259729 -0.367565 -0.493082 0.233572 -0.342482 0.553733 -0.00289127 -0.103128 0.0360643 -0.170063 -0.128803 -0.763032 0.417344 -0.288513 -0.196697 0.600275 -0.759377 0.801553 0.673032 0.158636 0.494396 0.672379 -0.523516 0.644263 -0.879504 0.563642 0.659452 0.440479 0.865419 -0.344652 0.621904 -0.836766 -0.820434 -0.473339 -0.486822 -0.899737 1.04467 -0.105144 0.219283 -0.447418 0.473244 -0.434386 0.542151 -0.876014 0.897409 0.132787 -0.0669983 0.651121 0.659544 0.188003 0.393186 -0.490121 0.606704 -0.19923 -1.01939 -0.382215 0.0673009 0.0847325 0.0221091 -0.538144 -0.113366 0.439358 -0.295704 0.880358 0.0297787 -0.328277 -0.0656598 0.336411 -0.9953 -0.018455 -0.046552 -0.557362 0.354846 -0.780676 0.054711 -0.81378 -0.661964 0.570528 0.331954 0.225013 0.059491 0.978559 -0.3295 0.148014 -0.215743 0.0685497 0.115591 -0.32738 0.523635 -1.25188 -0.622891 -0.721349 -0.867373 0.258101 -1.40421 -0.637808 -0.110662 0.454385 -0.384189 -0.532539 -0.766405 -0.331386 0.435826 -0.287178 -1.21818 0.562012 -0.243307 -0.476279 -0.184478 0.115557 -0.774531 -0.298774 0.802478 -0.300178 -0.224647 -0.510945 0.296386 -0.904037 -0.844941 -1.07479 -1.17824 -0.491349 -1.38 -0.733732 -1.3842 -0.88544 -0.749493 -0.782204 -0.770276 0.00241539 0.633286 -0.0909296 0.697122 0.12895 0.748025 0.661737 0.57506 -0.447543 0.967129 -0.315245 0.0534712 0.608895 0.402646 0.345579 0.326762 0.528828 -1.21985 0.121828 0.0750747 -0.83149 -1.13471 -0.634161 -1.00607 -0.740921 0.149718 0.235746 0.832928 0.473655 -0.906949 -0.406333 -0.261978 -0.0285809 0.254375 -0.613476 -0.799367 0.890296 -0.0365703 0.287143 0.436894 -0.883359 0.916088 -0.20477 -0.0353718 -0.589048 -1.49413 -1.44062 -0.714238 -0.690696 -0.242394 0.537254 -0.0422387 -0.661326 -0.364611 0.730553 -0.0386842 0.24497 0.139569 0.183486 -0.0255284 -0.509251 -0.670777 -0.113031 0.515636 0.673798 1.01436 -0.280615 -0.203444 0.348807 0.217926 0.394129 -0.508207 -0.292601 0.027097 -0.608863 -1.25491 -0.814765 -0.826008 -0.0273652 0.412169 0.517069 0.603936 1.00725 -0.51831 1.0859 -0.622262 -0.264134 0.376581 0.784637 -0.148037 -0.0901966 0.395274 0.668464 -0.0189434 0.87584 0.824434 -0.851661 -0.732342 0.868186 -0.507236 -0.521621 -0.980895 -1.25051 -0.521948 -0.527962 0.492438 0.590943 0.542607 -0.382114 0.159694 0.773222 1.0129 -0.282009 -0.537666 0.615055 -0.852879 -0.784895 0.645055 0.249841 0.526288 0.747989 -0.509142 0.500947 -0.11206 -0.639117 0.448195 -0.674119 0.126436 -0.670922 -0.166552 -0.129557 -0.290027 0.752717 -0.143362 -0.564713 -0.265199 -0.0646351 -0.692845 -0.507855 -0.365609 0.471774 0.494727 -0.0055152 0.768649 0.882391 0.583651 -0.0404544 0.731674 0.71982 0.305709 -0.183892 -0.0847548 -0.519974 -0.581664 -0.528865 -0.276455 -0.0877805 -0.398781 -0.568351 -0.462865 0.396043 0.821982 -0.130238 0.268374 0.527544 0.74148 0.92433 -0.128018 -0.625248 0.757238 0.0105476 -0.0165002 -0.270187 -0.406795 0.709684 0.601942 0.367255 1.0047 0.415947 -0.176834 -0.861023 0.117504 0.00157559 -1.0808 -0.354946 1.00227 -0.598293 0.571215 0.968523 0.160331 -0.417491 0.404625 0.175905 0.0506953 0.825214 -0.409581 0.668805 -0.355043 0.931723 -0.607378 -0.451972 -0.154603 0.891974 0.172148 -0.237453 0.066867 -0.309792 -0.979004 0.63468 0.29049 0.508143 0.808304 0.889582 0.531111 0.323324 0.0445502 -0.639654 0.386997 0.253583 -0.0172466 -0.28777 0.469271 -0.560388 -0.0133647 0.652147 -0.495043 0.0546588 0.248669 0.0984153 -0.367073 -0.163242 0.1592 0.209577 -0.970229 -0.951241 -0.572763 0.5343 0.737045 0.995615 -0.48358 0.962371 0.877831 -0.680069 -0.109544 -0.466693 1.1342 0.603323 -0.759221 0.749081 -0.6665 0.683529 0.71156 -0.0742397 0.85915 0.87187 -0.150464 0.291271 0.481397 0.253489 0.784365 0.294157 0.256876 -0.226473 -0.0308968 -0.764362 -0.853946 0.324444 -0.624409 -0.720766 -0.920936 0.471147 0.796612 -0.201937 0.0354644 -0.834237 0.876918 0.0299957 -0.675805 0.519263 -0.572152 0.129005 0.847025 0.749363 0.480065 0.60602 -0.727032 -0.960292 0.362707 0.825848 -0.273221 0.4313 0.460625 -0.871462 0.627242 0.102823 0.466965 0.00460403 -0.859614 0.168609 -0.385664 0.0516525 0.573188 -0.994512 -0.343195 0.521154 0.921119 0.149346 0.984838 -0.261101 -0.988615 0.100684 -0.753969 0.538916 0.269086 -0.715748 0.129354 0.0543421 -0.944506 0.895917 0.388836 -0.402947 0.32583 -0.483755 0.301946 0.548187 0.875478 0.739196 0.922222 0.545046 0.431741 0.864044 -0.495816 0.617925 
-0.0985332 0.146222 -0.756974 0.418676 0.890195 -0.872906 0.60412 0.122049 0.562664 -0.441597 -0.568091 0.373815 -0.148576 -0.22143 0.246256 0.117666 0.0665481 0.161677 0.823927 -0.696481 0.778407 -0.671278 -0.204176 0.967835 0.485339 0.33472 -0.450108 0.770493 0.909379 0.512703 -0.239561 -0.772233 -0.0214461 0.265109 0.221781 0.930999 -0.115678 -0.342485 -0.606293 -0.0808648 0.0687176 -0.437169 0.971235 -0.304752 0.678388 0.395933 -0.111743 -0.704235 0.64464 -0.0797628 0.00615942 0.870007 0.398762 -0.15959 -0.357497 -0.90381 0.318719 0.869673 0.206157 -0.0248478 -0.837828 -0.414317 0.555713 -1.0307 -0.439316 0.391223 0.524379 0.0136811 -0.616983 0.623826 0.778314 -0.973658 0.77177 -0.80523 -0.739999 0.520366 -0.371714 -0.392783 -0.561156 0.126679 -0.0189524 0.443242 -0.213193 -0.197109 0.616298 0.361082 0.244656 0.0760159 0.118033 -1.00532 0.473713 0.0628388 0.340224 -1.0161 0.307833 0.798181 -0.669211 -0.664113 -0.686154 -1.1031 0.388875 0.16535 0.244075 -0.52123 -0.708535 -0.0254213 0.733541 0.789109 -1.1272 -0.196706 -0.295152 0.52611 -0.388944 -0.780111 -0.221362 0.197368 -0.638546 -0.0849013 -1.06269 -0.468153 -0.389145 -0.215237 0.769037 -0.73178 0.624071 0.638948 -0.220591 -0.02423 0.0755304 0.389985 0.700115 0.951548 0.675313 0.587239 0.50002 -0.778138 0.0862169 0.337539 -0.126449 -0.341236 0.985947 -0.892402 -0.394378 -0.457209 -0.596434 -0.81569 0.415511 0.641866 0.381332 0.0132579 0.0848283 -0.433307 -0.679688 0.29422 0.0499424 0.119538 -1.1124 -1.12755 0.662997 -0.364798 -0.565991 -0.205693 0.837715 -0.431121 0.165377 -0.419062 -0.899759 0.72504 0.980753 -0.315583 -0.263803 -0.331923 -0.797923 -0.463586 0.862643 -0.417802 0.292544 0.046626 0.184365 -0.942589 0.23483 0.253922 0.273118 -0.744389 -0.576869 -0.693328 -0.487882 -0.200282 0.143687 -0.434986 0.429811 -0.895161 0.750545 -0.954567 -0.272212 0.551881 0.143848 -0.0588997 0.834666 0.0906321 -0.653006 1.05478 0.361384 0.451564 0.00289622 -0.63518 -0.460801 0.23207 0.210004 -0.762416 -0.256941 0.011293 -1.14366 0.404467 -0.29471 -0.170472 0.991715 0.165544 -0.160425 -0.189132 0.393934 0.0958143 0.879464 0.3614 0.807182 0.716631 0.899633 0.518105 -0.323491 0.185342 -0.582345 0.582272 0.0757084 -0.633608 0.511223 -0.0756243 -0.328088 -0.0903966 -1.24589 -1.09275 -0.75511 -0.0372855 -0.645999 -0.228174 0.55174 -0.388313 -0.680394 0.652186 0.849115 0.00259374 0.148929 -0.699438 -0.612793 0.205718 0.530262 0.62834 0.417684 -0.557437 -0.175716 0.878685 0.464337 -0.709974 1.00872 0.045176 -0.287552 -0.0858848 -1.41285 0.267563 -0.949317 0.45166 0.812579 -0.678592 0.218273 -0.725562 0.160145 -0.404133 0.122387 0.862139 0.330665 -0.208847 -0.0475058 -0.631108 0.759316 0.460342 -0.207123 0.795585 -0.432553 0.652018 0.479738 -0.210766 -0.324832 -0.632281 -0.157409 -0.872201 0.036069 -0.908859 -0.52505 -0.545436 -0.982409 -0.405072 0.155644 -0.0858837 0.30196 -0.957066 -0.085094 -0.559774 -0.299586 0.689211 0.590614 0.064184 0.662279 0.79967 0.145299 -0.0394663 0.653425 -0.219665 0.0610918 0.347478 0.365762 0.34402 -0.587552 0.0100504 0.359779 -0.74605 -1.40066 -0.890134 -0.533543 0.374964 0.162238 -0.326266 0.561188 0.93762 -0.0532439 -0.52655 -0.97593 -0.192968 -0.570344 -0.123466 -0.399871 -0.0527469 -0.349474 0.884458 0.255668 0.0137999 0.726788 0.380371 0.233008 -0.858589 0.569898 -0.637336 0.348449 -0.43819 -0.25443 -0.948369 0.129051 -0.865459 -0.445011 1.24059 0.313861 0.670201 0.0275758 0.00201202 0.432586 -0.890576 -0.840556 0.06425 -0.0340506 0.428575 0.937156 -0.00929253 0.0349012 1.19167 0.335475 0.670563 -0.430322 -0.264569 -0.84185 -0.444658 -0.127193 -0.181836 -0.978017 -1.22196 0.307982 0.486355 -0.196184 0.558154 -0.452128 0.471087 -0.108797 -0.354248 0.839391 -0.612667 0.489585 0.827221 -0.661486 -0.629984 0.573627 -0.253274 0.935425 0.68323 0.922763 -0.639956 -1.07407 -1.18491 0.794747 -0.969812 -0.162234 -0.348727 0.272589 -0.180253 -0.0896901 1.25581 -0.22401 1.16388 0.870808 0.612679 0.652023 -0.774154 -0.630811 0.575573 0.28565 -0.438894 -0.38797 0.217858 -0.719215 -0.540929 -0.0190532 -0.0921203 0.363188 0.426018 -1.09066 -0.398216 0.252615 -0.662497 0.746871 0.145575 -0.192492 1.28821 0.373089 0.302356 0.840023 0.394357 0.127145 0.0915018 0.683003 1.04743 -0.787258 0.723084 0.226144 -0.432663 0.550109 -0.618941 -0.691337 0.258039 0.842506 -0.333453 0.320178 0.160303 0.0634749 0.0448054 -0.588246 -0.864479 -0.855368 -0.529022 -0.587423 -0.040051 -0.0177911 0.900523 -0.448798 0.113897 1.0055 0.258045 0.117695 -0.798822 -0.97638 -0.777663 -0.170565 -0.51259 -0.513523 0.523046 -0.589751 -0.240793 0.0674572 -0.696123 -0.824683 -0.291329 -0.212082 -0.356608 -0.777857 0.520204 0.398618 0.0224029 0.718175 0.0723549 -0.291026 0.341472 1.03928 0.816891 -0.690222 0.452312 -0.708634 -0.617249 0.461865 0.0734104 0.315586 -0.0123946 0.686013 0.580471 -0.139822 0.459424 0.483919 -0.830738 -0.13572 -0.98465 -1.10145 -0.875205 -0.777271 -0.513766 -0.341573 0.0525768 0.0598679 0.841197 0.704192 0.409568 0.88151 0.184125 -0.0154642 -0.441466 -0.555122 -0.0189252 0.581925 -0.787212 -0.608266 0.599254 0.590229 -0.369408 -0.922606 -0.334636 0.0497396 0.367493 0.065797 0.129238 -0.686685 0.286987 -0.274396 -0.585707 -0.723829 0.709182 -0.372448 1.13674 0.3158 -0.202369 -0.499279 -0.471919 0.626672 0.752082 0.996074 -0.286942 0.269233 0.138155 -0.914087 0.560025 -0.773411 0.820357 -0.446291 -0.631408 -0.20712 0.25276 -0.691535 -1.18203 -0.391818 -0.677279 0.828782 0.137354 0.481898 0.628857 0.183497 0.845519 -0.524118 0.215937 0.327307 -0.409792 0.163303 0.942396 -0.720527 -0.637011 -0.966493 0.791842 -0.12649 -0.464301 0.273804 0.0894256 0.311366 -0.145071 0.733192 0.410519 0.123244 0.20871 -1.38922 0.571164 -0.903394 -0.011703 0.845074 0.104455 0.557712 1.05096 -0.136044 -0.400871 -0.579324 -0.0400743 -0.988805 0.651892 0.348174 -0.47217 0.408705 -0.765389 0.948126 -0.952373 -0.210599 0.816266 0.456452 0.0529824 1.27292 0.298305 -0.695085 -0.354161 0.4547 -0.860242 0.924054 0.516621 0.540954 -0.165076 0.105352 0.881725 -0.0984082 -0.765682 0.767657 0.439599 -0.243707 0.203343 -0.717641 -0.282927 -0.302113 0.915618 0.0776755 0.954507 0.900993 -0.472892 -0.550624 -0.223992 0.635833 -0.584816 -0.797862 -0.589053 -0.192837 -0.269861 0.216586 -0.646313 0.826585 -0.705762 0.228143 1.07617 0.605061 0.206692 0.660823 -0.351805 -0.0140652 0.836999 0.0252672 0.87101 0.427319 -0.709602 -0.0630878 0.652436 0.697442 0.519461 -0.433862 0.572059 -0.407748 1.10793 0.748404 -0.758867 -0.0397171 -0.790518 0.891651 0.638918 -0.453001 0.977032 -0.402476 -0.36243 -0.311958 0.361189 0.623726 -0.813446 -0.178398 0.671014 -0.906923 0.333451 -0.142992 -0.565186 -0.51004 -0.409585 -0.239878 -0.410921 -0.696806 -0.794652 1.03845 0.1339 -0.803943 0.754244 0.369674 0.923366 0.190146 -0.529882 0.523776 -0.253906 -0.954224 0.308288 -0.217322 -0.606683 0.462138 -0.445944 -0.887107 0.265723 0.661066 0.709968 -0.348553 0.437106 -0.501411 0.051969 0.94721 0.993503 -0.791825 0.143516 -0.628422 -0.199349 0.636091 -0.164064 0.634339 -0.384037 0.688939 0.799821 -0.692313 0.326652 -0.654753 -0.790268 0.686548 -0.12776 0.238501 -0.843247 -0.955945 0.494717 0.773527 -0.702503 -0.0678927 -0.227937 -0.0412156 -0.376564 0.368598 -0.123851 0.445663 0.51277 -0.648104 -0.259726 0.36669 0.502434 0.775821 -0.570245 
-0.646168 0.544701 0.5504 0.904529 0.46494 -0.33796 -0.591305 -0.587281 0.0500719 -0.866736 0.146684 0.0322336 -0.284539 -0.948488 0.424282 -0.0940466 -0.960291 0.576656 -0.254732 0.335391 0.629707 -0.347827 0.951908 0.0233182 -0.814221 0.683136 0.783134 -0.111046 -0.0230125 0.784378 0.978963 0.829988 0.471723 0.209165 0.181555 0.529252 0.165955 0.24805 -0.271229 -0.705286 -0.479745 -0.134235 0.582344 -0.103037 -0.663828 0.0637656 0.543633 -0.127117 0.657851 0.822007 -0.0486349 -0.124798 0.149038 0.37734 -0.98375 0.291993 -0.600082 -0.482916 0.655032 -0.133892 0.322799 0.866337 -0.321722 -0.0712116 -0.585313 0.288042 -0.743828 0.677318 -0.426454 0.539602 0.440069 -0.377012 0.0652381 -0.177813 -0.742085 0.141422 0.703634 -1.10475 0.608832 -0.761946 0.112027 0.859325 -0.0481328 -0.378608 -0.168442 -0.458016 -0.724463 1.02888 0.484499 0.263996 -0.131172 0.0964029 0.512003 -0.27778 -0.157204 -0.605757 0.462942 0.671933 0.924823 0.34654 -0.345323 -0.275294 -0.806727 -0.0957106 0.417712 -0.157325 0.397511 -0.478776 -0.675165 0.913307 0.773961 -0.777436 -0.328059 -0.837003 -0.59549 0.175822 -0.5079 -0.34161 -0.837407 -1.25704 0.074387 0.610164 0.0352454 0.686062 0.804542 0.240734 0.530887 0.467681 0.942505 0.786783 0.944191 -0.913304 -0.632632 0.883347 -0.568448 0.00803697 1.081 -0.164674 -0.486967 -0.210942 0.251238 0.0201162 0.651597 0.690739 -0.631928 0.486303 -0.645553 -0.09062 0.686218 0.129558 -0.32067 0.58259 -0.282957 -0.0328025 0.345898 -0.381586 -0.0409262 0.706394 0.78731 -0.736462 0.403716 -0.727414 -0.0913875 0.172365 -0.88347 -0.359138 0.528016 0.163363 0.765346 0.263849 0.0977118 0.620807 0.811034 0.921849 -0.460157 0.564633 -0.903535 -0.932029 -1.16743 0.657273 -0.199239 0.114358 1.04713 0.75157 -0.232572 0.620379 0.0176252 -0.586379 0.570661 0.264101 -0.588533 -0.116445 0.64236 -0.270868 0.443021 -0.603356 0.137515 -0.754858 -0.0716334 0.67957 -0.65881 -0.360172 -0.675984 -0.434383 -0.624893 -0.299859 0.50321 0.342722 0.695113 1.39869 0.356091 0.0788641 1.12178 0.1402 0.508905 0.288426 0.241606 -0.251625 -0.0309245 -1.06826 0.588271 0.205618 0.776065 0.151931 0.712454 -0.364247 0.856645 -0.283948 0.344143 0.682072 -0.0362806 -1.16451 0.0640336 0.413249 -0.811138 -0.769451 0.955823 0.636333 -0.0478115 -0.271754 0.450194 0.0442792 0.737173 0.143477 -0.153277 0.424598 0.237959 -0.174212 -0.530888 0.322398 -0.635337 -0.478627 0.954763 -0.594915 0.829028 -0.463785 -0.89265 0.502243 0.610196 -0.0573482 0.48019 0.634114 0.0046183 0.452072 -0.137117 -0.419557 -0.712415 0.954675 0.904546 0.12348 -0.237532 -0.95209 0.718764 -0.674587 -0.450479 0.35669 -0.119857 0.609657 0.822511 -0.704881 0.845458 -0.265025 -0.385668 -0.233577 -0.663958 -0.307921 0.406994 -0.184875 -0.454317 -0.661664 -0.634067 -0.632229 0.5348 0.625715 -0.347674 -0.489862 0.306296 -0.207956 1.03725 0.344605 0.365939 -0.101183 0.0687061 -0.631827 0.510334 -0.896756 0.633555 0.935251 -0.560556 0.587251 0.790446 0.898812 -0.546456 0.569836 -0.274994 -0.024267 0.0972913 0.140592 0.0112539 0.742281 -0.288056 -0.825994 0.828005 0.699127 1.12892 -0.138778 0.713286 0.121203 0.844408 -0.732958 -0.647069 0.937548 -0.595538 0.00373384 0.592634 -0.622374 -0.994453 -0.116199 0.952542 0.773642 0.409382 -0.651043 0.246944 -0.629572 -0.441918 -0.684707 -0.215563 -0.577436 0.0243889 1.13944 -0.071956 -0.58402 0.107162 -0.259503 -0.172376 -0.363441 0.52635 0.783634 -0.838439 -0.836633 0.394183 0.452658 -0.811938 -0.090546 0.172167 0.326566 -0.630607 0.0566925 0.491678 0.154649 -0.203907 0.0223423 0.303486 0.608941 -0.473675 -0.24209 0.9562 -0.119513 -0.105937 0.0482389 -0.144406 0.660822 0.199887 -0.229238 0.922998 -0.539464 0.818888 -0.740119 0.591572 -0.31883 -0.291238 -0.780031 0.489499 0.173539 0.33694 -0.250528 0.813073 -0.413483 0.736612 -0.295939 -0.240614 0.528738 -0.593654 0.338042 -0.809168 0.694718 0.872507 -0.776133 1.10268 1.15648 0.0765966 -0.503459 -0.284488 0.930172 -0.587456 0.285371 0.663978 -0.964256 0.966849 0.372647 -0.494522 0.779041 0.701651 0.701851 -0.201433 0.789794 -0.540054 0.872536 0.182765 0.105844 -0.799479 0.594597 0.658411 -0.887478 -0.41401 0.6691 0.761537 0.365353 -0.446986 -0.783788 -0.676736 0.190585 0.291171 -0.367593 -0.660861 0.637176 0.455995 0.0193456 -0.44135 0.107016 0.475489 1.01867 0.80719 -0.233015 0.8206 1.00584 0.378371 0.0258792 -0.314174 -0.0990105 0.0360515 0.372874 -0.258184 -0.948449 -0.814275 -0.823282 -0.0388746 0.244459 0.829556 0.439801 -0.731545 0.769226 -0.476014 -0.282131 0.346 0.820635 -0.238781 0.128069 0.417476 0.295771 0.715056 -0.906985 0.108665 -0.0429142 0.00178305 0.580015 0.528521 -0.10498 -0.771483 -0.981493 -0.0122454 -1.09178 -1.17316 0.421336 -0.10765 -0.741497 -0.213964 0.355514 0.987869 -0.617071 0.207049 0.703647 0.0761958 0.419354 -0.459548 -0.252078 -0.143188 0.339227 -0.165674 0.764141 0.354862 0.306678 -0.0629535 0.167586 -0.330673 -0.678819 0.0883328 -0.166649 -0.341353 0.129604 -0.918191 -1.32771 -0.461918 -0.96213 0.129824 0.348429 -0.403955 0.716385 -0.0430677 0.763493 0.298476 -0.954759 0.922135 -0.469928 0.797592 0.459363 0.317788 0.0900371 -0.014005 -0.482194 -0.659069 0.518495 0.00325971 0.976218 -0.487482 0.435933 0.472028 -0.376997 -1.19199 -0.427954 -1.10153 -0.256339 -1.06409 0.666057 0.631568 -0.119058 0.642398 0.477919 0.199168 -0.469312 0.046136 -0.120637 -0.92795 0.167614 0.372199 -0.524019 -0.566757 0.506091 -0.737509 -0.275923 -0.687184 -0.485929 0.728027 0.231439 -0.0308358 -1.04661 -0.0466041 -1.8157 0.158426 -0.698739 0.543699 0.340797 -0.751696 -0.848822 -0.0358841 0.0321475 0.558181 -0.512957 0.200067 0.811148 0.112009 -0.155471 -0.0142386 -0.259662 0.164507 0.81329 -0.24286 -0.441593 0.822433 -0.618046 -0.123319 0.3546 -0.738301 -1.3625 -0.47711 -0.786047 -1.7294 -0.348461 0.523328 -0.630255 0.517537 0.299124 0.603337 -0.0744816 0.343411 -0.545216 -0.766468 0.834685 0.120611 0.107899 0.0209562 -0.772414 -0.0508874 -0.199689 -0.387888 0.350525 -0.157241 -0.0913047 0.734302 -0.501467 0.0593297 0.20754 -1.34955 -1.03046 -1.39416 -1.43156 -1.0232 -0.332362 -0.737414 0.6811 -0.708702 0.605191 -0.144282 0.37286 -0.384902 -0.518583 -0.789932 1.08177 -0.142337 0.904139 -0.914927 -0.099516 -1.13877 -0.771116 0.682165 0.584642 -0.619656 -0.27294 -0.789742 0.150922 -1.3323 -1.35336 -0.250152 0.312826 -1.20288 0.107194 0.625263 0.155942 0.748654 0.10619 -0.199237 -0.829533 0.0723873 -0.0896975 -0.267126 -0.25754 0.808286 0.262072 0.436583 0.468715 0.702225 -0.315452 0.349715 -0.551167 0.538112 0.0767831 -0.265419 -0.565049 -1.22934 -0.449235 -0.589707 -0.223274 -0.238078 -1.08094 -0.339407 0.80039 0.482917 -0.536983 -0.0621138 -0.690705 0.0652534 -0.493495 0.913866 -0.0535849 0.627468 -0.358764 -0.387528 -0.257244 0.49829 0.321839 0.655158 -0.245068 0.471408 -0.0526266 -0.785797 -0.00628429 0.249758 -0.24344 -0.280734 0.550802 -1.00328 -0.382442 0.335956 0.844183 -0.265777 -0.0289778 -0.916054 0.600479 0.730431 0.679196 0.128907 0.629541 -0.591991 0.792427 -0.641712 0.981351 0.0374013 -0.220252 -0.085472 0.336561 -0.695741 -0.954229 0.873448 -0.277802 0.107735 -0.432919 0.419895 -0.833278 0.0491526 -0.0788184 -0.233296 0.325384 -0.0679284 0.02316 0.24914 0.317039 0.95603 -0.282291 -0.485644 0.749867 0.977029 -0.188656 0.288966 -0.60768 0.549287 -0.412039 0.533621 0.157846 
-0.419972 -0.710519 -0.895304 -0.6895 -0.213481 -0.431224 -0.0280822 -0.0934883 -0.0733735 0.546479 -0.938224 0.308249 -0.5687 -0.464248 0.568437 0.586564 0.479755 0.127991 0.732005 -0.787121 0.801916 -0.771183 0.494071 0.495891 0.0215733 -0.4312 0.517657 -0.611718 0.131759 -0.381374 0.485983 -0.334412 0.329813 -0.744741 -0.115805 -0.281631 0.783733 -0.169418 -0.0949284 -0.292914 0.950735 -0.59052 -0.379562 -0.481569 -0.529086 0.138941 -0.530547 -0.388762 -0.971385 -0.41253 -0.799781 -0.756774 0.42782 0.95171 0.736081 0.0247971 0.882214 0.295617 0.90506 0.289228 -0.169562 -0.360875 0.808386 0.658609 -0.892268 0.294867 -0.183741 -0.922694 -0.716177 1.05437 1.04496 -0.0157593 0.494782 -0.707021 -0.347604 0.823722 -0.500914 -0.630882 0.0463212 0.381739 -0.44305 -0.835585 0.177305 0.866192 -0.982042 -0.852484 -1.00799 -0.863751 -0.832086 0.581164 -1.1681 -1.17401 -0.42896 -0.138472 0.377817 0.982741 -0.719665 -0.0698727 0.472646 1.15779 -0.0764272 0.531622 0.936082 -0.0593508 -0.229771 -0.25323 -0.0400425 0.313527 0.160586 -0.150975 0.516752 -0.649662 0.559214 0.434928 -0.108033 -0.7714 -0.598476 -0.295252 -0.10471 -0.755266 0.192179 0.212694 0.529588 1.04161 0.985159 0.512336 1.08884 1.16493 -0.561582 0.891336 -0.818017 0.622516 0.162135 0.478942 -0.778691 -0.456577 -1.03076 -1.06371 -0.533443 0.73011 -0.32363 0.234413 -0.065282 -0.578824 0.0470177 -0.913166 -0.413178 -1.07015 -1.08846 -1.0955 -0.324584 0.538162 -0.381368 -0.644504 0.190627 0.65541 -0.190861 0.662695 0.844613 -0.808409 -0.0255768 -0.967973 -0.986803 -1.28734 -1.22143 -0.978513 0.201157 -0.971484 0.653115 -0.0156421 -0.72566 -0.247454 -0.292142 0.134543 -0.280353 -0.183641 0.118435 0.0332597 -0.411329 -0.604657 0.807195 0.211403 0.701598 0.748762 -1.04612 -0.894485 0.0196707 -0.332041 -0.890281 -0.514802 -0.154604 0.226186 -0.813522 -0.2635 0.453492 0.844264 0.56138 0.809019 0.623815 0.203252 -0.515783 -0.856796 -0.617602 0.5973 0.525523 0.310338 0.387117 0.82472 1.0918 1.05293 -0.437673 -0.836029 -0.463982 -0.0577593 0.283128 -0.497309 0.767877 0.392211 -0.28424 -0.864216 -0.4082 0.372308 0.60514 0.61384 0.695147 -0.242659 0.642916 -1.15735 -0.63798 -0.0348188 -1.01089 -0.166824 0.0459661 0.28261 -0.334931 0.980586 -0.484177 -0.216533 -0.609664 -0.987178 0.111964 0.425787 0.767414 0.027168 0.292467 -0.41263 -0.0473008 -0.727981 0.0707107 -0.43263 -0.499003 0.409159 0.0794955 -0.647786 0.263037 -0.73982 0.545332 -0.679421 0.305282 -1.28548 0.56055 -1.04155 0.280857 0.284819 1.24967 0.744028 -0.604869 -0.925486 0.134139 0.0590978 0.432904 -1.12507 0.663519 0.126091 0.317186 -0.239289 -0.491216 0.658983 0.855813 -0.959449 0.412213 -0.132813 0.335311 -0.861896 -0.402062 -0.261956 -0.81989 0.541347 0.355361 0.254981 -0.339143 0.254775 -0.327503 0.0960804 -0.18276 -0.181274 0.437384 0.151412 0.616636 0.631378 0.520463 -0.0574437 0.30889 -0.0954125 0.755406 0.0491125 0.968348 -0.638619 -0.624357 0.473729 -0.345673 -1.08081 0.680795 -0.899833 0.517617 -0.43945 0.00733847 0.648117 -0.570689 0.0472535 -0.820219 0.64368 -0.658888 -0.330481 -0.293654 -1.02836 0.52731 0.144645 0.527814 0.614847 -0.200788 0.333079 0.186185 0.328593 0.75931 0.0576193 0.936194 -0.276115 -0.131491 -0.516726 0.417188 -0.287808 -0.361925 0.66034 -0.732572 0.495184 -0.627972 -0.377177 -0.605402 -0.942679 0.658488 0.275542 -0.373547 -0.421391 0.517632 0.123732 -0.497615 -0.258344 -0.509029 0.104357 0.361517 0.599739 0.583873 -0.529214 -0.444619 -0.125265 -0.652705 -0.0189145 0.492755 -0.730311 -0.844868 0.439014 -0.157632 0.135866 -0.660296 0.347951 0.473436 0.0691108 -1.18739 0.0940054 -1.14018 -0.936796 -0.886994 -0.91356 -0.181324 -0.767106 -0.455232 -0.145899 1.04411 -0.225735 0.235612 0.311308 -0.820612 0.317502 0.491259 -0.206511 -0.353053 0.305142 -0.510534 0.25081 0.829985 -0.286574 0.0743745 0.303259 -0.823639 0.631282 -0.889478 -0.0438932 -0.830789 0.52917 -0.229485 -0.284333 -0.642613 0.577522 0.719751 0.629436 -0.698366 -0.0324791 -0.892479 -0.60472 0.0281126 -0.500047 0.00883865 0.64703 0.31325 0.841631 -0.25177 -0.69677 0.831819 0.380294 -0.651276 0.698739 0.500191 -0.915809 0.0800427 0.224462 -0.889097 0.0654147 1.04681 0.261605 -0.245497 1.30025 0.468185 0.0115102 0.835477 0.34294 -0.850535 0.752894 -0.971074 -0.500039 0.00192042 0.566878 -0.604767 -0.414886 0.617385 0.933458 0.384202 -0.492696 -0.31038 0.747153 -0.106699 -0.756203 0.409109 0.354758 -0.810333 -0.323148 0.260397 -0.340549 -0.172297 0.0399463 0.419 -0.617328 0.805057 0.499738 0.255329 0.883354 -0.244621 -0.891131 0.0635686 -0.320105 -0.760484 0.588656 -0.263245 0.738446 0.331563 -0.879407 -0.406523 -0.610778 0.471601 0.524834 -0.289675 0.731918 -0.374662 0.410118 1.12553 0.205254 0.623 -0.508477 0.47929 -0.143969 -0.342435 0.495688 -0.0580135 -0.234773 0.284701 0.285884 0.179582 0.296146 0.844144 0.210747 -0.820446 0.345524 -0.0704921 -0.0235912 -0.390745 0.840218 0.0891109 0.110378 0.101895 1.13822 1.09863 0.211259 0.0153518 0.671526 0.127284 0.00645666 -0.499625 0.759566 1.01372 0.666246 0.57097 -0.58623 -0.308536 -0.472139 -0.816814 0.0455164 0.310851 0.50169 -0.933612 0.504743 -1.20593 -0.701042 -0.229571 0.258685 1.0182 -0.19346 0.518687 -0.584739 1.01773 -0.213149 -0.987003 -0.74962 0.0690037 0.977933 -0.453212 0.296524 -0.841837 -0.800419 -0.595464 0.599799 -0.183392 0.687727 0.864807 -0.0190773 -0.612635 0.461361 0.401878 0.854332 0.442998 0.436817 -0.676474 -0.784352 -0.652442 -0.562229 1.21346 -0.11157 0.825179 0.746716 0.829448 -0.752043 -0.46684 -0.529849 0.498815 -0.798695 0.452779 -0.853476 0.0506837 -0.211728 0.370455 0.645376 0.787967 -0.0267741 0.151816 0.572204 0.419892 -0.33552 0.243085 -0.154901 0.708071 0.391502 -0.142389 0.217161 1.17474 0.547166 -0.188073 -0.589445 0.940651 -0.759518 0.6327 -0.10874 0.61587 -0.61769 0.265708 -0.540962 -0.329796 -0.437391 -0.0866559 0.806379 -0.629908 0.0642047 -0.911724 -0.598747 -0.381264 -0.464435 -0.634664 -0.385262 0.0930814 1.06963 -0.516987 0.527544 -0.608196 -0.455101 -0.00263057 0.236486 -0.904644 0.591769 -0.164306 0.680112 -0.262571 -0.437397 -0.468983 -0.0919904 -0.590223 -0.786123 0.636807 0.465926 -0.953356 0.297042 -0.80758 0.307173 -0.17384 0.927867 0.218681 -0.0708924 0.530318 0.631389 -0.814219 0.847423 -0.448317 -0.0936715 0.208024 0.0328553 0.59233 -0.314365 -0.820456 0.798277 -0.58281 -0.0651944 -0.865253 0.930816 -0.0597995 -0.00811425 0.813231 -0.363034 0.67797 -0.0144452 -0.793338 0.134349 0.304265 -1.05144 0.271595 -0.917404 -0.819456 -0.483162 -1.04182 0.511062 -0.163904 0.0803443 0.613566 0.26623 0.056077 -0.117416 -1.00458 0.618939 -0.106507 0.217601 0.806367 0.659254 -0.619131 0.289674 -0.298834 0.542095 -0.735333 -0.609221 0.649081 -1.0795 -0.886161 -0.991174 -0.984641 0.303523 -0.832142 0.0956066 -0.784193 -0.730425 0.415143 -0.121869 -0.185364 0.158939 0.30164 -0.346859 -0.142409 0.647937 0.426889 0.461797 -0.994065 -0.192592 -0.0835232 0.393165 -0.391832 -0.91057 -0.576766 -0.262596 0.879509 0.481346 -0.0662979 0.36285 0.712808 0.751552 0.530682 -0.962744 0.571104 -0.425723 -0.308436 -0.382363 -0.349293 -0.692653 -0.741398 0.769251 0.997939 0.296948 0.156988 -0.178474 0.659653 -0.0385071 0.917598 -0.508485 -0.602729 -0.187068 0.319384 -0.164341 0.875247 0.443478 -0.974469 -0.367848 -0.501387 0.0182704 -0.962398 0.168111 
-0.69665 -0.857112 0.147493 -0.550162 -0.711017 0.959773 0.168088 0.241738 -0.849301 -0.164366 -0.766172 -0.558179 0.998113 0.15532 0.0231429 0.416107 -0.405073 0.460573 -0.520254 -0.0792307 0.0764797 -0.892729 0.168616 0.409164 0.192676 0.170959 -0.49899 -0.724222 0.696666 -0.988446 -0.569261 -0.710245 -0.147857 -0.137326 -0.932292 0.617627 0.512108 0.350501 0.990291 -0.796528 0.783734 0.405685 -0.407357 0.990968 0.156561 -0.615167 -0.198578 -0.8791 0.167806 0.536134 -0.047401 -0.284468 0.336361 0.959198 0.413787 -0.379721 -0.843739 0.167779 -0.579524 -0.736978 -0.324345 0.29398 0.0244102 0.317935 -0.0314864 -0.184341 0.793353 0.893158 0.729361 0.0284199 0.401042 -0.914439 0.271519 0.348313 0.493003 -0.408323 1.18976 -0.338359 0.0244028 -0.950525 0.468877 0.571441 0.562482 0.633394 -0.234631 0.73958 0.221828 -0.21362 -0.139932 0.273138 -0.372937 0.327952 0.42288 0.842447 -0.158463 -0.411371 0.576681 -0.399787 0.71423 -0.463555 -0.305158 0.386753 -0.323372 1.02736 0.296698 0.902196 -0.500468 0.227833 -0.964597 0.788937 -0.928938 0.429434 -0.394925 -0.389866 -0.0931814 -0.387137 0.502073 -0.207804 0.403312 -0.189205 0.0011361 0.869448 0.775934 -1.07988 -1.14548 -0.924648 0.493189 0.503594 0.374228 -0.446972 0.105372 -0.452964 0.800529 -0.0428347 -0.874712 0.433921 -0.462304 0.203778 0.273017 0.634894 -0.357448 0.0978644 0.299769 -1.05964 0.62016 -0.293323 -0.542163 0.201673 -0.45299 0.763002 -0.56683 -0.218385 0.373857 0.445023 -0.675954 -0.494849 0.661767 0.0409744 0.677851 -0.239954 -0.816961 0.79061 0.820729 -0.455847 -0.4826 -0.124244 -0.558434 -0.107442 0.626701 0.592946 -0.773201 0.30339 0.0137355 -0.0493472 0.205487 -0.838758 -0.613292 -0.98122 -0.673818 -1.12188 -0.558255 -0.958806 0.676988 0.5025 0.0721565 -0.195723 -0.37272 -0.710028 0.479634 -0.501592 -0.386361 0.578559 -0.314294 -0.225299 -0.47085 -0.505395 0.780587 0.679584 0.76266 -0.240295 -0.505191 -0.487501 0.708721 0.596708 -0.018869 0.425762 -0.379304 0.0132104 -0.284078 -0.99971 0.430872 -0.559194 0.925766 1.30056 -0.66389 0.370805 -0.955483 0.0505649 -0.996158 0.728799 0.733113 0.510092 0.437502 -0.470375 -0.183617 -0.333887 0.479452 0.130216 0.246408 -0.722635 0.707581 -0.0742587 -0.424117 -0.103393 0.365967 -0.854268 0.0411958 -0.323469 0.198523 -0.167506 1.01333 -0.284351 0.285258 -0.276899 0.665377 0.449948 -0.139347 0.375876 -0.631038 -0.431566 -0.843138 0.141416 0.177023 0.966494 0.37352 0.546487 0.165453 0.189046 -0.871135 -0.25462 -0.523459 -0.744775 0.12973 -1.1442 -1.04443 0.158478 0.0100392 -0.247551 -0.800015 0.190018 0.122734 -0.922338 0.241403 0.718713 0.645255 0.705287 0.228727 0.527453 0.593456 -0.0297426 0.483264 0.167099 -0.239784 -0.509217 0.710997 0.601198 -0.484361 0.601199 -0.137307 0.335917 0.794734 -0.868999 -0.946734 -0.899993 -0.275815 0.0487699 0.452077 0.857567 0.823055 -0.4334 0.155629 0.206063 -0.117746 -0.153481 0.592549 -0.28385 0.265095 0.778711 -0.247606 -0.454485 -0.680331 -0.503788 -0.689509 -0.900416 -0.28723 -0.752736 0.370846 -0.620003 0.85751 0.51191 -0.952684 0.143543 -0.773193 -0.846244 0.437709 0.447731 -0.549771 -0.322857 0.166743 0.997388 0.0426075 1.17396 0.581859 -0.248116 0.236761 0.721759 0.372037 -0.560756 0.547569 -0.0983968 0.702077 -0.129119 0.714044 -0.258095 0.479396 0.955672 -0.0857043 -0.614026 -0.880586 -0.473394 -0.241374 -0.723781 -1.34463 -0.100821 0.941637 0.841862 1.57057 0.596421 1.11489 0.750834 0.30497 0.211419 -0.154755 -0.787227 0.837386 0.410814 -0.686369 -0.697471 0.064568 0.0312713 0.609577 -0.390439 -0.261951 0.302244 -0.973329 0.660933 -0.372046 -0.594384 -0.344578 -0.0464778 0.30242 1.02955 0.00742591 0.847014 0.0290614 1.20425 -0.317462 1.08896 0.841223 0.444564 -0.21457 0.269661 -0.196467 0.769802 0.902379 -0.730669 0.4536 -0.472385 0.487064 -0.0243199 0.893672 -0.805806 0.504547 -0.750374 -0.491097 -0.830765 0.25119 -1.1485 0.00981362 -0.021902 1.36923 1.64448 0.493004 1.37902 -0.533225 0.0538375 -0.161341 -0.0265766 0.38007 0.862263 -0.149635 -0.0986237 0.455823 0.0439709 0.665911 0.0690452 0.143472 0.75082 0.0978717 0.19925 -0.360145 -0.0733025 -1.23633 -0.26598 -1.29852 -0.7935 -0.140874 1.65148 0.67613 0.757936 0.580533 -0.609248 -0.471478 0.49089 0.656537 0.151809 0.205254 0.446381 0.688819 0.603362 -0.304869 0.752425 -0.455141 -0.591907 -0.012223 0.130337 0.625813 -1.0007 0.148581 -1.50417 -0.382437 -0.973396 0.202711 -0.76889 0.82729 1.75616 1.15228 -0.432769 0.106529 1.02742 -0.142878 0.905199 0.643657 -0.395991 -0.627875 0.128207 -0.435084 0.228209 -0.268837 -0.208524 -0.693512 -0.579191 -0.553297 0.0629061 0.334124 -0.888449 -0.550556 -0.628967 -1.20036 0.347322 -0.432239 0.987998 0.700687 1.18463 0.498594 0.498209 0.416323 -0.152305 -0.126116 -0.918638 -0.0403275 0.796695 -0.96117 -0.861996 -0.208172 -0.852886 1.12052 -0.491452 -0.408901 -0.669981 -0.56326 -0.594158 0.0412565 0.733777 0.596795 -0.217397 -0.625416 -0.859709 -0.338183 -0.38817 0.470281 0.994414 0.230122 -0.11381 -0.612376 -0.326256 0.89324 -0.148937 -0.720356 0.269227 -0.269891 -0.634266 -0.113928 -0.583544 -0.458465 -0.789364 0.70803 -0.301282 0.636137 -0.776702 -0.444389 -0.730445 0.27244 0.685438 -0.93606 -0.944845 -0.417773 -0.222532 0.441183 -0.0110662 -0.42164 0.0701974 0.905729 0.61778 -0.384757 0.462387 0.452791 -0.0711042 -0.351754 0.00619795 -0.528161 -0.551373 0.798867 -0.549595 -0.0246074 0.0312509 -0.0148878 -0.185792 0.214785 0.921543 0.731306 -0.826898 0.64429 -0.797982 1.05544 0.375173 0.680389 0.0121769 0.805309 0.584381 -0.318989 -0.792986 0.82664 0.374614 0.476225 -0.181023 -0.588332 0.289978 -0.708632 -0.0708587 -0.597658 -0.71831 -0.422268 0.525238 -0.765839 -0.492162 0.106871 0.286847 -0.684002 -0.519409 0.557446 -0.167188 0.467218 0.56937 -0.776005 0.202227 -0.518976 -0.709289 0.577759 -0.58311 0.454028 0.633014 -1.01114 0.779936 -0.219017 0.129862 0.533468 0.877956 0.662393 0.302951 0.606019 -0.262957 -0.103568 -0.969061 0.124485 0.692136 1.00387 -0.670782 -0.110791 0.292702 0.117684 1.00133 0.627605 -0.578887 0.194774 0.0667553 0.236729 -0.783938 0.624941 -0.330329 0.0494822 -0.0931111 0.97709 -0.0425303 0.0707736 -0.203873 0.886654 0.169077 -0.556319 -0.692603 0.0469104 0.318595 -0.153114 0.156428 0.628362 -0.563976 1.19465 -0.13124 1.07807 0.793071 0.0135946 -1.01542 -0.694872 0.37074 -0.998556 0.0759267 -0.919725 -0.473116 -1.02333 -0.0778238 0.272502 0.848223 -0.558505 0.612489 0.317048 -0.117497 0.441541 0.192161 -0.233728 -0.251816 0.238236 0.43435 -0.37581 0.621612 -0.120655 0.435275 -0.354108 -0.489172 -0.642515 -0.476707 -0.140097 -0.213051 -0.295373 0.218924 -0.0598093 -0.94284 0.596512 0.637331 0.33116 0.225469 -0.712662 0.175807 -0.596995 0.174937 0.387678 -0.482521 0.76435 -0.291453 0.781168 0.226283 0.481324 0.517237 0.28438 0.74413 -0.451997 -0.552009 -0.645604 0.58922 0.049151 -0.520298 -0.31448 0.534985 0.844038 0.747452 -0.473784 0.993104 0.0630268 -0.0402905 0.606899 0.878403 0.673193 0.754788 -0.150229 0.659951 -0.858789 0.536153 -0.842133 0.399763 -0.73345 0.457747 -0.482876 0.206454 -0.599116 -0.190165 0.774537 -0.379717 -0.0571824 -0.460835 0.629341 0.726285 0.679043 0.299621 -0.285221 -0.9235 -0.343684 -0.357869 0.403304 0.209051 -0.862057 -0.0465543 -0.640446 0.371758 0.0921661 0.366209 -0.935336 0.236637 0.50427 0.645387 
-0.745656 -0.97964 -0.582397 -0.196687 0.736466 -0.517984 0.624868 -0.441062 0.929146 -0.449129 -0.0094676 0.869876 -0.468883 0.446966 -0.108258 0.453964 0.180996 -0.421554 -0.0639995 0.184332 -0.504204 0.397382 0.696068 -0.580438 0.0965781 -0.65703 0.492075 -0.311786 0.703262 -0.223553 0.502115 -0.274799 -0.14348 0.24615 0.775009 0.498317 0.780002 -0.850973 0.87016 0.855392 0.810085 0.664108 -0.68287 0.509823 -0.373287 -0.763317 0.537662 -0.245283 -0.767067 0.282131 0.180105 -0.00151956 0.93166 0.478922 0.746792 0.439586 -0.385915 0.348393 0.175164 0.148013 0.440325 -0.487343 0.414379 -0.852435 0.121607 0.404197 0.983487 -0.278193 0.0100604 -0.548729 0.770568 0.590105 0.956201 -0.611151 0.55911 -0.222101 0.881451 0.800172 -0.0903221 0.709387 0.402308 -0.939019 0.0375288 -0.517751 0.827449 -0.971681 -0.401053 0.350775 -0.139793 -0.764922 -0.745869 0.704274 -0.0514085 0.194752 -0.0608448 0.897669 -0.522966 -0.750449 -0.910314 -0.519348 -0.486651 -0.806351 -0.0300951 0.0882879 -0.550161 0.509709 -0.267045 -0.946834 0.54165 0.924311 -0.816085 -0.373247 0.726936 0.561112 0.826456 0.0293244 -0.769554 0.040028 0.010074 -0.0527735 -0.206221 -0.33362 -0.945148 0.853179 -0.814739 -0.717589 -0.883495 -0.799668 -0.56084 0.626828 -0.630378 0.503823 -0.258915 -0.80426 -0.310858 0.684095 -0.157072 0.421459 0.787343 0.355245 -0.272421 0.822915 -0.985518 -0.352798 0.11759 -0.799415 0.876317 -0.177394 -0.76975 0.0570591 -0.390059 -0.349447 -0.586264 -1.07041 -0.390165 0.568395 0.144322 0.311355 -0.746762 -0.369073 0.362911 -1.14428 -0.614673 -0.178651 -0.967198 -0.223297 -0.257841 -0.0213919 -0.996781 -0.729273 0.415219 -0.628851 0.573488 0.531956 0.802321 -0.362701 -0.669356 0.11985 0.102647 0.140217 0.78515 -0.826394 -0.441113 -0.766358 0.395258 0.23995 0.475202 -0.224791 -0.453382 -0.682263 0.610773 -0.747882 -0.390768 -0.27379 -0.552891 -0.766366 -0.096855 0.611406 -0.803656 -0.87775 0.65061 0.370908 -0.524355 0.15188 0.747634 0.0772485 -0.37856 -0.483503 -1.10312 0.00489441 -0.433167 -0.248845 -1.01226 0.800035 0.399583 -0.158862 -0.79292 -0.367454 0.327718 0.68891 -1.07853 -0.658882 -0.159487 0.554459 -0.264352 -0.902571 0.76697 0.491278 0.323043 0.600604 -0.0377373 0.00663564 -0.756571 0.278678 -0.363547 -0.726726 0.573459 0.461882 0.059767 -0.579952 -0.686953 1.00868 0.294932 -0.169706 -0.89902 -0.501137 -0.792729 0.329807 0.683266 -0.548676 0.571821 -0.0726461 0.130851 -0.681242 0.493924 0.452996 0.0853866 -0.88698 -0.26832 -0.696132 0.231619 -0.261559 -0.494808 0.180474 -0.72391 -0.207782 0.626074 0.674018 1.19678 1.30811 0.347085 0.510706 -0.340563 0.643172 0.617357 0.318758 -0.234316 0.298887 0.120396 0.833572 -0.609853 0.493653 0.78508 0.505026 -0.849815 -0.851404 0.515987 0.103898 0.522004 0.394692 -0.240638 -0.598686 -0.662495 0.516812 -0.158322 1.06574 1.46702 -0.0537375 0.279984 0.900586 0.483902 0.0227913 -0.440818 0.214308 0.0268434 -0.391089 -0.711294 -0.622727 0.349309 -0.0999511 0.403769 -0.542545 -0.526319 0.797084 -0.961635 -0.0145519 -0.393366 0.434835 -0.0978126 -0.263082 0.571049 0.324239 0.79321 0.847564 -0.113707 -0.158351 0.374601 -0.173415 -0.127889 0.368949 0.582524 0.0349664 -0.908739 -0.635652 -0.817837 0.189352 -0.819899 -0.195516 0.206532 0.25913 0.867091 -0.199354 -0.636914 -0.362169 -0.352784 0.154715 -0.543738 0.518157 0.579971 -0.82498 1.06733 -0.151467 1.09741 -0.539773 0.300932 -0.268537 1.13159 -0.0981222 -0.0770498 0.243467 -0.0112568 -0.149639 -0.365829 0.457883 0.479753 -0.336207 -0.858533 0.87737 -0.95792 -0.370928 -0.966248 -0.638328 -0.908649 -0.255012 0.157973 -0.722565 -0.299029 -0.632646 0.400009 0.548368 -0.914204 -0.514228 0.612326 0.569347 0.707862 -0.103031 -0.504859 -0.518142 -0.528388 -0.423989 0.0672798 -0.632611 0.0511676 -0.360213 0.966917 0.49457 0.758404 -0.0301539 -0.734506 -0.332903 -0.908901 0.33277 -1.08279 0.011822 -0.775309 0.430683 -0.408599 0.55489 0.286348 -0.267815 -0.0694739 -0.456369 0.630828 -0.37869 -0.159198 -0.645706 -0.0816838 0.742339 -0.949126 -0.18223 0.254374 0.496402 -0.594893 0.176393 -0.890897 0.0800845 -0.0548063 -0.731954 0.0462965 -0.956715 -0.433054 -1.14057 0.738317 -0.0493999 -0.796093 -0.0630544 0.219029 0.757633 -0.0406306 -0.769271 -0.50481 -0.752929 -0.517812 -0.717901 0.410484 0.850629 0.706474 -0.618704 -0.483325 0.489708 0.597489 0.0669682 0.0750534 0.196288 -0.896761 -0.489443 0.797219 0.0858947 0.708535 -0.440842 0.320578 0.11535 0.71954 0.135632 0.564049 -0.359911 -0.852822 0.268425 -0.762361 -0.27205 -0.281052 -0.146815 -1.06126 -0.317722 0.275541 -0.15971 -0.901448 0.156296 0.737027 -0.685621 0.85883 0.0514013 0.354217 1.0025 -0.825437 -0.748612 0.103113 -0.176767 -0.503053 -0.116668 -0.182321 -0.058575 0.172082 0.282921 0.310439 -0.188762 -1.05861 -0.581969 -0.00112453 -0.547086 0.789872 -0.688333 -0.763264 -0.791201 -0.156147 0.312482 0.582752 -0.528853 0.789008 0.852267 0.0649163 -0.487463 0.803607 0.0651937 -0.704129 0.401618 -0.664976 0.130482 0.704799 -0.647708 -0.0218503 0.207249 0.694798 -0.657815 -0.183267 -1.01615 -0.115816 -0.274009 -0.792312 -1.02936 0.190078 0.352515 -0.793516 0.800241 -0.623935 -0.205795 -0.445477 -0.0769699 0.0425116 0.216121 0.0314535 0.0368578 -0.192041 0.195239 -0.0854157 0.329505 0.813724 -0.376718 0.176401 -0.350617 -0.75543 -1.17368 -1.04924 0.335388 -0.745001 0.649284 -0.584221 -0.329046 -0.0733726 0.384727 -0.578767 0.843373 -0.656749 -0.81441 0.792472 0.17408 -0.0129742 0.150016 -0.0589776 -0.574093 0.0875979 -0.0624041 -0.490678 0.643427 -0.709016 -0.416733 -0.0158111 0.000937589 -0.369807 0.865447 -0.995935 0.343456 -0.883581 0.192824 0.121681 0.350413 -0.81241 0.701822 0.0656735 -0.0292201 0.943056 -0.999437 -0.430231 0.66846 -0.513422 -0.74674 0.19738 -0.575369 0.35685 0.207377 0.269501 0.830025 -0.123299 1.0744 -0.242045 -1.17372 -1.02736 -1.05338 -0.0604797 -0.969943 -0.839324 0.036177 0.465956 0.44402 -0.274328 -0.202969 -0.858333 0.206186 -0.526338 -1.01781 -1.05499 -0.945008 -0.19986 -0.519262 -0.429922 -0.139926 0.0232109 -0.80366 0.528748 0.564834 -0.845521 -0.235832 0.0910289 0.479199 -0.439096 0.437915 -0.36631 0.209125 0.227949 0.166411 0.299865 -0.733876 -0.501285 -0.71092 -0.314948 0.2015 -0.512357 -0.583371 -0.366275 -0.411998 -0.917144 -0.275974 -0.652538 -0.55065 1.15314 1.20465 0.640077 0.566445 0.79036 -0.30409 -0.781303 0.269018 0.416443 -0.545769 0.356299 -0.614053 0.517786 -0.568456 0.129489 -0.562535 -0.0407444 -0.841068 0.305865 0.247071 -0.529996 0.182455 -1.05267 0.307332 0.725228 1.16219 1.02883 0.0952765 -0.702862 1.09718 -0.110326 0.696183 -0.68624 -0.656155 0.903111 -0.668894 0.0863528 -0.568286 0.515993 -0.359206 -0.0613477 0.797536 0.572018 0.0773854 -0.578552 -0.0294401 0.585094 0.684247 -0.192191 0.741461 0.714315 -0.154405 0.0217535 -0.614676 1.12626 0.861383 -0.65574 -0.194835 0.536015 -0.647888 -0.286036 0.197989 -0.474461 0.796282 0.167952 0.244841 -0.0868923 0.275563 0.134286 -0.945268 -0.992156 0.585109 0.268334 -0.355451 0.515236 0.403414 0.496958 0.483359 0.594354 0.849624 -0.121222 0.499745 0.584681 0.00506299 0.85033 -0.438061 -0.647956 -0.764034 -0.448866 -0.777907 0.220334 0.409804 0.224309 0.624284 -0.360947 -0.756926 -0.83704 -0.723682 -0.36515 -0.375419 -0.412363 0.462481 -0.261971 0.186827 0.60337 -0.812084 -0.808025 0.96754 0.27537 0.524491 -0.427881 0.840271 -0.945845 0.559256 
-0.900802 0.993708 -0.217317 -0.285037 0.672858 0.285814 -0.856239 0.791221 -0.0492188 0.547112 0.0867185 0.750289 -0.527399 -0.965647 -0.44326 -0.681916 0.524396 -0.207045 0.182413 0.724401 0.24323 0.662673 -0.0449747 0.712443 0.595481 -0.43968 -0.707711 0.838537 -0.357202 -0.0478745 0.636883 -0.63343 -0.351189 -0.595106 0.3032 -0.201844 0.816624 -0.984973 -0.238354 -0.645412 0.434974 0.0446917 -0.00830623 0.469858 -0.251402 0.320339 -0.255326 -0.627496 0.739771 -0.949139 0.727135 0.702542 -0.0954146 0.42842 0.760511 0.819479 0.346196 0.467625 0.089593 -0.829116 0.48803 -0.310727 0.321041 0.548895 0.0315887 -0.273704 -0.428572 -0.694211 0.0360056 0.0946442 0.0848298 0.160392 0.731633 -0.419029 -0.137207 -0.210825 -0.284846 -0.034648 -0.344672 0.683492 0.37487 -0.362564 -0.758262 0.805879 -0.768728 -0.311089 0.696988 0.484286 0.274077 0.18389 0.622715 -0.664813 -0.384208 0.204349 0.592072 0.155921 -0.791851 -0.00763645 -0.347392 0.383548 -0.00468651 -0.583313 -0.0885229 -0.397183 -0.005009 0.390072 0.753727 -0.670733 -0.223348 0.928181 -0.0380121 0.442403 0.898001 -0.960212 0.0941504 -0.128752 -0.700917 -0.697187 0.196106 -0.349185 0.216516 0.487953 -0.669807 -0.139302 0.48463 -0.322355 0.0200277 -0.62935 0.555853 0.307582 -0.242345 0.475885 -0.0561167 0.489405 0.913203 -0.692193 -0.894112 0.131937 0.984374 0.113148 0.713062 -0.282404 -0.6303 0.821643 0.854011 0.53942 0.0561228 1.11694 -0.305583 0.245258 0.46141 -0.901536 -0.376485 0.527638 -0.607454 -0.023185 0.182665 -0.38561 0.546278 -0.73664 0.0888086 0.789497 0.558619 -0.489048 -0.252866 -0.811993 -0.212759 0.927866 -0.294531 -0.375797 0.418122 -0.830467 0.780409 0.58439 -0.212683 -0.439931 0.367224 -0.0427212 -0.259424 -0.945846 -0.650945 0.457373 0.130964 -0.130229 0.813432 0.110717 0.0768381 -0.556649 1.22912 -0.448602 0.0367737 0.688698 0.595515 0.666825 -0.172473 0.665293 -0.235216 -0.87523 -0.686256 -0.325632 0.837209 -0.619546 0.253781 0.913952 -0.312916 0.85473 0.237922 -0.652277 -0.721258 -0.763904 0.251919 0.521351 -0.647917 -0.582143 -0.145243 0.276614 0.691895 0.566143 0.0566209 -0.32023 0.120719 0.13693 -0.660778 -0.855276 -0.696651 0.69115 -0.472072 0.410226 0.702684 -0.880672 -0.220067 0.1088 0.684209 0.860271 1.01862 -0.447553 -0.341043 -0.286788 -0.0252632 -0.789258 0.00324368 -0.521051 0.64455 -0.134733 0.840439 0.447312 0.0333468 -0.331562 0.708323 -0.422701 -0.771893 -0.821291 -0.970733 -0.207277 -0.0396866 0.810698 0.354016 -0.917273 0.312833 -0.121286 0.797559 0.900717 0.298735 -0.301353 1.10211 -0.685934 -0.658256 -0.395234 0.942285 0.62744 0.42573 0.269267 -0.211998 0.70934 0.927088 0.153045 0.451157 0.0984496 0.217996 -0.61469 0.490173 -0.0813687 0.303761 0.616223 0.431916 -0.71433 -0.544032 -0.00450763 -0.668782 0.327131 0.0173459 1.04389 -0.785779 0.0626752 -1.03904 -0.380231 -0.284621 1.37262 1.29318 -0.416787 -0.840112 0.258153 0.729181 0.772603 -0.230348 -0.0448431 -0.560861 -0.618739 -0.0440457 0.510848 0.550471 -1.18048 0.646757 -0.69574 -1.01071 -0.0907732 0.0497223 0.00126446 -0.639067 -0.344917 -0.75053 -0.909659 0.42167 0.222463 -0.414121 -0.234021 1.14302 0.848248 -0.069804 -0.831916 0.0838595 1.0077 -0.345664 0.376611 -0.547687 0.987486 -0.735518 -0.393936 -0.60795 -0.169414 -0.96698 -1.05814 0.0619245 -0.222833 -0.859729 -1.05125 -1.0617 0.109501 0.168938 -0.879645 -0.643143 0.133716 1.13108 0.0515752 0.727469 0.524038 -0.0909725 -0.237702 0.30975 0.719146 0.750008 0.0551926 0.677434 -0.0870569 0.754064 0.512871 -0.592993 -0.0554935 -0.303326 -1.02208 -0.373128 -0.0265362 -0.593819 -0.796066 -0.498375 -0.884254 -0.382382 0.640262 0.0118725 0.987709 -0.342065 0.267116 0.896502 0.196144 -0.76854 -0.918685 -0.0972426 0.50687 0.727429 -0.0104982 0.803848 -0.922486 -0.0441973 -0.190434 -0.227665 -0.685727 -0.16844 -0.999182 -0.514278 -0.420595 0.386084 0.416746 -0.620494 -1.04403 -0.823329 0.435552 -0.631601 0.919975 0.823808 -0.196754 0.529219 -0.245323 -0.168883 -0.535694 -0.16817 -0.295483 0.0224801 -0.721734 0.779517 -0.996658 0.686595 0.857113 0.371365 -1.02842 0.277381 -0.803052 -0.179903 -0.76073 -0.825179 0.727407 -0.649643 0.411813 -0.766973 -0.462353 0.386908 0.401273 0.549357 0.908405 0.869721 -0.711233 0.582535 1.18341 -0.183369 -0.0873212 0.277901 1.03227 0.0948153 0.216545 -0.0800828 0.215592 -0.946717 0.163301 0.220349 -0.546967 0.304884 -0.348012 -0.636421 -0.466131 -0.825777 0.115715 0.34703 -0.397925 0.074182 -0.092575 0.0648617 0.108153 0.493991 -0.772563 -0.46531 0.0937202 -0.545922 0.249168 0.709315 -0.726942 0.281745 0.646362 0.783047 0.0664736 -0.479034 -0.196734 0.829783 0.689736 0.428903 0.636447 0.040046 -0.534822 0.0892857 0.158685 0.724686 -0.0772542 1.16424 0.834196 0.377501 0.179643 0.809345 0.0951573 0.571557 0.140176 0.00228941 0.129158 0.171616 -0.333667 -0.552394 0.828418 -0.0780351 0.837896 0.686355 -0.550509 -0.972763 0.579995 0.729273 0.307884 -0.675164 -0.568782 -0.53551 0.71433 -0.103293 -0.669744 0.442542 0.931877 1.03126 1.05914 -0.566936 -0.652274 -0.593206 0.362642 0.931647 -0.576572 0.698409 0.0953996 -0.929153 0.482178 -0.841867 -0.00474721 -0.545868 -0.274169 -0.0247241 -0.619584 -0.448052 -0.738716 -0.5811 -0.546484 -0.87186 -0.169332 0.727031 0.682849 0.233715 0.176538 1.12792 1.12084 -0.80821 0.0797698 -0.736544 0.737087 -0.265565 -1.04086 0.16618 -1.00433 -0.516285 0.456346 -0.022218 -0.216709 -0.486725 0.25652 -0.472005 0.281777 0.135578 0.850833 -0.720965 0.805277 -0.224156 0.697518 -0.802732 -0.315214 -0.395177 -0.267861 -0.308643 0.280833 -0.215062 -0.21253 0.971174 0.81666 -0.925556 0.570701 -0.423788 -0.686649 0.482121 -0.197078 -0.92745 0.230893 -0.592297 -0.185624 0.66188 0.0569738 0.572029 -0.738276 -0.923938 0.371512 -0.417407 -0.68999 -0.520496 0.609764 0.409794 -0.225418 -0.528455 -0.521306 0.0952318 1.04311 -0.608996 -0.792747 -0.589606 -0.783849 0.411065 0.0426619 0.791981 -0.989382 0.120127 -0.552496 -0.215298 -0.682187 0.711107 0.268369 -0.646754 -0.350798 0.404202 0.584965 0.139274 -0.677266 -0.0527836 0.171924 -0.315828 -0.840452 1.0534 -0.289467 -0.582334 -0.978702 -0.633518 -0.47225 0.712483 -0.684816 -0.510626 -0.754639 0.696358 0.120158 0.69095 -0.200376 0.238064 -0.166132 -0.214859 -0.0283646 0.655557 -1.03108 -0.303096 -0.144784 0.603469 -0.841378 -0.151591 -0.318969 -0.542978 -0.83007 -0.732243 -0.417995 -0.476551 -0.391359 0.712302 -0.426718 -0.787236 0.469477 -0.904414 -0.383775 -0.329183 -0.947238 -0.786847 0.367608 0.822951 -0.27136 -0.792326 0.59803 -0.962703 0.908275 -0.0183158 -1.05053 0.100425 -1.02031 0.325545 0.685699 -0.282345 -0.0202916 0.0736921 -0.974934 -0.0229253 0.344416 0.708587 0.00799155 -0.453757 -1.13463 0.747099 -0.751211 -0.996876 0.23971 0.960482 -0.28302 -0.505247 0.0332557 0.212423 0.76033 -0.777372 0.927453 -0.715766 -1.0422 -0.223587 -0.0122421 0.0890448 -1.01777 0.732939 0.347298 0.431181 -0.768859 -0.302359 0.569775 -0.59614 0.266352 0.706561 0.704063 0.253022 -0.0583331 0.660569 0.13066 0.730723 -0.490549 0.556029 -0.402282 0.618781 0.179574 0.604647 -0.510921 -0.16096 0.513848 -0.494215 -0.367091 0.269938 0.871137 -0.094705 0.256648 0.191941 0.551152 -0.732601 0.0577809 0.969304 -0.19762 0.198202 0.476591 0.501045 0.635154 -0.274892 0.687672 -0.0527713 -0.0558971 0.357526 -0.137039 -0.300669 -0.040497 -0.379859 -0.945554 -0.417619 -0.0364674 0.979407 0.138611 
-0.0366302 -0.818988 -0.848571 -0.703661 -0.551166 0.361403 0.161834 0.121907 -0.224734 -0.961738 -0.404449 -0.272328 0.360526 -0.546949 -0.0174847 0.419877 -0.766332 0.87076 0.440201 -0.90691 0.246119 0.808276 0.127816 -0.468231 0.83184 0.83124 -0.016764 0.126938 -0.141381 -0.223455 0.642836 -0.0269846 -0.343174 -0.481643 0.197771 0.951206 -0.527123 0.864002 0.311545 0.884186 -0.134043 -0.668506 -0.362951 -0.418158 0.101886 -0.872044 0.153757 0.60181 0.284115 -1.00205 0.369543 0.972508 -0.566673 0.890078 -0.120338 0.328115 0.691523 0.56654 0.495647 -0.965196 0.44204 0.0818869 -0.357294 0.440296 -0.836093 0.852571 -0.842642 -0.177231 0.92434 -0.315962 0.343026 -0.0227383 0.0731339 -0.282965 -0.497205 -1.14395 -0.948028 0.414021 -0.661054 0.237138 -0.807282 0.00617203 -0.411853 -0.360043 0.757113 -0.135357 0.901119 -0.479567 -0.306833 -0.728338 -0.397349 -0.167747 0.825287 0.938057 0.68063 0.832912 0.763103 0.190203 0.0715268 -1.11499 0.125314 -0.157137 -1.05563 0.464131 0.0332319 -0.229757 -0.806218 -0.530885 0.796182 -0.243552 -0.372416 -0.201151 0.839535 0.826689 -0.923012 -0.303112 0.503094 0.925946 0.744672 0.0960608 0.74081 0.413404 -0.0541127 0.631109 -0.743176 -0.877972 -1.22184 -0.994431 -0.996009 -0.867883 -0.969275 0.200059 -1.18644 0.0602286 -0.406546 0.0132555 0.580011 0.487774 -0.975326 0.0485038 -0.598037 -0.349611 -0.389129 -0.604248 0.3012 -0.383669 -0.143372 0.189208 1.04681 0.404524 0.588782 -0.4328 1.17609 -0.573722 -0.0254124 -0.977806 0.16009 -0.122213 -0.96898 0.474991 -1.32051 0.469708 -0.245666 -0.225076 -0.822745 0.735151 -0.218869 -0.50741 -0.84092 0.724698 -0.0245349 -0.667114 0.562307 0.00697108 0.382794 -0.268196 0.385929 -0.0796135 1.23091 0.163918 -0.551442 -0.150007 -0.493945 -0.12367 -0.613458 -1.0175 -0.445694 0.161275 -1.10188 0.688346 0.798187 -0.961004 0.00340884 0.881048 0.0582483 -0.716936 0.916712 0.691727 -0.511046 0.452611 -0.106232 0.436291 0.59119 0.379708 -0.75562 1.26369 -0.0178372 0.928806 0.421929 0.588586 -0.0546151 -0.473803 -0.253311 -0.440905 0.115914 -1.19274 -0.0446324 -1.00373 0.0995873 -1.08277 -0.564103 -0.741496 0.574064 -0.0625746 0.518951 -0.510429 -0.489374 -0.580493 -0.209983 -0.636879 -0.235763 0.22204 0.637202 0.227837 0.670508 0.755109 -0.354451 -0.798866 -1.06027 -0.307941 0.21518 0.293199 -1.47872 0.180713 -1.2139 -0.2238 0.888675 -0.606801 -0.0706732 0.92997 0.950224 -0.715386 -0.252783 0.445863 0.572696 0.0101361 0.129035 1.06925 -0.623894 -0.330906 0.346623 0.277159 0.55176 0.86841 0.0575543 0.420836 0.142395 0.415195 -0.892022 -0.361097 0.0201497 -1.53246 0.365244 -0.572808 -0.777058 -0.696196 -0.46231 -0.748029 -0.883543 -0.680161 -0.513472 -0.588523 0.528813 -0.0990317 -0.524793 -0.00729648 0.954635 0.966034 0.482531 0.200086 0.881312 -0.216861 0.742474 -0.696968 -0.208155 -0.511549 -0.753986 0.8665 0.0688063 -0.970656 -0.0305507 -0.31382 -0.624769 0.892967 0.537456 0.0479467 0.484871 0.220633 0.70649 -0.0493013 -0.0781127 0.771437 0.699382 -0.258135 0.346498 0.0783859 -0.293061 0.25545 0.788128 0.163685 0.774159 -0.961833 0.837944 0.677662 -0.437247 0.291067 0.450337 -1.15739 -1.03821 -0.970496 0.157168 -0.0180509 -0.564404 0.624507 0.836148 0.0768968 0.810518 0.171412 0.0362909 0.077492 0.135235 -0.526738 -0.541712 -0.0576073 0.349796 0.391563 0.683609 -0.171235 -0.503568 0.465813 -1.03875 0.213363 -0.586295 0.614537 0.820889 -1.1736 -1.35696 -1.36679 0.0227786 -0.667822 0.429562 0.126068 -0.620838 0.42967 -0.00472833 -0.483597 -0.527234 -0.0386152 -0.275031 1.08727 0.817641 1.14266 -0.453359 0.319357 0.926845 -0.139703 -0.112221 0.30698 -0.0966927 -0.739959 0.728916 -0.316986 -0.547975 0.145264 -1.09267 -0.585501 -1.01449 0.0257612 -0.773256 0.0542637 0.320598 0.37848 0.151871 -0.131654 -0.4146 0.545854 -0.762934 0.386014 0.032354 -0.158258 1.30583 0.92036 -0.213758 -0.555587 0.569473 -1.03426 -0.0539887 0.447366 -0.853774 -0.569683 0.350292 -0.00592645 -0.416537 -0.0306926 -0.90184 -0.585014 0.846419 -0.717378 -0.843961 0.798836 0.0286857 -0.92008 -0.512596 0.0519444 1.01417 1.0238 0.0420287 -0.236135 0.96792 -0.448982 1.09988 0.923473 0.299332 -0.558463 -0.322357 -0.40756 0.458955 0.53818 -0.552028 0.138642 -1.25105 -0.364416 -0.561895 -0.477073 -0.142543 -0.884031 -0.0641174 -0.0589604 0.351896 1.01829 -0.00201175 0.169131 0.45973 -0.418231 -0.411996 0.195544 -0.63774 0.896027 0.347382 0.942979 -0.236086 0.657945 -0.515493 -0.429677 -0.116383 -0.0838793 -0.770585 -0.556952 -1.08577 -0.687185 0.403578 0.00215692 -0.164386 0.02819 -0.799314 0.266423 0.453572 -0.0642138 0.982749 -0.279825 0.917179 0.716303 0.031731 -0.248775 0.669302 -0.200485 -0.207499 0.6484 -0.472207 0.825854 0.673369 0.079824 0.185502 0.174516 -0.327059 -0.706864 0.267878 -0.647911 -0.91058 -0.776618 -0.358008 0.272508 0.893854 -0.907215 0.691511 0.461479 0.418614 0.506807 -0.247131 -0.123474 -0.0506878 0.67342 0.974042 -0.438598 0.864023 0.666463 -0.453668 -0.61328 0.801606 -0.79147 0.60824 -0.447097 -0.461177 0.16398 0.350892 -1.07271 0.776827 -0.504457 0.453187 -0.995576 -0.295459 -0.93091 0.796345 0.315855 0.720416 0.32513 0.315001 -0.226229 -0.73963 -0.0352079 -0.741553 0.428015 1.04352 -0.286034 0.0971652 -0.156567 -0.517579 0.626779 0.330254 -1.36758 -0.210209 -0.680656 -0.222214 -0.949161 -0.0112085 -1.0668 0.0963993 -0.206346 0.833187 -0.656613 -0.778816 -0.621361 -0.835991 0.338232 0.557303 0.0991703 -0.156386 0.425318 0.271344 -0.127959 1.30075 -0.0133931 0.739192 -0.359813 -0.242283 0.120134 -0.068241 0.00866443 -1.44206 -0.361372 -0.226764 -1.08926 0.0758352 -0.23178 0.582612 -0.955521 -0.353907 0.641923 -0.622739 0.392878 -0.392573 0.64233 -0.54445 0.110727 0.025191 0.313046 0.324172 -0.158851 0.853115 1.3372 0.0869492 0.562709 0.497087 -0.0835713 0.267306 0.27987 -0.730011 0.0501411 -0.348388 -0.121796 0.396498 0.308434 -0.946624 -0.73674 0.970768 -0.500833 -0.809146 -0.690034 -0.139503 0.749573 -1.10289 0.782108 -0.578923 0.0961005 -0.839566 0.872639 0.288291 -0.0589432 0.0237391 0.754081 -0.352625 -0.435068 -0.346972 0.39822 -0.310323 -0.704041 -0.410261 -0.186847 -0.38702 -0.63093 0.157396 -0.355031 -0.0390835 0.482075 -0.327665 0.196595 0.396408 0.479829 0.537722 -0.266105 0.0252102 -0.309399 0.891996 0.648426 0.844482 0.40023 0.34036 0.0754589 0.479305 -0.671328 -0.324223 -0.500415 -0.677072 -0.603894 0.444113 -0.309284 -0.588677 1.02504 -0.261194 0.607939 -0.444017 -0.572696 0.0435239 0.850617 0.577172 0.416602 0.0167017 0.753801 -0.35579 -0.0892062 -0.173244 0.886421 1.06049 0.291152 0.538265 0.816153 0.76912 -0.579826 -0.807435 -0.103344 0.82001 -0.897748 0.734256 0.717974 0.972866 -0.457258 0.474155 0.767319 -0.863743 0.442551 -0.237128 -0.0242786 0.477524 0.590954 0.0723979 -0.756636 -0.50484 0.792719 0.281354 -0.64578 0.71563 -0.327974 0.193917 -0.435758 -0.225283 -0.678562 0.764369 0.0212394 -0.461444 -0.763004 -0.319755 0.367463 -0.316112 -0.0539332 -0.382372 -0.980654 -0.0365198 0.873504 -0.134757 -0.681546 -0.19737 0.807597 -0.996678 0.0932141 0.0123373 0.0973988 -0.440724 -0.87903 0.298122 -0.74164 -0.182266 -0.301243 0.780405 0.888155 -0.488878 0.154441 -0.117986 -0.154146 -0.605741 -0.775101 -0.223986 -0.0497367 -0.677789 -0.0728683 -0.144391 -0.40016 -0.229461 0.65292 0.732641 -0.977511 0.0910448 0.935286 -0.195122 -0.537912 -0.955733 -0.423759 0.924124 -0.857297 
