-0.095906 0.167563 0.773189 -0.318877 -0.792235 0.436766 -0.276972 0.380443 0.665404 0.972694 0.290502 -0.360315 0.118431 0.627493 -0.807871 -0.651351 -0.680219 0.991458 0.697295 0.399527 -0.635861 -0.800669 -0.122737 0.591757 0.196036 0.255969 -0.335876 -0.433975 0.171454 -0.794516 0.655487 -0.203294 -0.51418 -0.644376 -0.623905 0.549074 -0.449063 0.707395 0.664237 0.609348 0.249967 -0.332851 -0.529307 0.14258 0.207155 -1.00738 -0.81617 0.248603 0.000771077 0.0923288 -0.841862 0.542984 -0.67584 -0.838398 -0.0974264 -0.808115 -0.5446 -0.879059 -0.909996 0.256407 0.178236 0.441206 0.79806 -0.197053 0.573035 0.57192 -0.860467 -0.156779 0.0391082 -0.41352 -0.181626 0.774703 0.655099 0.494332 -0.988799 0.259937 0.365538 -0.340209 0.0507874 0.219971 -0.116579 0.806245 -0.353366 0.791004 -0.380986 -0.381634 0.917424 -0.645153 0.802832 0.0832273 -0.319584 0.325749 0.603026 0.821191 -0.0952452 0.263335 -0.336434 -0.295485 -0.198395 -0.458164 -0.748332 0.304346 0.666492 0.0501483 0.242488 0.35137 -0.0905911 0.246741 0.35732 0.783713 -0.74824 0.564531 0.116851 0.346359 -0.306505 0.668215 0.800708 -0.0396594 0.296846 -0.246015 0.839517 0.724328 -0.994226 -0.609432 -0.182141 -0.252332 -0.996505 0.294147 -0.247898 0.146196 -0.45992 -0.347302 -0.722136 0.230949 0.834823 -0.613442 -0.00417083 -0.909879 -0.72987 -0.32055 0.303397 0.702057 -0.205111 0.103198 -0.523551 0.336029 0.558246 0.635062 -0.248706 0.180819 -0.151778 -0.672187 -0.933541 -0.271626 -0.127784 0.178714 0.492338 -0.959552 -0.450034 -0.28523 0.674813 -0.618932 0.364816 0.240174 0.4697 0.99953 -0.0291267 -0.599121 0.0547945 -0.980626 0.197298 -0.480022 0.41028 1.04531 0.805987 -0.3389 -0.769174 -1.13773 0.503517 -1.05553 -0.793162 0.162797 0.87252 -0.844423 -0.388844 0.124501 -0.118458 0.282705 0.0455468 0.442117 -0.759072 1.06881 0.457566 -0.305029 -0.686768 0.60362 0.295407 0.910757 -0.136949 -0.88004 0.113311 -0.334628 0.762994 -0.272016 -0.257865 -0.245029 0.193713 -0.600101 -0.930073 -0.429241 -0.719349 0.262116 0.786771 -0.800336 0.0609711 -0.320568 0.79092 -0.192627 -0.295323 0.390269 0.997863 0.423732 0.905914 0.23797 -0.0858638 0.674615 0.39816 0.733085 0.0048118 -0.520437 0.389141 0.674999 0.348362 -0.157578 -1.03061 -0.516328 0.0130244 0.270241 -0.495438 0.245554 -0.694081 0.387966 -0.281223 0.696193 -0.230242 0.796616 -0.723148 0.0554204 -0.418057 -0.227533 0.624104 0.270523 0.176841 -0.42931 -0.114979 0.746527 0.727759 0.0985703 -0.685907 0.0854323 -0.525771 0.115039 -1.2624 0.30798 -0.171599 0.0191609 0.702369 0.755721 -0.581485 -0.849276 0.880971 -0.932447 0.24652 -0.770877 -0.168466 0.491437 0.761944 0.895134 -0.1627 0.873492 0.133695 -0.941393 0.863808 -0.469912 0.114651 0.076315 -0.469531 0.177995 -0.715944 -0.978515 -0.581269 -0.679863 0.459205 0.755464 -0.736982 -0.255171 -0.651566 -0.716022 0.272152 -0.576617 0.423556 -0.294739 0.246087 -0.207538 -0.449848 -0.366377 0.83226 -0.675249 0.116709 -0.505366 -0.1129 -0.569084 -0.22739 -0.481426 -0.0202368 -0.777748 0.284795 -0.382693 0.523892 -0.0831314 -0.31085 -0.416748 -0.601065 -0.667853 0.429241 0.330309 0.175439 -0.485413 0.0435103 0.15615 0.239962 0.767202 -0.70877 0.457925 0.183653 0.770162 0.656705 0.979538 0.790659 0.266825 0.761781 0.38459 0.845495 -0.274868 -1.04678 0.340839 -0.158981 0.0803804 0.794834 0.474408 0.460148 0.553606 -0.482025 -0.709286 0.200065 -0.721913 0.0430686 0.809853 -0.043915 -0.491193 -0.695615 0.231517 0.89462 -0.0830472 0.807144 -0.351246 0.666381 0.216756 0.830135 0.724718 1.07726 -0.232271 0.200413 0.73861 -0.825864 0.361949 0.305235 -0.0283842 0.849295 -0.607935 -0.859852 0.113496 -0.776726 -0.692171 0.431025 -0.765085 0.462384 0.0408005 -0.567126 0.447377 -0.21686 -0.479426 0.204395 -0.537624 -0.690326 -0.589471 0.843309 -0.654927 -0.071613 -0.821924 -0.790974 0.824156 0.275496 -0.940157 0.853459 0.530819 -0.739386 0.117901 -0.399607 0.0881009 0.418021 -0.307215 -0.138585 0.881759 1.10591 -0.570892 -0.267663 -0.696098 -0.683036 -0.888087 -0.320291 0.662047 0.387551 -0.701083 0.387231 0.862604 1.03873 0.233659 0.159638 0.228758 0.759022 0.0456187 0.461415 0.899435 0.195877 -0.631148 0.334239 -0.0679558 -0.694595 -0.529288 0.022666 0.552199 0.91082 -0.12881 0.608215 -0.145138 -0.461966 -0.617132 0.198241 0.86777 0.0725064 0.302194 -0.444088 -0.370462 -0.817276 -0.765982 -0.137753 0.247797 0.417678 -0.824701 -0.269536 0.704591 -0.01061 0.614382 -0.254735 0.447982 -0.2095 -0.475081 0.28452 0.673259 0.552816 -0.484122 0.783023 0.36639 -0.585545 -0.711029 0.541286 -0.2858 -0.625399 -0.00767167 -0.762238 -0.35995 -0.946084 -0.902668 -0.27617 0.134522 -0.106482 -0.598868 -0.506 -0.950622 0.64252 -0.112325 -1.15868 0.178505 -0.409192 -0.563645 0.243806 -0.167219 -0.264969 0.443921 -0.134673 -0.330952 -0.331721 -0.439936 0.644325 -0.490584 0.767286 -0.226514 -0.0154946 0.611407 0.526137 -0.365186 0.577114 0.220117 0.493973 -0.966305 -0.809064 0.745897 -0.916349 0.255506 0.428382 -0.573847 -0.186755 0.0923934 -0.230518 0.348968 0.441438 0.38229 0.0369627 -1.01328 0.819562 -0.452618 -0.290295 -0.122764 0.0720601 -0.90582 -0.232302 0.00826106 -0.518527 -1.07869 0.202528 -0.879085 0.271146 0.655216 -0.179917 -0.937994 0.585124 0.515097 -0.334956 0.697111 -0.515756 -0.766835 -0.709691 0.0190639 0.429198 -0.204277 0.741991 -0.934377 0.997085 -0.681213 -0.555321 -0.47802 -0.306034 0.0150949 -0.428807 0.0920407 0.032789 -0.23044 -0.935366 -0.4608 -0.615612 0.357777 -0.555192 0.230307 -0.428993 0.208075 -0.464036 -0.964806 -0.544884 -0.263937 -0.00336851 -0.59595 0.299481 -0.758257 -0.32603 0.218988 0.120452 -0.0785851 -0.90045 -0.313775 0.167955 -0.161965 -0.77413 -0.0472493 -1.09381 -0.463395 0.444715 0.373682 0.183376 -0.938777 0.110695 0.129392 -0.982726 0.891764 -0.369818 -0.109687 -0.989753 0.780771 0.679468 0.359991 -0.702895 0.589271 0.216203 -0.369295 -0.668032 0.201575 -0.908145 -0.332916 0.384729 -0.601309 -0.72158 -0.820708 0.127395 -0.522191 -0.727375 -1.09589 0.0147451 -0.485778 -0.665453 -0.692463 -0.852168 0.104722 -0.0805329 -0.0577069 -0.578899 0.0241434 0.559012 0.59926 0.410651 0.252382 -0.514992 -0.820828 0.556424 -0.981516 0.536273 0.719215 -0.455442 -0.144021 -0.963799 0.0997506 -0.458503 -0.085945 -0.982196 0.727682 -0.17939 -0.684551 -0.0458633 -0.948336 0.514656 0.425177 -0.586061 -0.890935 0.969387 0.440842 0.0554669 -0.582949 0.528569 0.00533897 -0.806338 0.0197898 0.705555 -0.148874 -0.632165 -0.312695 -0.507439 -0.298971 0.702405 -1.12001 -0.56515 0.00577615 0.41374 -0.902124 0.584092 0.378344 -0.390298 -0.101659 -1.02614 -0.472793 0.516268 0.16224 -0.917483 -0.677614 -0.123227 0.737066 1.01785 -0.934204 0.171786 0.583282 -0.738742 -0.811364 -0.490744 -0.286613 0.532126 0.440304 0.312372 0.00419829 -0.800445 -0.707311 0.213183 0.476737 -0.037102 -0.716947 -0.0821972 0.267326 -0.460025 -0.561911 0.503166 -0.0338358 0.0528906 0.290189 0.143952 -0.527166 0.664248 -0.249739 0.808323 -0.745512 0.724664 0.973279 0.593614 0.268004 0.381127 -0.411977 0.00500074 0.512492 -0.434226 0.683703 0.431625 0.18869 0.771937 -0.433381 -0.15584 -0.939217 -0.786117 -0.0196348 0.856009 0.230097 -0.576117 -0.472103 -0.0322178 0.812748 0.184693 -0.243627 -0.583525 -0.589959 0.706148 -0.429964 0.766598 0.634544 -0.121073 -0.101965 -0.0367527 -0.362309 0.319619 0.357548 0.147573 -0.446318 0.710467 0.313547 
0.188955 -0.0937978 0.904976 0.770329 -0.401436 0.808049 -0.662509 -0.609232 -0.673591 0.646192 0.417874 0.939553 -0.617659 0.917116 -0.218602 -0.182979 -0.994811 0.401916 -0.204916 0.353874 0.625353 -0.198899 0.211532 -0.803954 0.698826 -0.125461 0.634641 0.179598 0.410977 0.534071 0.127067 0.581873 -0.718665 -0.774081 0.126881 -0.15842 -0.375893 0.685447 0.592042 -0.0674982 0.95062 0.401799 -0.0429381 0.5366 -0.668181 0.0565908 0.158253 -0.115613 -0.912305 0.735315 -0.985487 0.778914 -0.237916 0.176668 -0.0635925 0.376066 -0.645573 0.410094 -0.798933 0.634672 0.731727 -0.911836 0.541323 0.85128 -0.862018 -0.371789 0.295443 0.593905 -0.972693 -0.428028 0.646951 -0.406636 -0.774218 -0.254784 0.12903 0.235593 -0.19462 0.0602295 -0.339112 -0.0178125 0.683095 0.538049 0.752613 0.691832 -0.72973 -0.345333 0.702836 0.972386 0.451414 -0.545767 0.245737 0.548298 0.773878 0.824298 0.0496872 -0.435353 -0.819702 0.277657 -0.457546 -0.19297 -1.16901 0.645125 -0.488776 0.83378 0.252936 0.0471683 0.696517 0.277411 -0.382596 -0.111466 0.965131 0.43906 0.103949 -0.560876 0.11112 -0.0948718 -0.820814 0.615585 -0.498222 0.432433 0.931076 0.841432 -0.86596 -0.613856 -0.0710907 0.20056 0.285062 -0.432922 -0.84227 0.356244 0.0731219 -0.125767 -0.882009 -0.151804 -0.121483 0.281223 -0.286852 -0.134766 -0.248191 0.13205 0.250104 0.38578 -0.66049 0.791438 -0.0047885 0.58128 0.808177 -0.877132 -0.272808 -0.275575 -0.250728 0.245502 -0.111404 -0.546076 0.390512 0.127851 -0.522662 0.237701 0.772476 0.694984 -0.82703 0.998241 0.67855 0.682559 -0.33469 -0.626823 0.537757 -0.425471 -0.0521352 -0.978047 -0.289467 0.388054 -0.6862 -0.444823 -0.292862 -0.573005 0.211894 -0.897694 0.908217 0.0725459 -0.0842471 0.619772 0.711381 -0.0342828 0.656329 -0.576539 -0.436514 0.509891 0.0290914 0.265823 0.982025 -0.656691 -0.555022 -0.321854 0.251198 -0.213448 -0.570255 0.951518 0.605902 1.05212 0.709136 0.957121 -0.0693041 -0.740687 0.0919343 -0.314851 -0.819156 0.0567143 -0.236311 1.01283 -0.420689 0.881726 -0.0228466 -0.906349 0.0425162 0.263132 -0.789386 -0.0520209 -0.199241 -0.104128 0.764725 -0.703067 0.812592 0.628669 0.1738 -0.254805 -0.573395 0.473717 0.974784 -0.165634 0.260921 0.429858 -0.630597 -0.0625148 -0.663216 1.0311 0.356907 1.0826 -0.421816 0.0208984 -0.669817 -0.551095 0.47132 -0.407045 -0.668048 0.561194 0.877458 -1.05119 -0.755473 0.543101 -0.892704 0.923062 -0.323563 0.891733 0.126763 0.226556 0.85154 -0.371609 0.461134 0.553534 0.473842 1.00622 -0.761184 0.913565 -0.374697 0.390833 0.899703 0.00870082 0.668089 -0.972928 -0.735112 0.156889 0.477437 -0.105609 0.436643 0.256403 -0.26794 -1.13842 -0.00544402 0.6722 -0.30649 0.281128 0.791454 -0.427012 0.864527 0.354446 -0.112608 0.182765 -0.709436 -0.715859 0.341815 0.334337 0.14876 0.403691 0.796128 0.580651 0.561264 0.390228 -0.914369 -0.509357 -0.304593 0.0659023 -0.0286569 0.607783 -0.807395 -0.985106 -0.0893397 -0.94705 0.747392 -0.115514 -0.0553142 0.754403 -0.575338 0.57004 0.724195 -0.215648 0.257481 0.637703 0.30475 -0.111786 -0.225978 -0.203823 -0.457775 -0.748632 0.799728 -0.158087 -0.572186 0.951397 0.314316 0.247797 -0.674735 -0.990146 -0.620938 -0.58076 -0.675012 -0.540466 -0.390243 0.667458 -0.406423 0.22027 -0.242263 0.426688 0.201192 -0.0662758 0.416148 0.705807 0.831548 0.959602 0.754141 -0.00284805 0.783812 0.190154 -0.0388226 0.703791 1.07736 -0.644119 -0.355003 -0.887525 0.271877 -0.154589 0.348445 -0.695766 -0.542358 0.147258 -0.783454 0.600064 0.774555 0.781146 -0.534984 -0.572901 -0.367094 -0.449258 -0.746213 0.79368 -0.0662198 0.177435 -0.543308 -0.0691244 -0.335727 -0.588135 -0.415903 -0.228932 0.623027 -0.665664 -0.212637 -0.642326 -1.29337 0.435922 -1.42138 0.633468 0.754844 0.614154 -0.303426 0.878889 0.499418 0.146651 0.627325 -0.534205 0.0488463 0.635488 -0.449103 -0.551994 -0.413249 -0.28972 0.752691 0.800811 0.695388 0.980161 0.812885 0.383192 0.744013 0.143777 -0.830941 -0.886334 -0.39931 -0.0731509 -1.08526 -0.558201 -0.0962617 0.0343976 0.872561 -0.529509 0.59224 0.534456 -0.609967 -0.175943 0.0124939 0.946591 -0.441754 0.969815 -0.460515 -0.492652 0.887415 0.514592 0.019764 -0.134846 0.491861 -0.596406 -0.567508 0.640541 0.0543967 -1.14851 -0.14986 0.338563 -0.165743 -1.00977 0.242084 -0.117615 -0.0839442 0.343426 -0.94336 -0.368353 -0.137764 0.185471 0.81632 0.774514 0.34538 0.43682 0.849949 0.489559 0.721578 -0.591991 -0.0782656 -0.220176 0.284029 0.758876 -0.376952 0.679058 -1.04997 -0.90708 0.374393 -0.956103 -0.913492 -0.55375 0.461236 0.821103 -0.996615 0.0286813 0.955349 -0.64621 0.0971454 0.169766 0.133681 0.97879 -0.096926 0.663679 0.427629 -0.529126 0.503159 1.18188 1.06815 0.355549 -0.285856 -1.16957 -0.32858 -0.543602 -0.141685 -1.02642 0.662307 0.643049 -0.332717 -0.786151 0.539614 0.268035 -0.0750479 0.520725 -0.651238 0.731103 -0.0270966 0.978131 -0.490419 0.848658 0.770839 0.38588 0.232759 -0.575268 -0.705749 -0.654303 0.874921 -0.446663 -0.557643 0.474032 -0.6458 -0.596916 -0.204232 0.0908489 -0.854663 -0.0807117 -0.896372 -0.810359 0.775183 0.943033 -0.632431 -0.871944 0.435596 0.945003 0.702033 0.262522 0.0558307 0.993757 0.97942 1.13328 0.555605 -0.47364 -0.151142 0.901785 0.419604 -0.792787 -0.905354 -0.809161 -1.13913 0.0672377 -0.569887 0.896434 -0.960414 0.192525 -0.236571 0.690528 0.243769 0.466529 0.139146 -0.436539 -0.136084 -0.796736 -0.382555 0.749044 -0.34776 0.514165 0.515077 0.347971 0.678773 -0.500872 1.04105 0.180698 -0.324666 0.720259 -0.469232 -0.379498 -0.132954 -0.309914 0.134724 0.328919 -0.542181 0.479468 -0.598105 -0.758443 0.361748 0.234277 -0.80375 0.689329 -0.0815707 0.75615 -0.126725 0.397307 0.992156 0.55475 0.0964391 -0.0734188 0.198337 0.837425 -0.368872 -0.278615 0.215972 -0.0727944 -0.803985 -1.06675 0.0919287 0.500842 0.414768 -0.730118 -0.083099 0.767964 -0.226889 -0.128624 0.221319 0.235468 0.0681236 -0.917915 -0.987179 0.763077 -0.444618 -0.513312 -0.300314 0.836931 0.862014 0.8699 1.18823 1.1176 0.271166 -0.307387 -0.928522 0.0364659 -0.355035 -0.552433 -0.564982 -0.783856 0.73515 0.783715 0.191136 0.255115 0.593406 0.257027 -0.630772 -0.569951 0.224242 0.0344768 0.619413 -1.02551 -0.312305 -0.710442 0.712332 -0.0964184 0.0421163 0.326111 -0.435452 -0.267905 -0.630583 -0.209049 0.417473 0.121571 0.28422 0.489648 -0.190556 0.813301 -0.230028 -0.482466 0.685329 -0.320295 -0.910906 -0.492023 -0.1339 -0.185593 -0.522416 0.143181 -1.00016 -0.116266 0.783671 -0.491451 0.560528 -0.0620244 -0.569992 -0.356526 -0.702089 -0.656664 -0.616785 -0.713163 -0.0587964 -0.332844 0.62765 -0.942013 -0.828106 0.871808 -0.195828 -0.627073 -0.628983 0.45209 -0.109816 -0.242442 0.0705742 0.719952 -0.479247 0.873952 -0.599296 -0.502053 -0.141153 -0.353772 0.843611 0.443858 0.359214 0.230454 0.320694 0.433419 0.27607 0.898033 0.282307 -1.03943 -0.104339 0.155968 -0.70632 0.338921 0.500298 -0.750466 -0.0447312 -0.188593 0.541784 0.200444 0.284906 0.806279 0.635358 0.312422 0.645194 -0.0373319 -0.290092 0.0958298 0.94941 -0.228351 0.663154 -0.693284 0.22273 0.810789 -0.260888 -0.0702752 0.485604 -0.783247 0.954696 0.623556 0.377016 0.516997 0.725271 0.98027 0.444388 -0.407389 -0.178855 -0.678584 -0.364477 0.479273 -0.752063 0.570508 -0.981221 0.463238 0.614779 -0.954467 -0.533531 -0.827925 0.828054 0.206374 0.366481 0.0420101 
-0.665483 0.35563 0.943745 -0.459358 -0.800081 -0.188976 -0.136018 0.922787 -0.786894 -0.558944 0.704969 0.187068 0.780555 -0.125433 -0.328452 0.239542 -0.856753 -0.434697 0.244138 -0.0562093 0.58946 0.706905 0.753516 0.694734 -0.968554 0.019191 0.0604468 0.463906 0.0882882 -0.689059 -0.235822 -0.0691786 0.676145 0.895544 -0.30723 0.497118 -0.424683 0.76499 -0.97856 -0.515624 -0.516047 0.66268 0.881516 -0.0759049 0.8947 0.570639 -0.8001 0.0546379 -0.101602 0.834741 -0.841641 1.00153 0.813234 0.471655 -0.000137865 -0.719164 0.568489 -0.679996 -0.0602188 0.477014 -0.729322 0.148973 0.260254 0.0488022 -0.800624 -0.134016 -0.711642 0.131161 0.0688462 -0.947603 -0.888376 -0.62211 0.282039 -0.11886 0.482567 0.537302 0.227603 0.901606 0.354618 -0.262001 -0.221274 0.625861 0.509905 0.663029 -0.47593 0.399897 0.90486 -0.58952 0.655713 1.0691 0.085742 0.0972948 0.965866 -0.616063 -0.601859 0.330122 -0.112874 0.0694439 0.793947 0.816592 -0.799646 -0.285176 -0.454638 -0.0186486 -0.226024 -0.154857 0.518969 0.336064 -0.783237 0.662726 0.229848 0.972822 0.789457 -0.936428 -0.181058 0.524447 -0.503836 0.350945 -0.30351 0.264659 -0.50651 0.361837 -0.979565 -0.525227 0.700685 -0.0408525 0.41837 0.252861 0.478547 0.861217 0.809311 0.435309 0.611736 -0.233772 -0.929627 0.035706 -0.490417 0.628233 -0.441232 -0.733363 -0.456139 -0.472258 0.209053 -0.0691651 0.115123 -0.884071 0.486434 -0.0450946 0.287977 -1.1435 -0.735138 0.273175 -0.936963 0.187788 0.590625 0.547743 -0.0664067 -0.0246089 -1.09515 0.39323 -0.024515 0.135568 0.598908 -0.208197 -0.412058 -0.59651 -0.756313 -0.463672 0.573147 -0.963862 -0.849309 0.789057 0.884715 0.839662 -0.94163 -0.819435 0.39993 -0.0835852 -0.607574 -0.399537 -0.897042 0.994652 0.251322 0.249663 -0.540254 0.6382 0.187049 -0.999278 0.652029 -0.0507242 -0.879467 0.819528 0.246723 0.478882 -0.0770615 0.737634 -0.582868 0.818029 -0.612219 0.768302 0.513705 0.592533 -0.433024 0.642325 -0.973681 -0.366307 -1.00652 0.651288 -0.92564 0.812306 1.42372 1.09868 0.79679 0.0752251 0.884259 0.838678 -0.0190092 0.748865 0.765069 0.642383 0.798544 0.200117 0.149208 -0.456836 0.166464 -0.443418 0.826539 -0.347878 0.0782706 0.0182262 0.54318 0.0102692 -0.864349 -1.35835 -0.314921 -0.0294429 -0.208438 0.250305 -0.0324822 0.544433 0.466817 0.441512 0.432482 -0.542187 -0.387731 0.667423 0.599057 -0.852563 -0.333349 0.0538195 0.805992 -0.528024 0.878012 0.892784 -0.101668 1.05548 0.449218 -0.742775 -0.808036 -1.00531 -0.554814 -1.42108 0.379559 0.483584 -0.0622861 -0.599361 -0.163534 -0.0727569 0.617781 -0.622174 0.352958 0.161381 -0.782384 0.604586 -0.0671179 -0.512809 0.145717 0.272155 -0.0799873 0.723374 0.184224 0.00310416 0.893028 -0.637704 0.392769 0.0950914 0.705099 -1.06296 0.383142 -0.372991 -1.03194 0.623995 -0.195829 -0.253642 -0.0894491 0.700765 0.887509 0.908356 0.770862 0.139276 0.483143 -0.415626 0.0525761 0.199148 0.408136 -0.143185 -0.664093 0.60873 0.438069 0.407505 -0.415588 0.482789 -0.620004 0.308974 -0.665342 -0.986029 -1.05954 -0.1489 -1.3198 -0.0732483 0.258916 -0.277425 0.477103 -0.867029 0.339372 0.432689 0.803862 0.360545 -0.10007 0.681729 -0.463537 0.809842 -0.37656 1.03917 0.463249 0.282704 0.869494 0.920475 0.0602667 1.03911 -0.408537 -0.647123 -0.352961 -0.893788 0.521632 -1.17321 -0.74604 -0.158023 0.0916644 -0.286735 0.571849 -0.543667 0.664831 -0.613006 1.02193 -0.148546 0.761398 0.361657 -0.575869 -0.122366 -0.154711 0.702566 0.297927 -0.889625 -0.303889 -0.0657816 -0.0688559 0.100508 -0.151102 0.371399 0.429846 -0.728129 -0.409831 -0.427657 0.478597 0.71724 -0.223018 0.0264251 -0.0825997 0.833083 -0.760603 0.752862 -0.299805 0.589044 0.0582049 -0.267838 0.541329 0.979449 0.000970259 -0.543419 0.311398 0.207402 0.786333 0.0764749 0.675978 0.364155 0.373626 -0.192741 -0.0104689 -0.489172 -0.356628 -1.119 -0.672506 0.896154 0.0173939 0.659991 0.468389 -0.522903 -0.218551 0.785466 0.324151 -0.0977831 -0.0509735 -0.500061 0.649697 0.530446 0.0869489 0.433238 -0.6266 -0.403821 0.72883 0.210718 0.221133 -0.601434 0.647193 -1.01306 -0.780944 -0.928363 0.36055 -0.928494 -0.36178 -0.566962 0.0532695 0.083957 -0.0564563 0.133044 -0.000728282 -0.556719 0.251996 -0.48311 -0.385665 0.914822 0.297285 -0.653943 0.6986 -0.312809 0.988869 -0.376254 0.383318 -0.362162 -0.463455 0.775243 0.16014 0.414217 -0.633888 -1.1228 -0.615659 -0.0700303 -0.776358 -0.642188 -0.0788916 -0.327382 -0.396803 0.393029 1.0597 -0.294363 0.0711655 -0.708542 0.511004 0.985442 0.378958 -0.595975 0.618829 0.436272 -0.575254 0.47143 0.0683319 -0.437222 0.625055 0.18785 0.787956 -0.0764383 -1.12136 0.676803 -0.725375 0.0716607 0.437222 0.59022 0.785886 -0.0779724 -0.356357 0.0630477 1.11583 -0.101112 -0.201729 -0.279726 0.021767 -0.626907 0.145542 0.741402 0.709391 0.190425 -0.724069 -0.0850876 -0.928419 -0.499758 0.181614 0.535062 -0.221873 0.385907 0.225725 -0.812365 -0.533664 -0.3097 -0.123985 -0.798629 -0.661285 0.112697 -0.76589 0.61281 0.41973 -0.354905 -0.268832 0.730017 -0.338017 0.236943 0.20472 0.95539 -0.496319 -0.552171 -0.243649 0.851223 0.8101 0.233909 -0.916741 0.803037 0.701617 0.145436 -1.2255 -0.876949 0.602503 0.196677 -1.23038 -0.807069 -0.685864 -0.816247 0.816402 -0.528926 1.26621 -0.603748 0.199681 0.873104 -0.19238 -0.347927 -0.830732 0.162707 0.302781 0.240871 -0.64273 -0.577376 0.690686 0.60382 0.351849 0.373809 -0.976814 0.602399 0.270581 -0.876183 -1.09768 0.584834 -0.604149 0.21499 0.818681 -0.506442 1.22946 1.0118 0.092346 0.0049113 0.0760522 0.328775 -0.655905 0.666206 0.412843 0.519444 -0.248995 -0.783854 0.0667626 -0.818701 -0.332011 0.184535 0.648123 0.751993 -0.983743 0.129782 -0.797072 0.817809 -0.00456261 -0.859786 -0.548788 -0.798928 0.0727339 0.566865 0.600859 -0.286887 0.113359 -0.690322 0.589219 0.435287 0.577416 -1.08678 0.565066 -0.516719 -0.0582731 1.02371 0.783352 0.990813 0.736618 0.482539 -0.253825 -0.736711 0.214708 -0.649926 -0.514202 -0.0237609 -0.0279525 -0.642933 0.18453 0.700107 -0.632913 0.235388 0.654311 0.249413 -0.17967 -0.00101813 0.269124 -0.180413 0.407215 -0.248545 0.34842 -0.716955 0.887377 0.60001 0.263985 -0.123058 -0.995471 -0.166746 0.620496 -0.458205 -0.646835 -0.256679 0.00323563 1.06244 -0.290543 -0.508922 0.922142 0.965483 -0.337337 0.483088 -0.557925 -0.386508 -0.583164 -0.585007 -0.341291 -0.997779 0.326464 -0.179725 -0.294205 -0.588181 0.613822 0.10543 -0.712376 0.784081 -0.232297 -0.334504 -0.408156 -0.0495104 -0.569268 0.844516 0.367542 0.725263 -0.795863 -0.450641 -0.647297 0.791912 -0.271673 0.547368 0.672429 0.756436 0.849863 -0.42292 -0.244569 -0.686876 0.772944 -0.0162862 0.0797019 -0.253415 0.104586 0.0446707 -0.444555 -0.929128 0.0399219 -0.0603969 -0.589347 -0.823642 -0.720349 0.556228 -0.28259 0.868476 -0.257752 0.336925 0.642259 -0.609081 0.403887 -0.32307 0.506055 -0.748838 0.600476 -0.294873 -0.468091 -0.818061 -0.860638 -0.79925 0.51395 -0.988922 -0.562919 0.336087 0.808146 0.549037 0.784117 0.700357 -0.824798 -0.776333 0.442035 -0.0653103 -0.356586 -0.412554 0.714643 -0.951551 -0.136056 -0.139143 0.502765 -0.850571 0.176155 0.867703 0.153316 -0.838559 -0.76724 0.730037 0.882913 0.00878329 0.779762 -0.482411 -0.155043 0.263662 -0.0351991 -0.776192 -0.535707 -0.143678 -0.0311738 0.0260043 0.494926 -0.134389 -0.858471 0.441123 0.183114 -0.849246 -0.957934 -0.369598 
-0.131221 0.855758 -0.0613727 0.980867 -0.0561834 -0.0157146 0.0848922 -0.726071 -0.648665 -0.443017 -0.663502 0.0676312 0.110569 -0.117015 -0.984589 -0.166105 -0.698395 0.42675 -0.194676 -0.722335 0.207775 -0.533189 -0.555276 0.764681 -0.296789 -0.871773 0.353647 -0.863551 -0.744067 -0.755904 -0.428266 0.953098 0.735821 -0.054067 0.389323 0.0653626 -0.375327 -0.2141 0.157061 -0.30332 -0.0295799 0.951743 -0.634462 -0.321664 0.400996 -0.924447 0.129194 0.128716 -0.531231 -0.988581 0.953577 -0.279243 -0.127059 -0.891448 -0.905526 0.122535 -0.10664 -0.530594 -0.195737 0.840808 0.0518203 0.362457 -0.00282649 0.930748 0.0417201 0.953664 0.172816 0.669213 0.57801 -0.631996 -0.348607 0.792952 1.00668 -0.839944 0.105521 -0.887813 -0.138649 -0.671671 0.831747 0.35075 -0.873133 -0.0992991 -0.251636 -0.0851768 0.221065 0.885884 -0.616159 0.872239 -0.0846382 0.230814 -0.472551 -1.06851 0.183841 -0.93621 0.285418 -0.573752 -0.0662945 0.221738 1.14404 0.605801 -0.593606 0.383407 0.701097 -0.178358 -0.462339 -0.144333 -0.229369 0.368013 -0.464065 -0.720249 -0.299491 -0.502004 0.0459121 -0.553316 0.127341 0.0927159 -0.129362 -0.918429 0.808349 0.628724 -0.79267 0.00825577 0.237432 -0.527507 0.0414642 -0.127341 1.00975 1.04694 0.461087 -0.710723 -0.396083 -0.212813 -0.809977 -0.393051 1.00121 0.718826 0.7014 0.335711 0.928608 -0.62437 0.601894 0.721653 -0.390941 0.029149 -0.917301 0.0253955 -0.233717 -0.547086 -0.963737 -0.38991 0.440088 0.754667 -0.0533249 0.259413 1.51056 -0.237328 -0.395689 0.382181 -0.64053 -0.740012 -0.796853 0.349314 -0.0595043 -0.288975 0.165131 0.526077 -0.141037 -0.258999 -0.69664 -0.568651 0.776889 0.197351 0.251606 -0.889983 -0.114352 -0.0548907 0.294842 0.756682 -0.285528 -0.438373 1.03679 1.01168 0.399258 -0.0979227 0.273208 0.200452 -0.667221 -0.00347426 0.16929 0.695949 0.997118 0.217947 0.165734 -0.362582 0.764175 -0.856803 0.342336 0.7795 0.794056 0.643126 -0.813585 0.337998 -0.773465 0.21658 -0.569638 -0.549983 0.505847 0.544257 0.530953 1.21879 -0.430324 0.973796 0.622936 -0.862662 -0.565098 -0.0683905 -0.402151 -0.128503 -0.169586 -0.343752 -0.680822 0.170903 0.939713 0.191399 -0.360778 0.637539 -0.255401 0.582113 0.438005 -0.210947 -1.16282 0.773127 -0.0966071 -0.209324 0.466234 0.798043 0.970904 -0.0846688 0.512214 0.0159611 -0.281418 -0.340844 -0.126519 -0.291141 -0.712528 -0.113351 -0.640292 0.438745 0.663684 0.558646 0.314361 0.164972 -0.678682 0.332114 0.828968 -0.80138 0.365911 0.602716 -0.11137 -0.405664 0.830951 0.386633 -0.0377519 -0.41023 -0.257839 -0.656385 0.523586 0.745177 -0.14325 -0.606289 0.357871 0.39214 -0.106845 -0.00971821 0.775779 -0.0958376 0.527843 -0.913764 -0.507629 -0.840766 -0.252955 -0.442568 -0.764181 1.01411 0.831059 -0.610205 -0.555737 -0.611302 0.129143 -0.00259826 0.287841 0.391433 0.175222 0.558862 0.961067 -0.491074 0.26663 0.694223 -0.883369 -0.201249 0.291887 -0.187583 -0.429598 -0.349303 0.84017 0.294863 0.501476 -0.10584 0.658834 0.985894 -0.167763 -0.751245 -0.416303 -0.439681 -0.805609 -0.0173428 0.547851 1.10467 -0.0685347 -0.13516 -0.123915 0.676395 0.671646 -0.808859 -0.485861 -0.4704 -0.440042 -0.748269 0.921048 -0.789686 0.587402 0.0289574 -0.0925121 -0.728067 0.95952 0.896934 -0.16766 0.879911 -0.580595 -0.63234 0.033375 0.734968 0.761523 -0.799254 1.01091 0.804802 0.938613 -0.285624 0.668226 -0.384121 -0.26931 0.511196 0.891707 -0.877691 -0.895029 -0.161185 0.387158 0.0654689 0.371065 -0.443926 1.15589 -0.51033 -0.111694 -0.67977 0.227792 -0.753457 0.259731 -0.666104 0.0394479 0.0562447 0.516788 -0.401109 0.659714 -0.179283 1.21662 0.546495 0.192773 -0.952406 0.130389 0.176792 -0.315577 0.303628 -0.303941 -0.0887223 -0.714819 -0.850144 0.440589 0.0950635 0.513879 0.352086 0.786193 -0.0485068 -0.310239 0.850828 0.919596 -0.71087 -0.310753 -0.525783 0.712851 0.489253 -0.573255 -0.210328 0.413451 0.293572 0.221497 0.402917 1.13711 0.164088 0.33031 -0.440061 -0.966352 -0.938127 0.437695 0.3983 0.285688 -0.481757 0.847603 -0.037679 0.861921 -0.842687 0.28357 -0.254627 0.280125 0.436699 -0.447206 -0.383862 -0.254358 -0.484186 0.50612 0.616317 0.540329 0.913377 0.312451 -0.0396527 -0.399251 -0.2613 -0.481556 -1.16648 -0.757691 0.503416 0.51245 -0.410993 -0.818918 0.931979 -0.223527 0.108297 0.14141 0.734338 0.503672 -0.072758 -0.108398 0.484777 -0.355889 0.337453 -0.863246 0.880368 0.845965 0.235593 0.949829 1.06938 -0.144052 1.26388 0.285831 -0.209014 -1.15136 0.214408 -0.342536 -0.408193 0.447601 0.460678 -0.69307 0.528073 0.909317 -0.661732 -0.690395 0.649877 -0.930089 0.577661 -0.307954 -0.188297 -0.914059 -0.0752486 -0.402393 0.17637 -0.00903329 -0.387996 0.271879 0.833621 -0.00232987 -0.240475 0.346016 0.123404 -0.506959 -0.14101 -0.733953 -0.523565 -1.08498 -0.145645 0.863846 0.949678 0.0817326 0.576746 0.983621 0.806406 -0.132703 0.839346 -0.961825 0.765065 0.307294 -0.589342 -0.111992 0.531183 -0.675513 0.244694 0.29297 0.242303 -0.514412 -0.321624 -0.29569 -1.23168 0.0682472 -1.49014 0.175035 0.00828735 -0.360742 -0.627365 -0.213962 -0.621844 -0.528337 -0.61555 1.00307 -0.274118 -0.831937 -0.526289 -0.166108 0.464443 -0.142101 0.371351 0.691156 -0.118404 0.699283 0.327617 1.23498 -0.671528 -0.564394 0.19778 -0.274152 -0.404587 0.0150596 -1.41699 -0.981271 0.765231 -0.00679971 0.358805 0.0594543 -0.169806 0.541368 -0.684242 0.51811 0.189371 0.415071 -0.461362 -0.0786488 0.683564 -0.818322 0.670233 -0.374608 -0.335679 0.833326 -0.444259 0.859212 -0.326749 -0.269878 -0.218615 -1.26076 0.375806 -0.246993 -0.84893 0.0582503 -0.0751059 0.0763877 0.594684 0.0392874 0.703124 -0.130725 0.404752 0.845121 0.406204 0.0833059 0.608758 0.444774 -0.9269 -0.35371 0.670944 -0.532887 -0.770979 -0.357419 0.433305 -0.0316082 -0.510897 -0.889061 0.475678 -0.90976 -0.745261 -1.4467 -1.35739 -0.701644 -0.0854816 -0.950244 1.02338 0.276699 -0.047756 -0.532373 0.726855 -0.61618 -0.806579 0.918868 0.623321 -0.479578 0.253191 -0.458846 -0.724954 -0.619295 0.123999 0.739365 -0.716853 0.379336 -0.119432 -0.713654 -0.657003 0.01461 -1.01446 -0.31777 -0.218596 -0.559892 -0.994725 -0.209754 -0.634849 -0.119164 -0.541354 0.754743 0.317887 -0.056329 -0.0315226 0.371874 0.485611 -1.03693 0.458329 -0.298411 -0.767284 0.463283 0.161225 0.801535 -0.782196 0.346919 -0.453331 0.0355328 -0.94652 0.476165 -0.994864 -1.20399 0.467178 0.17069 -0.857339 -0.34164 -0.287201 -0.0955488 -0.270424 -0.876533 0.655295 0.320961 0.799272 -0.805129 0.693016 -0.91399 -0.556236 0.878399 -0.548069 -0.836231 -0.79518 -0.916764 -1.00077 -0.0104719 -1.0199 0.880247 -0.479604 0.737553 0.530682 0.228065 -1.16415 -0.374038 -0.79913 0.062775 -0.216942 0.420526 -0.214607 0.949551 0.837944 0.962149 -0.820971 -0.997527 -0.620195 -0.415464 -0.407503 -0.787532 -0.964376 0.0792767 0.449114 0.369677 -0.941472 0.70585 -0.0425951 -0.703239 -1.02539 -0.424864 -0.257167 0.736695 -0.901413 -0.344843 -0.315577 0.420324 -0.771658 -0.0147614 -0.367765 0.736881 -0.35148 -0.301104 -0.128285 0.745573 0.661673 -0.533044 -0.285439 -0.511719 0.201735 -0.780237 -0.964435 -0.916126 -0.253169 -0.310505 -0.92919 0.655123 -0.794092 0.779843 -0.2787 0.732144 0.853864 0.792872 -0.653698 0.541418 -0.69081 -0.816397 -0.626957 0.685292 -0.245545 0.916425 -0.766224 0.565685 0.413018 0.876943 0.73376 0.823154 0.875808 -0.216751 -0.371471 -0.17586 0.248582 -0.220739 0.252738 
-0.448352 -0.702116 0.0225745 0.467907 0.68555 -0.225648 -0.850019 -0.489996 0.84952 -0.984604 -0.729997 -0.758526 -0.111598 0.780982 -0.263673 -0.130666 -0.307563 -0.432861 -0.0329228 -0.844847 -0.162798 0.855789 0.50208 -0.452479 0.792723 0.883017 0.575885 0.9801 -0.22252 -0.04639 0.825397 -0.940771 -0.380165 -0.220296 0.931293 0.00338357 -0.0327423 -0.731552 -0.707201 0.669697 -0.606291 0.0786311 0.79204 -0.526811 0.430236 -0.935071 0.907351 0.63915 0.306982 -0.648707 -0.777879 0.332393 0.23948 -0.517289 0.343285 -0.857957 -0.822117 0.913122 0.86329 -0.688422 -0.901786 0.366132 -0.985499 0.114523 -0.0465883 0.0266989 0.262021 -0.352763 -0.724175 0.538011 0.314676 0.531321 0.805791 0.672605 0.43687 0.542151 -0.86858 -0.0179281 -0.0763565 -0.373426 0.912424 0.303301 0.564224 0.369652 -0.677095 0.082586 -0.0758548 -0.584124 0.356481 0.824247 -0.839993 -0.634433 -0.745753 -0.656883 0.230677 0.121938 -0.170845 0.234383 0.830866 0.429107 -0.315629 1.04116 0.257341 -0.488304 -0.183897 0.689759 -0.307485 0.0153754 0.23852 0.767381 -0.596784 -0.531241 0.165457 0.443273 0.00389002 -0.343874 0.791841 0.583851 0.177498 0.213607 0.534855 0.716683 -0.247841 1.0166 -0.0231778 -0.160074 1.07457 0.234905 0.115584 -0.224263 0.706187 -0.285617 0.614376 -0.0395595 -0.912101 -0.250862 0.418343 -0.734965 0.936746 -0.853982 -0.562616 0.313825 0.130999 0.893757 -0.613876 -0.514026 0.290744 0.701418 -0.625884 -0.891906 0.999218 0.398202 -0.119566 -0.438342 0.0352349 0.996131 -0.48675 -0.355025 0.30625 0.461951 -0.50722 0.307249 -0.669976 -0.614639 -0.208849 0.514126 0.660484 -0.757687 -0.898915 -0.300666 0.290707 0.943573 0.183963 -0.0880249 1.00387 0.62625 0.622267 0.454821 0.193913 0.337343 1.10882 0.339187 -0.0774659 0.608877 0.791213 -0.841698 -0.551173 -1.1063 0.0349489 -0.227594 -0.701985 -0.234644 0.693521 -0.925361 -0.652423 0.0339292 -0.36132 -0.050418 -0.0372299 -0.10576 -0.449293 -0.365098 -0.532673 0.303358 -0.856052 -0.443931 0.988687 0.882025 -0.0754619 0.685813 0.690985 0.978655 0.302835 0.130269 -0.464806 -1.01362 -0.423442 -0.337568 -0.574258 -0.721198 0.00707055 0.130919 0.0958598 0.81558 0.289473 0.800296 -0.14111 0.814246 0.01814 0.279298 -0.316797 0.655366 0.697577 -0.0544624 -0.292689 -0.744077 1.05956 1.28777 0.434754 0.889163 -0.740406 -0.240584 -0.31222 0.150495 -0.930675 -0.770516 0.895718 -0.871211 -0.373063 0.866251 0.244448 -0.518469 0.169313 0.388885 -0.663578 0.717634 0.735263 -0.616095 0.803581 0.596245 0.128949 -0.195574 0.84716 1.0918 1.17418 0.87427 -0.294319 -0.496758 -0.70775 0.588055 -0.984223 0.239966 0.920558 -0.143333 0.425378 0.585723 -0.0412016 0.542055 -0.0731924 0.205563 0.663687 -0.634141 -0.656484 -0.213268 0.599342 0.230798 -0.00248324 0.429183 -0.841065 -0.531734 0.751584 0.969015 -0.1524 -0.3826 0.981467 1.09575 -0.487024 -1.02732 -1.0969 0.0402104 -0.638988 0.269938 -0.601186 -1.04708 0.431056 0.291306 -0.203795 -0.210664 -0.414053 -0.888788 0.17499 -0.300085 -1.0555 0.245118 0.146937 0.336684 -0.805797 -0.287636 0.363484 -0.310325 1.10105 1.08372 1.15153 0.706981 0.0325111 -1.01544 -0.35473 -0.0607222 0.0807498 -0.205218 -0.352201 0.741675 -0.828861 0.0335428 0.22763 0.742144 -0.0470542 0.613513 -0.0559261 -0.758485 -0.96624 -0.434234 -1.05652 0.715516 -1.03561 0.52718 0.0280684 0.775923 -0.202729 0.313887 0.0988795 0.774394 -0.319458 -1.02712 0.0820874 -0.336185 -0.556298 1.04906 0.181371 -0.211748 -0.445679 -0.560478 -0.40805 -0.399327 -0.416469 0.238104 0.126653 -1.02038 0.625088 -0.0847076 -0.687388 0.955884 0.646117 -0.977453 -0.215517 -0.673408 1.11908 0.598074 -0.829094 -0.143319 0.0118718 -0.621983 -0.726198 0.308932 -0.10721 -0.0842448 -0.306558 0.54345 0.779145 0.368953 -0.432421 -0.973038 -0.250542 0.49435 0.69585 -0.779795 -0.779658 0.302577 0.710776 0.858208 -0.349816 -0.639525 -0.363031 -0.395439 -0.421686 0.478069 0.49831 0.335894 0.301059 -0.308721 -0.768658 -0.752368 -0.938109 -0.829656 -0.505511 0.0659848 -0.914032 0.311916 -0.491637 -0.277121 0.272789 -0.461287 0.507356 -0.977995 -0.9888 0.422096 0.129942 -0.00970656 -0.522138 -0.999987 0.529799 0.567148 0.701756 -0.37539 -0.195812 -0.117847 -0.658467 -0.596783 0.032724 0.685096 -0.97964 -0.343955 0.605168 -0.882649 -0.16996 0.627625 -0.0528502 0.36613 -0.984278 -0.378258 -0.568083 -0.129345 -0.939092 -0.745271 0.523371 -0.865418 0.41683 -0.934081 0.467915 -0.967894 -0.0572478 -0.514011 1.00354 -0.534665 0.612353 0.463017 -0.502256 -0.60539 -0.497546 0.22359 -1.21787 0.697044 -0.0180713 -0.898336 0.407549 0.757942 -0.832023 0.208762 0.837438 -0.585882 0.16174 -0.350233 0.362214 0.101555 -0.504605 0.130838 0.126575 -0.396387 -0.419307 0.130196 1.07617 -0.666998 0.437527 -0.235345 -0.551251 0.600076 -1.06936 -1.06002 -1.05276 0.309025 0.0238544 -0.745788 -0.484574 0.670577 -0.0400029 0.826698 -0.500036 0.592706 0.464811 0.644676 -0.211118 0.0989327 -0.728956 -0.0427199 -0.353102 -0.608328 -0.0370336 -0.637358 -0.265423 -0.394438 0.413473 -0.648336 -0.554208 -0.193206 0.465954 -1.01019 0.253953 0.455498 0.123467 -0.831767 0.0859118 0.794571 0.984418 -0.276545 0.733483 -0.659067 0.931423 0.372674 0.297795 -0.953616 -0.865958 -0.28021 -0.735407 0.570905 -0.520192 0.621633 0.549871 -0.773151 0.649633 0.169613 0.313523 0.596512 -0.0651015 0.511066 -0.435801 0.320016 -0.863001 -0.891416 0.181546 -0.459466 -0.803957 0.644568 -0.427659 -0.470526 -0.495746 -0.881744 -0.479927 0.489347 -0.416942 -0.232976 -1.02107 0.629361 0.644718 0.829681 -0.295013 0.909086 -0.608132 -0.822579 0.282168 -1.15329 -0.743865 0.12304 -0.332066 0.712791 0.0638081 -0.803611 0.993213 0.751838 0.613336 0.767061 0.374467 0.630729 0.240082 0.35494 -0.716312 0.8115 -0.209342 -0.46539 -0.691284 0.386299 0.425065 -0.0970102 -0.91233 -0.306746 0.75023 -0.526364 0.606815 0.509602 0.673769 0.467471 -0.498673 -0.482483 0.748826 -0.674767 -0.816952 0.014424 -0.48745 -0.603027 0.120869 0.905037 -0.636036 -0.854295 -0.268221 0.069565 -1.02174 -1.3512 -0.592507 -1.20082 -0.349001 0.869666 0.628117 -0.737517 -0.245238 0.151073 -0.846526 1.1479 0.919856 -0.332571 0.727902 -0.0475866 -0.910933 -0.479879 0.844921 0.815476 0.526681 0.657654 -0.836173 0.531296 0.820153 -0.99586 0.0721267 0.0298828 0.391483 0.0822241 -0.131176 -0.492533 0.496849 0.00287797 0.194492 0.706117 -0.45719 -0.698182 -0.537262 0.832253 -0.458427 0.517107 0.793478 -0.581672 -0.511826 0.880988 0.310677 0.301815 -0.0363642 0.833866 -0.866798 -1.03852 0.154347 0.718318 0.333091 -0.699909 -1.2267 -0.483697 -0.303709 -0.217526 -0.787207 -0.436879 0.373939 0.14486 0.309365 -0.608256 -0.465346 -0.568059 -0.50265 -0.535242 0.0276363 -0.106976 0.913697 0.938715 0.664776 0.472362 -0.961925 0.895799 0.161399 0.262981 0.40107 -0.986197 0.0833679 -0.117781 -0.682555 -0.561972 -0.800353 0.324984 -0.240609 -0.00903108 -0.0677162 -0.399842 -0.315727 0.47446 -0.457523 0.0830212 0.51653 0.258833 -0.933548 -0.718188 0.417507 -0.653951 -0.971262 0.700014 0.039794 -0.270221 0.999469 -0.0465746 -0.801478 0.302468 0.0669439 -0.0363941 0.359999 -0.244192 0.671373 0.781394 0.185154 -0.70561 -0.709655 -0.637495 -0.796088 0.0503611 -0.774384 -0.676017 -0.623568 0.878952 -0.966822 0.579462 0.725642 -0.551855 0.301933 -0.377758 0.836615 0.0607229 -0.0575032 0.478941 -0.77895 -0.23166 0.849289 0.171151 0.740864 -0.899734 -0.943431 -0.0124842 
0.926001 0.754157 0.583229 0.959054 0.00219135 0.164857 -0.684886 0.14025 -0.901459 0.303468 0.326398 -0.772186 -0.369503 -0.705176 0.842804 -0.651396 -0.767442 0.354225 -0.582531 -0.820616 0.426234 -0.33029 0.719514 -0.508314 0.677624 0.949107 -0.982154 -0.809465 -0.673987 0.305232 -0.911277 -0.516845 -0.395326 -0.633325 0.461679 -0.799623 -0.0220198 0.17459 0.571658 0.641686 0.782925 -0.32032 0.377355 -0.441867 0.328038 -0.226636 0.0254429 0.893817 0.926458 0.420153 0.767242 -0.0892345 0.781238 0.049726 0.165246 0.175766 0.132785 -0.63763 0.414726 -0.297479 -0.0236337 -0.903017 0.31339 -0.289114 0.433147 -0.3996 0.397944 0.153621 0.159517 0.479173 0.209259 -0.235672 -0.367062 0.131209 -0.317621 -0.299396 -0.127837 0.393 -0.604051 -0.855395 -0.077361 -0.862127 0.282587 0.333593 0.953757 -0.548236 0.766601 -0.708437 -0.773241 0.987947 0.249028 0.406915 0.237599 0.198032 0.749841 0.590796 0.449191 -0.102599 0.00625939 1.02226 0.0920117 0.766284 0.736767 0.89599 0.473578 -0.471883 -0.140003 -0.771883 -0.380102 0.898528 0.647551 -0.464893 0.204201 0.105902 -0.875226 0.361508 0.170144 0.614188 0.914241 0.661397 -0.856481 -0.0801864 0.638471 -0.650326 -0.806717 -0.599395 0.946332 0.557354 -0.612261 1.00396 -0.142524 -0.470081 -0.402745 0.900404 0.853765 0.371789 0.562999 0.587153 -0.345967 -0.698904 0.61318 -0.4352 -0.713776 0.940389 0.809154 -0.767039 -0.660544 -0.596295 0.329698 -0.369482 0.381732 -0.79907 -0.510307 -0.46569 0.883548 -0.0453539 0.586867 0.887158 0.041721 -0.618722 -0.224454 0.194583 0.495653 -0.637982 0.897162 -0.41338 0.900671 0.263201 0.709807 -0.712419 -0.441477 0.629838 0.861452 0.453255 -0.0969844 0.389774 0.0762109 1.09312 0.371173 0.0458194 -0.820849 1.06992 0.935672 0.762543 1.10748 -0.204808 -0.178103 -0.627753 0.266619 -0.22341 0.376284 -0.206368 -0.876284 -0.457995 0.5665 0.483522 -0.0875996 -0.709228 -0.0694618 -0.885228 -0.151076 -0.659619 -1.03832 -0.38078 0.216843 0.294843 1.03369 -0.657966 -0.540117 0.842464 -0.397515 0.704171 -0.356712 0.288102 -0.703588 0.0739467 0.853681 -0.173653 0.838072 0.993533 -0.0460993 0.94539 -0.711521 -0.638201 -0.0943916 -0.204134 0.118293 0.736896 -0.534902 -0.0618399 -0.557496 0.0557985 0.564828 0.891941 0.61812 -0.521526 0.141797 0.0609293 0.505426 -0.446846 -0.521797 0.975659 -0.865803 -0.411069 0.257195 0.355486 -0.713481 -0.584923 0.088331 -0.291276 -0.694135 -0.123883 0.968497 0.876523 -0.64909 0.22911 -0.28643 -1.00678 0.589568 0.135814 -0.442936 0.432935 0.30465 -0.746551 -0.733454 -0.583053 -0.847063 0.966857 -0.86873 -0.729079 -0.141531 0.396107 -0.648758 -0.331101 -0.665698 -0.0305027 0.794929 -0.620749 0.685847 0.83978 -0.0643964 0.321024 0.824665 0.320329 -0.419026 -0.481786 0.471742 0.790553 -0.72797 1.0005 0.563466 -0.660367 -0.694238 -0.327065 -0.947121 0.617574 0.521158 0.00138496 -0.655936 0.49143 0.710027 0.889296 -0.0106892 -0.127447 0.131474 0.513816 -0.0433752 0.0208369 0.948325 0.783557 0.686785 0.507097 -0.765389 -0.951572 0.63897 -0.118653 -0.6954 -0.539949 0.176283 0.428224 0.944633 0.103034 0.80285 -1.02947 0.906645 -0.164597 -0.621373 -0.712341 0.604235 -0.263049 0.863931 -0.486021 0.633953 -0.810571 -0.149144 -0.31259 -0.0648285 -0.136353 0.698848 0.261593 0.915111 0.649918 0.437472 -0.0448718 0.118376 -0.397418 -0.584704 -0.510973 1.08217 1.04089 0.304406 0.777146 0.780905 -0.381335 0.847517 0.616724 -0.68984 -0.724345 0.0394042 0.0385214 0.415835 0.593085 -0.249989 -0.47828 -0.0710609 -0.376977 0.781819 -0.82124 0.0691406 -0.249825 0.897248 -0.555194 -0.328117 0.636885 0.652987 -0.0487266 -0.842439 0.0806482 0.716154 -0.789283 0.612814 0.00571104 -0.214339 -0.785478 0.769086 -0.827077 -0.643287 0.684683 -0.424217 -0.368038 0.858066 0.459773 -0.0638185 -1.00016 0.889771 0.557034 0.965788 -0.169737 0.353566 0.670094 0.944176 0.714747 1.03621 0.397434 0.865152 0.937674 -0.112351 -0.565326 -0.561106 -0.12169 0.211243 0.432588 -0.0636051 -0.705304 0.734547 0.218018 -0.762748 0.359901 0.0392975 0.275791 -0.82903 -0.763342 0.0292114 0.9265 -0.915323 0.160159 -0.668331 0.320347 -0.737513 0.683825 0.195784 0.145763 -0.591207 -0.456948 0.795378 0.790157 0.289845 -0.651516 -0.833299 0.221828 -0.319288 0.35032 0.981562 0.216211 0.928344 -0.426097 -0.872804 0.613071 0.528174 0.0710583 -0.590516 0.518264 0.108281 -0.713653 -0.748264 -0.505454 -0.564969 0.615527 0.559763 -0.690998 0.478925 -0.206764 -0.913709 -0.142729 -1.05594 0.856765 0.581008 -0.234718 0.0676355 0.394286 -0.0753831 0.53473 -0.408935 -0.0265197 -0.189952 -0.298616 0.863653 0.424227 -0.339015 0.934438 0.427085 0.20479 0.214586 0.122494 0.567019 -0.340605 0.938943 0.940977 1.04269 0.864366 -0.323241 -0.610696 -0.917246 -0.163159 -0.474689 -0.775794 -0.570057 0.570019 -0.724062 -0.114036 -0.0978568 -0.413628 0.484972 -0.248197 -0.497209 0.669325 -0.17212 0.532249 -0.608588 -0.661691 0.613847 0.745634 0.958918 0.691549 -0.615342 0.0590065 0.769884 0.845461 0.744446 0.915717 0.603441 -1.01839 0.572037 -0.522471 0.938601 1.01911 -0.62616 -0.844875 -0.912511 0.622131 -0.374585 -0.965521 -0.88808 -0.702293 0.342982 0.795892 -0.643021 0.896681 0.564877 0.0290086 -0.688918 0.533302 0.305112 0.968263 -0.187817 0.92558 0.633479 0.300355 0.615851 -0.503727 -0.112167 -0.00676479 0.929683 -0.226877 0.546059 -0.0882298 0.792779 -0.371348 0.990992 0.381612 0.662448 0.0846934 -0.493015 -0.514653 0.800622 0.891332 -0.737179 0.75599 0.876143 0.942658 0.594696 -0.344459 0.11137 -0.903628 0.390398 -0.282596 -0.603004 -0.0596001 0.928918 -0.882153 0.767325 -0.892161 -0.429183 -0.229844 0.943088 0.579932 0.357708 -0.855963 -0.371903 0.0634045 -0.699846 -0.929655 0.811825 0.0753889 -0.205979 0.32203 -0.359115 -0.793989 0.85396 0.752398 -0.0680647 0.164139 0.723559 0.549209 0.759577 -0.357099 1.01503 0.967799 0.963914 0.611603 -0.742962 0.0910858 -0.75784 -0.93408 -0.96063 0.70499 0.693431 0.169049 0.368955 0.326563 0.718849 0.168092 -0.895122 -0.0967006 -0.90926 -0.473851 0.109992 -0.245157 -0.509784 -0.573037 -0.837116 -0.827693 0.154195 -0.0110088 -0.777094 -0.860096 -0.770814 0.632166 -0.6164 -0.380057 0.208152 0.54986 0.172914 -0.424608 0.279449 -0.636632 0.400043 0.381125 0.826201 0.720935 -0.914609 0.527455 0.323517 0.303832 0.00854799 0.920232 0.657645 0.214024 -0.564349 0.294424 -0.763197 1.00565 -0.0778801 -0.842599 -0.89074 0.255152 -0.699474 -0.847764 0.162603 -0.685994 -0.129613 -0.872999 0.12009 -0.677475 -0.0852827 -0.952274 0.336426 -0.191084 -0.225037 0.473746 0.190673 0.442657 -0.188695 1.00384 0.29736 0.814387 -0.291068 0.952684 -0.378079 0.284327 -0.61549 0.79361 0.0607625 -0.850213 0.996784 -0.358947 -0.0551072 -0.586164 0.258802 0.682758 -0.371719 -0.956101 0.139475 -0.200111 0.465139 0.170522 0.782577 -0.648477 -0.154313 0.898667 0.824513 0.973521 -0.50381 -0.214926 0.377514 -0.0483377 -0.467622 -0.221359 -0.812224 0.701409 0.0464868 0.829838 0.854491 -0.27231 -0.18948 -0.385278 0.668281 0.758527 0.506183 0.693628 -0.740397 -0.398365 0.211801 -0.924746 -0.16102 -0.830683 0.441135 -0.592349 -0.548524 -0.318688 0.711017 -0.71417 0.325852 -0.862817 -0.905682 0.00562407 -0.484871 0.970778 -0.901367 -0.995737 0.149969 -0.157036 0.482488 0.2121 0.538628 0.410034 -0.864487 -0.00639337 0.990441 0.373218 0.0528245 0.953675 -0.290819 0.273926 0.496281 -0.643317 0.345355 0.612278 
0.996832 -0.332745 -0.114061 0.868952 0.436805 0.222778 -0.640284 0.486386 0.543623 0.858363 -0.0785247 0.760397 0.738687 -0.662827 -0.0878601 -0.990187 -0.669777 0.278719 -0.657951 -0.702585 0.92085 -0.120801 -0.141165 -0.0699031 -0.681855 -0.26087 0.982706 0.43311 0.359624 -0.462934 0.204184 0.58767 -0.377793 0.710072 0.300203 0.116477 -0.788405 -0.925686 0.377888 0.399325 0.297643 0.300348 0.928767 0.929158 0.985833 0.353135 -0.216655 0.839029 -0.448667 0.636942 -0.0168765 -0.754909 0.431261 -0.285559 0.665282 0.85592 0.485793 0.00383144 0.497667 -0.081483 0.711711 1.00841 -0.0857899 -0.140839 0.160938 0.331639 0.949839 0.60861 0.83008 0.00524375 -0.614453 0.745505 -0.470458 -0.639725 -0.0593685 0.495403 -0.0471925 0.566172 -0.76979 -0.447349 0.606615 0.168192 -0.236273 0.687663 0.398554 0.965973 0.768413 -0.398532 0.32973 0.688363 0.319776 1.0619 0.31653 0.842549 1.20229 0.692948 -0.526212 0.237433 0.381585 1.0794 1.03642 -0.405074 0.453946 -0.245156 0.603325 0.0565808 -0.28096 0.0537887 -0.86692 0.314161 0.651902 0.76483 -0.538489 0.819811 -0.739889 0.117149 -0.428314 0.625664 0.619773 -0.0770883 -0.00790069 1.13945 0.916487 0.276412 0.446626 0.181421 -0.369361 0.736673 0.199117 0.608213 -0.0302528 -0.116293 0.788903 -0.179181 0.701093 0.213984 0.262929 -0.29579 -0.533592 0.182357 0.761351 -0.114846 -0.396766 -0.423956 0.642236 -0.72114 0.920869 -0.804125 0.618687 0.763633 1.00764 0.840088 1.03593 0.343187 0.227561 0.277698 0.60776 0.400185 0.443332 -0.645687 -0.269759 -0.869614 0.452211 0.69962 -0.211842 0.800875 -0.900617 0.780512 -0.765777 0.518339 -0.602984 -0.890674 -0.230001 0.604572 0.803505 0.0749204 -0.631997 1.00853 -0.286924 0.801322 0.495611 -0.547251 0.31973 -0.308877 0.171791 0.172056 0.823196 0.836911 -0.65827 1.01739 -0.751598 -0.497489 0.627223 0.655189 -0.187284 -0.822417 0.129216 0.744452 0.199651 -0.662494 -0.986833 0.393213 0.767415 -0.158107 -0.313909 0.976363 -0.797042 -0.0656672 0.850508 1.1878 -0.608944 -0.155504 -0.394084 -0.772518 0.224228 -0.315488 -0.777853 1.2028 -0.526804 -0.519876 -0.613652 0.309107 0.38301 -0.986523 0.11739 -0.29824 0.148106 -1.05296 0.233483 -0.513783 -1.0859 0.651979 0.0132045 -0.457537 -0.150371 -0.592368 -0.285262 -0.461823 0.691917 0.1144 -0.214322 -0.367692 -0.576579 0.814154 0.380945 0.383284 0.125616 0.999145 0.622676 1.06628 0.899711 -0.606032 -0.528326 0.418062 0.62603 0.829619 -0.775847 -0.225008 -0.672506 -1.03609 -0.595514 0.718556 0.370411 0.567576 0.50191 -0.222601 0.702068 0.770447 0.209224 0.751512 -0.543686 -0.274043 -0.0289523 0.883093 -0.000648999 -0.34846 1.03576 0.909183 0.704934 0.97977 -0.402393 -0.781776 0.507993 0.595245 -0.529813 -0.620059 -0.994741 0.599517 -0.24826 0.546026 -0.664731 -0.667447 -0.108192 -0.185644 -0.538896 0.726201 -0.568474 -0.595762 -0.65888 -0.00293537 -0.937771 0.804692 0.395737 -0.524928 1.0965 -0.328949 -0.771639 0.626083 0.245064 0.0946347 -0.742069 0.676303 -0.48392 0.933998 -0.755109 -0.708954 -0.523211 -0.354329 -0.944227 0.770537 0.138202 0.719496 0.355012 0.697631 -0.0270252 0.759658 0.164843 -1.07504 -0.338531 -0.376367 0.886337 0.821827 1.07146 -0.361613 -0.443327 0.183529 -0.833957 -0.856117 0.227183 -0.571054 -0.698319 -0.678167 -0.520046 -0.331651 -0.655717 0.300087 -0.163976 0.331647 -0.699016 -0.0224102 0.945497 0.0620448 -0.527628 0.488549 -0.0897548 0.45251 -0.852589 -0.371471 0.59811 0.321023 1.0899 0.26661 -0.855938 -0.984099 0.0172867 -0.292967 0.695488 0.0020392 0.454362 -0.654204 -0.014322 1.06361 -0.410119 -0.228952 -0.254944 -0.320948 -0.771408 -0.221051 -0.0672269 0.287204 -0.69462 0.867484 -0.626241 -1.04477 -0.638131 1.01059 -0.763423 -0.666313 1.17209 -0.392866 -0.0679199 -0.693999 0.188984 -0.478917 0.867121 0.642721 0.177295 0.568208 -0.244912 1.17826 -0.0750602 -0.668975 0.729866 -0.348514 0.746111 1.10936 0.691733 0.853436 0.898378 0.143917 -0.554083 0.397806 0.0551929 -0.669673 0.444817 -0.0576413 -0.514165 0.827902 0.0273598 0.514962 0.583412 0.94764 0.286953 0.421125 -0.0155093 -0.822369 -0.340466 -0.242747 0.125859 -0.0706563 -0.947679 -0.620578 0.50006 -0.202979 0.605111 0.121376 -0.00666045 0.0401309 -0.759183 -0.840973 -0.113275 0.11143 0.68051 0.909676 0.865195 0.427232 -0.216417 -0.729889 0.107528 -0.998239 -0.160562 1.11325 0.655638 0.355161 0.089661 -0.86409 0.54503 -0.406682 -0.762249 -0.504281 -0.394465 0.0706698 0.149817 0.924371 0.362278 0.266922 -0.622075 0.98832 -0.76716 0.384007 0.34208 0.782754 0.320886 -0.0980929 0.534449 -0.396437 -0.0680311 -0.472188 1.02503 0.46773 -0.294299 -0.336998 -0.791943 -0.730318 0.386855 0.42671 -1.04636 -0.947362 0.0936819 0.740961 -0.378832 -0.0216907 -0.250639 0.108976 0.434437 -0.681622 0.082804 -0.250896 -0.810946 0.208195 -0.770774 -0.399669 0.477776 -0.871983 -0.340901 -0.602204 0.960529 1.05029 0.492528 0.582359 0.871069 -0.492293 0.500126 -0.827647 -0.123589 -0.407315 -0.830108 0.430422 -0.762482 -0.357779 -0.204589 0.229645 -0.799001 -0.155597 -0.0928204 -0.883282 -0.416789 0.0236004 -0.405624 0.795063 0.257154 -0.290885 -0.0100228 -0.404845 -0.638605 -0.118628 -0.786856 0.419518 -0.300116 0.464219 -0.898578 0.530216 -0.267289 0.24829 0.0964462 -0.945057 -0.87881 -0.318564 -0.78456 0.169204 0.619038 -0.489567 -0.606896 0.223701 0.318362 -0.0760415 0.554877 0.436682 0.511415 -0.199047 0.68421 -0.432419 0.448757 -0.238334 0.291194 -0.359026 0.357354 -0.466715 -0.214058 0.611521 -1.02712 -0.562497 0.169656 0.799575 0.830717 -0.685357 -0.247086 -0.470185 0.689492 -0.42018 0.244514 0.983776 -0.15849 0.3814 0.186148 0.170273 -0.879356 0.388581 0.185429 0.221878 0.781246 0.850196 -0.364454 -0.0740876 1.03845 1.01744 -0.539775 -1.01798 -0.195061 0.637674 0.258675 -0.338 -0.543679 0.364578 0.789205 -0.385497 0.790075 -0.173796 0.213332 0.530921 0.795844 1.00791 0.547437 -0.793255 -0.21856 0.637357 -0.0099364 -0.108891 -0.793396 -0.571336 1.01157 0.608345 -0.76816 0.318676 -0.712602 0.418471 -0.468863 -0.539099 0.469956 -0.542302 0.0535277 0.0345121 -0.881431 0.125888 -0.472091 -1.05432 -0.888228 -0.249826 -0.635393 -0.408238 0.91662 1.05008 -0.794876 0.598898 -0.39298 -0.828332 0.92557 -0.303808 -0.357335 -0.0165533 0.00796779 -0.674567 0.389063 -0.755733 -0.32687 -0.708013 -0.0081076 -0.0625276 -0.531224 -0.453537 0.411707 -0.619416 -1.05162 0.825208 -0.979374 0.163041 -0.869653 -0.124636 0.725485 0.581988 -0.879077 0.448803 -0.453782 -0.646275 -0.791062 0.749797 -0.381852 -0.532186 -0.458611 0.308369 0.730256 -0.678912 0.40642 0.253652 0.279579 0.565041 0.189212 0.805133 0.19631 0.673455 -0.27769 0.657319 -0.541294 -0.932785 -0.27241 -0.000973306 -0.70578 -0.183854 -0.6324 0.262529 0.228508 -0.930096 -0.273943 -0.622153 0.100405 -0.166364 0.545683 -0.400178 -0.452853 0.599411 -0.247636 0.522185 0.191396 -0.830751 0.0223967 0.655412 -0.935496 0.121163 0.673269 0.135997 0.776774 -0.7817 -0.105219 -0.339543 0.841994 -0.753165 -0.0882191 0.837869 0.381127 0.0392418 0.387723 0.0148373 -0.943531 0.466261 -0.801338 -0.80686 0.870958 0.490719 -0.32437 -0.189302 0.784163 0.156373 -0.762843 0.7321 0.742909 0.707669 0.229973 0.994812 0.429925 -0.982536 0.542838 0.313846 0.861548 -0.287048 0.192555 0.0379281 0.178064 0.633824 0.543612 0.0626349 0.308311 0.422148 0.302973 0.457795 0.501151 0.240959 0.63859 0.730247 
-0.332612 -0.926711 0.558069 0.318359 -0.786256 -0.839062 -0.515694 0.134557 -0.931477 -0.561612 0.0309978 0.074509 -0.987566 -0.710882 -0.212223 0.0968036 -0.723153 -0.935873 0.229241 -0.0153531 0.301919 -0.0872026 -0.743509 -0.302855 -0.949473 0.691153 0.176268 0.832509 -0.345926 -0.924373 0.200579 0.715143 -0.367171 0.259715 -0.929597 -0.346099 -0.888241 -0.797541 -0.792193 -0.586395 0.250615 0.0536084 0.227028 -0.229024 0.0413828 0.388003 -0.963778 0.786372 0.300691 0.387368 0.598479 0.573015 -0.297848 0.980581 -0.697719 -0.00115511 0.296897 0.426486 -0.672435 0.662733 0.669239 -0.49532 0.0151406 0.160316 -0.355504 -1.00272 0.457646 -0.537051 0.694364 -0.733463 0.34999 -0.54223 0.836909 0.777215 -0.484177 -0.491165 0.000148342 0.54816 -0.389015 0.939053 -0.706117 -0.964695 0.888781 -0.444769 0.082551 -0.832363 0.571178 0.653722 -0.540367 -0.422086 0.50427 0.700671 0.494789 0.740388 0.164274 -1.08783 -0.810815 -0.0788013 -0.402408 0.697116 0.0180224 -0.251003 0.417642 0.1166 -0.513184 -0.0141325 0.43102 0.363816 -0.342351 0.0320636 -0.204897 -0.660568 -0.796938 -0.864576 -0.515964 -0.158605 -0.0523703 -0.104221 -0.111291 0.52148 -0.841781 -0.717731 0.535442 -0.926929 -0.384301 0.612502 0.0834052 -0.940479 0.0109193 -0.844799 -0.788536 0.298717 0.00934554 -0.0862073 -0.15195 0.479006 -0.72976 -0.626315 0.596943 -0.365221 -0.161986 0.516174 -0.276894 0.485742 0.342785 0.241086 1.27367 -0.0733534 0.199697 0.628065 -0.729298 0.842337 0.316202 0.49072 -0.571799 0.812231 -0.226898 0.707685 0.310828 -0.442575 0.62901 -0.884 -0.752957 0.261091 0.00057419 -0.142514 -0.693526 -0.582408 -0.620478 -0.670556 0.418476 -0.326907 1.15028 0.321685 -0.134915 0.919097 0.146732 -0.57554 -0.470161 -0.30046 -0.219264 0.517209 -0.511205 0.779521 -0.104441 0.700925 0.758554 0.223732 -0.817732 0.0597298 -0.439705 0.652986 0.60554 -0.0704067 0.593251 0.628362 0.549472 -0.115853 0.634107 0.691751 -0.571851 0.759192 0.0538202 1.01668 0.112354 -0.90541 -0.699516 -0.475048 -0.0721837 -0.15374 0.648905 -0.0846756 0.838638 -1.15697 0.0626061 0.247325 -0.0772602 -0.3638 0.338097 0.133968 -0.655872 -0.400904 0.00943305 0.16293 -0.830691 0.809266 -0.725613 0.93677 0.43307 -0.0796413 0.654545 0.593941 -0.607953 -0.519848 0.934743 -0.782688 0.686186 0.620185 -0.113743 0.437204 -0.0763267 -0.00171912 -0.329812 -0.598898 0.256523 -0.822358 0.0699558 -0.27537 -0.781576 0.205904 0.297643 -0.518128 0.24668 0.881256 -0.111035 -0.949353 -0.775763 0.857394 0.323105 0.518108 -0.42336 -0.236639 0.623375 -0.536585 -0.299998 0.654785 -0.0958747 0.801227 0.932558 1.02421 -0.910992 -0.452417 -0.513362 -0.556147 0.487856 -0.975914 -1.05686 -0.0602565 0.598669 -0.236816 -0.16371 0.494993 -0.47146 0.547814 0.145454 1.06127 0.0316729 0.459037 0.436856 0.533158 -0.264563 0.243803 -0.45274 -0.0595674 0.384179 0.17557 0.451267 0.794985 -0.244902 -0.53946 0.415809 -0.182683 0.048606 -0.388578 0.0704589 -0.0940595 0.491053 0.371502 -0.367091 0.619376 0.0806389 -0.431194 -0.0103947 0.526771 -0.449195 0.678015 0.190324 -1.02337 -0.366837 1.18156 0.325267 -0.578129 -0.425395 1.07456 0.376609 -0.602956 0.659412 -0.683511 -0.634559 -1.18311 -1.12988 -0.12724 -0.544664 -0.420101 0.16275 -0.410609 -0.27363 -0.740846 0.772744 -0.822771 0.0704003 -0.570809 -0.381705 -0.436442 0.0811147 0.507924 0.636632 0.198017 0.947748 0.489062 0.00140676 -0.437306 0.596562 1.16653 0.0480046 -0.681988 -1.08039 -0.193558 -0.232846 -1.17772 -0.776523 -0.209838 -0.207608 0.713481 -0.532636 0.297993 -0.581376 0.382453 0.840017 0.910733 -0.307707 0.576349 0.0344467 -0.414968 0.467495 -0.338227 0.823108 -0.0729485 0.895337 -0.417672 0.288812 0.742255 -0.84996 -0.68834 0.0566458 -0.622373 -1.09764 -0.869975 0.204862 -0.176974 -0.423945 0.810374 -0.22912 0.206269 -0.855667 -0.646554 0.817091 -0.981087 -0.291171 0.441468 -1.23746 0.372566 0.00512957 -0.485834 -0.999667 0.232841 -0.885164 0.226897 -0.738512 0.592315 -0.0645758 -0.750825 -0.933966 -0.79771 -0.6932 -0.420486 -0.480287 -0.881388 -0.928382 0.0240472 0.262167 0.961414 0.00560202 0.77992 -0.740546 -0.962793 0.287138 -0.169751 0.0799835 -0.553908 -0.133736 -0.279518 -0.492021 0.293805 -0.335831 -0.673579 -0.43515 -0.156374 -0.604659 -0.27465 -0.927513 0.345389 -1.12805 -0.442046 0.671305 -0.00875251 -0.49421 0.464915 -0.471809 0.765461 -1.00665 -0.469113 0.949619 -0.0418016 0.663603 0.529211 -0.278576 0.229902 -0.825093 0.294419 0.740169 0.820141 -0.404249 -0.479244 -0.470546 -0.933206 0.0438456 0.490336 -0.831768 -0.235855 0.569869 0.160839 -0.555854 -0.94608 -0.793522 -0.713396 0.907122 -0.676365 0.370923 -0.940963 -0.399567 -0.632479 0.449024 -0.0214535 0.529152 -0.406846 -0.800377 -0.542205 -0.578955 0.0191161 -0.525219 -0.135694 -0.295488 0.844535 0.358682 -0.293131 1.0542 -0.224769 -0.589774 0.70476 0.416298 0.15878 0.0255087 -0.113591 0.822981 -0.174392 -0.959668 -0.104492 0.47415 0.0107118 -0.659056 1.04409 0.800915 0.156936 0.813963 -0.0747647 -0.88494 -0.607473 -0.995685 0.0131183 1.21787 -0.617271 -0.525502 -0.758288 -0.23272 -0.483235 -0.742205 0.318926 -0.018308 -0.522998 0.667927 0.668613 -0.906906 0.578471 -0.872523 -0.732772 0.713035 -0.557395 0.0737301 0.514127 -0.192554 -0.647011 -0.994496 -0.200256 1.01155 -0.143995 1.00215 1.11228 -0.28548 -0.0432865 -0.869901 0.179793 -0.481169 0.205561 0.0672653 -0.0212364 0.0185534 0.746441 -0.113514 0.719181 0.465806 -0.736896 0.873256 0.624149 1.05126 1.01925 0.448307 0.387639 0.514025 -0.0410724 -0.432166 -0.332149 -0.463387 0.918642 1.29277 -0.294029 -0.167806 0.00967316 -0.186169 -0.330879 0.00207099 -0.41408 -0.022125 0.760919 0.501009 0.0680934 0.710387 -0.799156 -0.330535 -0.419487 0.435765 -0.386436 -0.673857 0.705895 -0.657183 -0.620944 -0.992913 -0.966589 -0.773127 -0.744948 0.223734 -0.245057 -0.297053 0.807769 0.963684 0.258843 0.0794466 -0.769283 0.683415 -0.791344 -0.373894 -0.172289 -0.446043 -0.0498228 0.808272 0.266204 -0.301679 0.34607 -0.177521 -0.106328 -0.453317 -0.410748 -0.640882 0.640514 -1.03629 -0.163258 0.669493 -0.253379 0.186437 0.587212 -0.614509 1.15246 0.972604 -0.65154 1.03544 -0.900245 0.534416 0.967888 -0.208902 -0.856708 0.275177 -0.321593 -0.690299 -0.535355 0.0952172 0.636235 0.134105 -0.12345 0.499171 -0.474941 0.190047 0.121055 0.544471 -0.546816 -1.00249 0.859902 1.00406 1.0438 -0.195125 0.398224 -0.278457 -0.328511 -0.677846 0.823871 -0.0573872 0.244502 0.981977 0.334518 -0.865007 -0.224977 -0.465122 0.0637841 -0.670653 0.39161 -0.852136 0.154247 -0.79737 -0.605189 -0.96777 -0.396292 0.174597 0.479693 -0.220423 0.621335 0.867163 -0.586217 -0.444839 0.172044 0.381868 0.251513 -0.884109 0.927838 0.836932 0.498163 0.454859 -0.0844825 -0.841006 0.54966 -0.976414 -0.546826 0.0802667 -0.130826 0.820726 0.885466 -0.0750141 0.816363 0.0553782 0.181894 -0.272849 -0.38395 -0.91089 0.00990603 0.661976 -0.389322 0.733086 0.928999 1.00876 -0.713291 0.295736 -0.600769 -0.0897842 0.438396 -0.273958 0.933873 -0.841932 -0.344185 0.846574 0.843731 0.616358 0.687246 -0.621075 0.973624 0.691524 -0.663749 0.911425 0.655729 0.101717 0.835367 -0.853379 0.304655 0.934957 0.692499 0.00736872 -0.133112 0.198335 -0.94508 0.13294 0.0946068 -0.349918 0.756569 -0.309472 0.28217 0.775112 0.463572 0.273119 -0.610928 -0.736128 -0.439041 0.0649772 0.111415 0.914579 -0.443846 -0.138763 0.011904 0.916803 -0.341686 0.102903 0.373322 
-0.193595 0.917703 -0.160965 0.0155268 -0.467165 -0.196005 -0.286849 -0.977685 0.917143 0.523117 0.317625 0.449844 -0.428577 0.775795 0.0661565 -0.597948 -0.759338 -0.173783 -0.258186 -0.756552 0.503247 -0.121769 -0.209411 0.855311 0.65488 0.610853 -0.672042 0.10802 -0.592335 0.966652 -0.140975 0.521801 -0.575331 -0.0331587 -0.860646 0.178774 0.832879 -0.416736 -0.537181 -0.676762 -0.248279 0.827162 0.347386 0.23511 -0.914569 -0.65611 -0.811373 0.74404 -0.726596 -0.691383 -0.251073 0.442991 -0.302879 0.496856 0.301584 -0.000993646 -0.788427 -0.569004 -0.960944 -0.0447462 -0.98009 -0.156637 0.652394 -1.02376 0.137653 -0.46022 -0.967369 0.462247 0.594415 1.04533 -0.447822 0.43606 0.615406 -0.335269 -0.272496 -0.256779 -0.404649 0.297857 -0.186929 0.386587 0.422502 0.131033 0.739942 0.469812 0.909736 0.396097 0.720727 -0.643629 -0.0447535 0.107728 -0.349795 -0.960294 -0.482035 -0.138574 -0.75162 -0.957125 0.273366 1.00974 -0.693035 -0.640414 -0.546441 -0.979325 0.282532 0.400294 0.652386 -0.535477 -0.454877 -0.978872 0.243842 -0.0862088 -0.152408 0.553664 0.203811 0.461327 0.136968 -0.344522 0.612898 0.648112 -0.558649 -0.976416 -0.735767 -0.799465 1.01176 -0.697093 0.0967124 -0.307175 0.107114 0.483617 0.591789 0.462487 0.274561 -0.200476 -0.375249 0.217575 -0.704348 -0.61115 -1.07983 0.331119 -0.717452 0.977341 0.139588 0.78417 -0.240727 -1.02465 -0.386899 -0.151867 -0.0409454 -0.322942 0.404277 -0.319247 0.333055 -0.695195 -0.7696 0.604261 -0.475803 -0.881954 -0.275132 0.704606 -0.0950028 -1.14749 -0.477512 0.299058 -0.639794 -0.969525 -0.066718 -0.0361945 -0.860795 0.76058 -0.789349 -0.265835 0.560886 -0.226949 -0.459218 -0.412257 -0.0599645 0.774705 0.69753 -0.693824 0.978795 -0.184511 0.646532 0.106504 -0.783707 -0.622171 -0.619537 -0.450758 0.248571 -0.485402 0.393294 -0.321103 0.372774 0.638464 -0.666422 0.63126 -0.166972 -0.93101 -0.0979405 0.246336 -0.601095 0.393617 -0.710102 -0.288627 -1.00969 0.459827 0.913845 -0.324844 0.569941 0.644419 0.192342 0.909829 -0.689242 0.29646 -0.217011 0.23674 -1.20248 0.107304 -0.511637 0.588728 -0.901915 0.189219 0.141205 0.690503 -0.392495 0.643735 0.624256 -0.953791 0.034015 -0.131816 -1.08275 -0.0747663 0.662672 -0.915101 -0.284909 1.00257 1.02294 0.723487 -0.887034 -0.291723 0.357477 -0.360769 -1.05553 0.257369 -0.775033 -0.30964 -0.255889 -0.269082 -0.291416 -0.235627 -1.20001 0.4328 -0.107938 -0.361512 0.76175 -0.863717 -0.953549 -0.324816 -0.324068 -0.908419 0.789923 0.73135 -0.350428 0.129839 0.124911 0.884366 0.227108 -0.716135 -1.12168 -0.569 -0.0105912 -1.42013 -0.978665 -1.04065 0.586215 0.507825 0.111363 -0.705843 0.198421 -0.460717 -0.971324 0.694441 0.876063 0.35026 0.517991 0.302868 0.258466 0.00912782 -0.607123 0.716059 -0.0561891 0.83212 0.0784136 -0.32 0.674995 -0.663729 -0.43231 -0.640214 -0.880352 -0.909485 -0.0772518 -0.218464 -0.350473 -0.781875 -0.24923 -0.00207207 0.142703 0.770283 -0.833494 0.955661 -0.418341 -0.649655 -0.412616 -0.546067 0.1741 0.5499 0.974336 -0.249526 1.17816 0.573716 0.395474 -0.12446 0.560166 -0.214568 0.389363 0.648963 0.571033 -0.437499 -0.717547 -0.539973 0.560608 -0.842241 0.398271 0.146041 -0.378281 0.245385 -0.532829 0.351141 -0.0133889 0.231587 -0.808184 0.249485 -0.120086 -0.346311 0.152809 1.21489 0.13473 0.441873 1.41781 -0.266718 0.879648 -0.286488 0.935647 -0.701404 -0.105856 -0.834104 -0.326492 -0.839667 0.844332 -0.438432 0.305712 0.0747567 0.269586 -0.91955 0.389299 0.865617 -0.239956 0.703865 -0.87424 -0.735578 -0.444818 0.732065 0.108761 0.630304 1.12185 1.56729 0.620102 0.92413 0.945648 0.927629 -0.542773 0.866203 0.87514 -0.0429991 -0.494818 -0.589073 -0.373164 0.147936 -0.318146 0.41508 0.337828 -0.654426 0.236023 0.623225 0.189196 0.10649 0.162181 -0.101912 -0.618629 -0.477354 0.463877 0.548668 1.14033 1.54488 0.168358 1.04139 0.686695 -0.223045 -0.262282 0.457755 0.637216 -0.844065 0.0564195 -0.0344264 0.476953 0.778157 -0.911301 -0.281944 -0.597575 0.063625 0.173827 -0.212567 -0.97076 -0.427162 -0.687486 1.1558 0.1752 0.703762 -0.201037 0.868156 1.22487 0.850575 -0.544338 0.160599 -0.920254 0.518616 -0.6676 1.10736 0.759335 -0.956536 0.873206 -0.156288 -0.291199 -0.968222 -0.0711603 -0.852044 -0.0828254 -0.568986 0.829029 -0.691235 -0.232495 0.605197 -0.390347 0.305129 -0.00572279 0.935273 -0.610657 1.22894 1.08021 -0.44819 -0.793456 -0.346261 0.513943 -0.0273137 -0.311218 0.500347 0.826347 0.831297 0.00762715 0.141328 -0.798268 0.315761 0.393904 0.281026 -1.14082 -0.966229 0.118111 -0.0923831 0.115105 0.0774104 -0.397626 0.884907 0.16272 0.265363 0.360878 0.763008 1.17078 0.682686 -0.583429 -0.385032 -0.54431 -0.40878 -0.825589 0.701744 -0.987543 -0.0604277 -0.773166 0.299519 0.54541 0.572489 -1.15378 0.518431 0.378169 0.863104 -0.131779 0.19814 -0.75759 0.0357787 -0.0284114 -0.707351 0.877642 -0.108453 -0.240242 0.0981773 0.10999 -0.00739779 -0.671138 -0.451585 -0.781594 0.461134 0.441907 1.04169 0.772865 0.115694 -0.242385 -0.188148 -0.448838 -0.66802 -0.296852 -0.35231 -0.58788 -0.346593 -0.0401202 0.0186441 -0.415308 -0.458875 -0.657722 -0.436753 0.72351 0.493075 -0.477844 0.262291 0.0856569 0.83428 -0.0462936 0.502105 0.474415 -0.41211 -0.507405 0.540627 -0.602502 0.896645 0.555295 -0.516625 -0.0425509 -0.196633 -0.849613 0.0940983 0.681273 -0.727683 -0.404055 -0.740556 -0.281929 0.0607724 -0.182188 0.859487 0.307091 -0.0568025 0.0552056 0.690633 0.0496122 0.848526 -0.352833 0.858688 0.490917 -0.925187 -0.758502 0.805998 -0.308442 -0.682645 0.402395 0.905444 0.494769 -0.466 0.12592 -1.05326 0.430754 0.460941 -0.241344 0.734704 0.68572 0.621071 0.339772 0.723374 -0.63265 0.240048 0.446274 -0.179435 -0.380659 -0.630821 -0.504656 0.0733038 -0.206667 0.220672 -0.0551409 -0.681453 0.751525 0.531999 0.0321639 -0.959912 0.122042 -0.365347 -0.864061 0.293556 -0.156865 -0.313084 -0.923443 -0.654179 0.0863278 -0.351979 0.107286 0.147565 0.312193 0.541736 0.374134 -0.410053 0.0707311 -0.844057 -0.60851 -0.756533 0.076447 -0.093937 -0.145056 0.985916 -0.717804 0.319164 0.265258 -0.514929 -0.696642 0.150616 0.758005 0.149955 0.29232 -0.106336 0.902706 -0.504315 -0.0407624 -0.45372 0.353963 -0.861346 0.781683 0.910757 -0.566375 -0.710089 -0.426872 -0.0807334 0.24581 -0.957053 0.488171 0.740232 -0.632631 0.455705 1.18479 -0.0717325 -0.00543118 0.173164 0.673385 0.329931 0.481539 0.570019 -0.981058 -0.344202 -0.473822 -0.666502 -0.689951 -0.146716 0.119577 0.886936 0.840636 -0.0866534 0.0460133 0.512665 -0.272125 0.459842 -1.0854 -0.138576 -0.657497 0.757698 0.9563 0.702828 0.126118 0.31583 -0.329842 0.871772 -0.824959 0.156872 0.394956 -0.773752 -0.0206574 0.288535 -0.74395 0.542186 -0.222938 0.518756 -0.716498 0.473735 -0.0606062 -0.208102 -0.601588 -0.363305 -0.973672 -0.0415599 -0.376095 0.139243 -0.856815 0.979037 -0.308975 -0.755954 -0.745908 -0.187036 -0.18058 0.739199 -0.694459 0.159145 0.735872 -0.82197 0.759316 0.084333 0.559624 -0.0611551 0.850238 0.844105 -0.26904 -0.167755 0.571996 0.0880204 0.353557 -0.692251 -0.891102 -0.363457 -0.729781 0.602462 0.440399 -0.301757 -0.895096 0.139133 -0.749644 -0.0167365 0.255699 0.701989 0.792781 -0.396101 -0.00446936 -0.98069 -0.134994 -0.475224 0.789323 -0.246035 0.660374 -0.752653 0.870606 -0.209263 0.158124 0.571376 -0.859727 0.946112 0.532404 0.880144 0.0987644 0.492108 
0.370351 -0.72642 0.694016 0.356112 0.118024 0.999582 -0.102443 0.198562 -0.342187 0.633258 0.814025 -0.0165311 -0.933292 -0.968108 0.807544 0.435219 -0.801059 -0.182525 0.720793 0.691811 -0.192335 -0.434862 0.402503 0.715252 -0.295068 -0.509298 -0.11673 0.659952 -0.794666 -0.0959138 -0.652511 -0.233347 -0.526297 -0.320484 -0.138049 0.278755 -0.93148 -0.780939 -0.847451 -0.874266 0.492074 0.180401 -0.961065 0.875989 0.614701 -0.59304 -0.332502 0.187798 0.0410183 -0.617172 -0.403576 -0.0657477 -0.272228 -0.391637 0.821152 -0.854828 0.213357 0.927969 -0.168971 0.323613 -0.200146 0.336389 -0.266352 0.591294 -0.89882 0.361656 -0.308385 -0.304469 0.763958 0.488949 0.0235103 0.0546073 -0.746488 -1.1033 0.604793 -0.0102882 0.839119 0.494458 -0.180432 -0.81914 -0.73366 0.114136 0.741725 0.770993 0.874902 0.849973 -0.25061 0.466403 0.309645 1.09458 0.0992877 -0.152839 -0.166303 0.566022 -0.258684 0.489506 -0.678293 0.528403 0.146042 -1.0362 0.315987 0.321541 -0.905108 0.130292 0.523616 0.211099 0.0194952 -0.477325 0.876721 0.786172 -0.391424 -0.864168 -0.422303 -0.827173 -0.76806 -0.420329 1.06174 0.296198 0.766137 0.978463 0.443879 -0.308688 -0.576524 0.657849 -0.0465239 0.214322 -0.966285 0.613969 0.513486 0.523952 -0.14906 -0.468716 0.516521 0.318364 0.809002 1.02385 0.591073 1.0519 0.0351535 0.561312 -0.865669 0.22492 -0.358555 -0.297367 0.748784 0.928184 0.767452 0.972157 -0.313678 -0.39363 -0.791652 -0.117244 -0.547493 0.567006 0.202759 0.587946 0.976342 0.802797 -0.24273 0.46709 -0.224497 0.267843 0.0920898 -0.74441 0.0730917 -0.600915 0.70314 0.0185833 0.486122 -0.714839 0.296575 0.0063284 -0.738675 -0.00787882 -0.119996 -0.845355 -0.932103 0.40645 0.455078 -0.337428 -0.219382 -0.0919268 -0.853065 0.273403 -0.191289 1.3508 -0.381738 0.504695 0.677069 0.13501 0.760657 0.627723 1.0217 0.451298 0.880697 -0.454505 -0.589732 0.217322 0.166613 0.480762 -0.197784 -0.254427 0.866194 0.522973 -0.480494 -0.0932744 0.165922 0.709336 -0.30025 0.858999 -0.515961 0.93168 0.27542 0.933196 0.163111 1.39921 0.887717 0.525693 0.504883 0.61702 0.184896 -0.595319 -0.0561253 -0.247812 -0.508232 0.804727 0.469097 -0.120007 0.341195 0.806079 -0.802767 -0.408075 0.926118 0.588777 -0.502732 0.791022 0.851689 0.492045 0.419178 -0.168112 0.4937 0.734111 1.03435 0.2529 0.428062 0.326431 -0.724052 0.812515 0.171318 -0.558275 0.645768 0.673161 0.602959 -0.890556 -0.213387 0.0756781 0.643628 -0.431612 -0.15645 -0.657191 0.40074 -0.507952 0.726883 0.692873 0.21158 0.585291 1.06791 1.05391 0.957954 0.955355 0.351978 1.05403 -0.112536 -0.543765 0.323404 -0.257952 -0.307528 0.248192 -0.0531794 0.850502 -0.351877 0.0511182 0.00237958 -0.58235 0.344357 -0.991207 -0.793432 -0.416473 -1.09047 -0.827402 0.203495 0.621225 1.39008 0.065636 0.877664 0.944991 -0.0679705 0.927231 0.787139 1.13168 -0.836063 0.795849 0.386903 -0.0657626 0.232214 0.434456 -0.900884 0.111855 0.278841 -0.39159 -0.325548 -0.659184 -0.667359 0.197072 -0.679818 0.516057 -1.02024 -1.36655 -0.355025 0.863806 0.314675 0.903782 0.921957 0.769106 -0.195698 -0.00420841 -0.259822 -0.0752538 -0.131686 -0.746862 -0.298687 -1.16064 -0.0456277 -0.0832193 -0.273919 0.422133 -0.514256 0.507345 0.369973 -0.517208 0.64261 0.401003 0.222421 -1.09315 0.309154 0.2849 0.647158 0.0617353 0.550089 0.170827 0.321071 -0.228111 -0.121534 0.169665 -0.672878 -0.147067 -0.583983 -1.00166 -0.418952 -0.712664 0.297132 0.475875 0.536307 0.612526 -0.819841 0.695947 0.325818 0.276203 -0.0143635 -1.08234 -0.915966 0.264834 -1.27481 -1.18418 0.395926 -0.0947069 0.330095 -0.271794 -0.838071 -0.865175 -0.502235 0.310195 0.184076 -1.15644 -1.04585 -0.732661 -0.10993 -0.475733 -0.887839 -0.91208 0.496231 0.897823 -0.489602 -0.956228 -0.488173 -0.137443 -1.02675 0.382284 0.0465864 -0.632454 -0.390904 0.135074 -0.201732 0.718808 0.798549 0.227119 0.0939384 0.401127 0.0529584 -0.178497 0.329405 -1.03359 0.648179 0.164135 -1.2759 0.00405571 0.58429 0.0957274 0.204333 0.60221 -0.108464 -0.314853 0.544106 -0.999985 -1.30335 -0.460884 -0.846226 -0.813137 -0.920481 -0.29853 -0.475975 1.26989 -0.151525 -0.17333 -0.235018 -0.147458 -0.507964 0.232085 -0.859689 -0.445695 0.182288 -0.069834 -0.0582754 -0.595486 -0.177519 0.0961726 -0.387766 0.754062 0.302828 0.724323 -0.400738 -1.33251 0.480487 -0.0667209 -0.939341 -0.991415 0.408949 1.2058 -0.516524 1.38382 -0.420359 0.888528 0.198974 0.233404 0.43919 0.316505 -0.175316 -0.822428 0.70751 -0.547564 0.228285 0.0316393 -0.383349 0.200949 -0.548837 0.15503 -0.355671 -0.0432976 0.173895 -0.372747 -1.10808 0.120862 0.443261 0.52454 -0.38893 0.841314 0.153881 -0.262379 -0.540913 -0.302981 -0.202646 -0.996582 0.499031 -1.10731 0.125974 -0.397563 0.495745 -0.363379 -0.713996 -0.376476 0.274998 0.465252 -0.121657 0.0193209 0.989811 -0.0541643 -0.571592 -0.181232 -0.341914 0.776404 -0.82325 -0.321015 -0.636374 -0.178239 0.00999236 1.1035 0.894472 0.466265 -0.0842453 0.190522 -0.8214 -0.563263 -0.00394253 -0.468845 0.357457 -0.151467 1.05142 -0.941034 0.620679 0.405336 -0.810133 0.253969 -0.169538 0.529122 -0.700721 0.163677 -0.503926 -0.632322 -0.592643 0.847224 -0.915577 0.376354 0.997376 -0.183981 0.509672 -0.963117 0.28575 -0.0650029 -0.275462 0.0994948 0.021248 -0.073906 -0.326775 0.817158 0.624673 -0.596617 -1.06297 0.585776 0.288881 -0.97461 -0.976563 0.458598 0.856803 0.341184 0.624837 0.36677 0.144647 0.552539 0.629514 -0.56102 -0.0696218 0.0365337 -0.371203 0.0520027 -0.337392 -0.142634 -0.632408 0.607481 -0.488117 -0.574949 -0.0439242 0.765032 -0.124133 -0.3152 0.573964 -0.609029 0.439812 0.368728 0.787689 -0.884909 0.178072 -0.298845 0.0660342 -0.222215 0.748094 -0.0443468 0.838461 0.523767 0.364547 -0.666843 0.962043 -0.65984 0.6502 -0.734591 -0.762681 -0.996652 -0.537786 -0.26666 0.652731 -0.658445 0.390813 -0.372832 0.0175498 0.056132 -0.24198 0.287724 -0.467219 -0.41517 -0.942958 -0.389207 -0.503799 -0.915311 0.023507 -0.639722 0.0805424 0.403026 1.24255 0.347468 0.939497 -0.903461 0.29276 -1.1744 -0.654517 0.692547 -0.302087 -0.179591 0.817812 -0.78132 0.10585 0.246456 -0.955759 -0.750362 0.722702 0.620469 -0.592262 0.424681 -0.895416 -0.0951272 0.0162617 1.13878 -0.0748115 -0.503094 0.346183 0.0399193 1.13153 -0.770247 0.276144 0.475023 0.323711 0.133114 0.0356712 -0.107656 0.726468 0.16481 0.219105 0.33615 -0.515077 0.961298 -0.497901 0.646853 -0.782162 0.0821909 -0.791585 0.827985 -0.581757 0.661434 -0.748172 -0.734564 -0.694865 0.366841 -0.529809 0.119351 0.392874 0.188978 -0.717636 -0.564658 0.184243 0.536062 0.00558883 0.675275 -0.0242507 -0.606272 -0.634818 0.749385 0.914766 0.456977 0.962113 -0.0173902 0.11799 0.556544 -0.685569 0.290155 0.704631 -0.42469 0.482325 -0.66196 0.837555 0.52543 -0.34921 0.94476 0.0987477 0.268414 0.179958 0.835044 -0.947669 -0.657975 -0.83184 -0.411634 0.450789 0.463405 -0.798509 -0.0182879 0.536053 -0.788631 0.790969 0.491966 0.846863 -0.102606 0.068897 0.664334 -0.372134 -0.40113 -0.913811 -0.510109 0.178197 0.869921 -0.451975 -0.368195 0.00441843 -0.65665 -0.272827 0.00883308 0.44107 -0.482024 -0.794955 -0.492012 -0.283295 0.838847 0.801084 0.390555 0.504704 0.0075382 -0.955559 -0.474729 -0.666108 -0.199368 0.254937 -0.337636 0.32081 -0.836947 0.126742 0.68891 0.131651 -0.509685 0.312576 -0.196466 0.193793 0.70211 
0.0972486 -0.196407 0.729583 -0.329974 0.341766 0.762301 -0.796487 0.121892 0.84658 -0.804936 0.331882 0.683514 0.612178 0.425691 -0.942188 -0.844481 0.544612 0.195136 0.472111 0.0398794 -0.63798 0.678252 0.390261 -0.529205 -0.255141 -0.331949 0.638686 0.824803 0.278637 -0.144054 0.973781 0.809617 -0.288037 0.895756 0.22085 0.124246 0.159953 0.274352 -0.636946 0.205919 0.252898 -0.37844 -0.52996 -0.25472 -0.601919 0.988355 -0.242476 -0.524782 -0.491596 0.269709 0.667255 0.139335 -0.223848 0.343292 0.51768 -0.652868 -0.963645 -0.297006 -0.871647 -0.0285871 0.18077 0.822842 1.00705 -0.526158 -0.402178 0.254395 0.460393 0.605702 0.13367 0.0366848 0.702391 0.680722 -0.814086 0.589415 0.197077 0.187729 0.106096 -0.548865 -0.507513 0.0559181 -0.271615 -0.118301 0.696866 -0.188052 0.455229 0.303406 0.299203 -0.280842 0.0963245 -0.51368 -0.502121 -0.635156 -0.773188 1.02307 0.461054 0.293326 0.891127 0.0298274 -0.445209 -0.393472 0.549876 0.868944 -1.04543 -0.458252 0.812903 -0.663771 0.0871936 0.598426 0.159828 0.759045 0.447455 -0.131959 -0.635484 -0.0989322 -0.514863 -0.152137 -0.537386 -0.0210425 1.14875 -0.581992 0.698278 0.801251 -0.349267 0.553624 0.364912 0.880006 -0.543309 0.235518 0.140566 -0.451801 -0.77841 0.492585 0.156326 -0.267836 -0.657143 -0.90198 0.599865 -0.510565 -0.778639 -0.91929 -0.650363 -0.457765 -0.586 -0.964815 0.0773634 -0.210962 0.178924 0.940315 0.768555 0.854822 0.532044 0.0790478 0.625024 -0.408071 -0.528732 0.357608 0.88835 -0.269943 0.137694 -0.972431 -1.03224 -0.180946 0.343227 -0.749364 0.35031 0.638181 -0.346409 -0.672335 -0.984603 -0.4355 -0.555729 -0.438041 0.500223 0.723958 0.583616 0.708919 0.112702 0.478759 0.735932 -0.733558 0.608309 0.607585 -0.159602 0.576714 -0.064887 -0.671858 -0.145306 0.781494 -0.424243 -0.370117 -0.22022 0.364896 -0.440346 0.037156 -0.567839 -0.467456 -0.564775 0.557362 -0.569711 0.514873 -0.0229929 0.781513 -0.361826 0.231978 -0.343098 0.681672 0.914172 0.311496 0.930744 1.36202 -0.465352 -0.509491 0.773782 -0.480897 -0.920181 -0.232651 0.248237 -0.110962 -0.74972 -0.426429 0.655878 0.484547 -0.944147 -0.727575 0.202866 0.07792 0.568127 0.802622 0.387307 0.00210501 0.3412 0.954271 -0.745811 0.98449 0.109552 -0.135629 0.16564 -0.487639 1.19612 0.0269793 0.57042 -0.975144 -0.18432 -0.635531 0.0107233 0.614129 -0.891156 -0.36954 -0.352502 0.0279491 0.0207734 0.397231 0.149834 -0.901624 -0.200659 0.668601 0.326281 0.293477 0.666776 0.168752 0.795815 0.258121 0.320339 0.0979838 0.875607 -0.0720033 0.652624 -1.05195 -0.0978534 0.396947 -0.0153641 0.0671028 -0.954961 -0.724728 0.698294 -0.0524474 0.569115 -0.0531699 -0.289311 -0.541051 0.150719 -0.739738 0.627779 0.664573 -0.25512 -0.814041 1.00092 -0.103709 0.506419 -0.617847 -0.529605 0.517325 0.242254 0.510339 -0.102585 -0.0611721 -0.580233 -0.483521 -0.866935 0.434521 -0.771092 -0.378525 0.0581116 -0.101339 0.481284 0.767331 -0.361893 -0.578564 -0.384016 -0.636226 -0.906688 0.657967 0.0708488 -0.94467 -0.00695175 0.484598 -0.804764 0.787326 0.19056 0.215659 0.118088 -0.58673 -0.466214 -0.834318 -0.414999 -0.838472 -0.464824 -0.0702112 -0.799754 0.589472 -0.759579 -0.0858258 -1.08777 -0.605658 -0.0867088 0.904477 -0.418581 0.0287027 -0.227076 -0.366915 0.237127 -1.08562 -0.161832 -0.402482 -0.847965 0.101904 -0.988567 -1.06971 -1.20029 -0.358335 -0.541286 -0.60674 0.576744 -0.453408 0.720279 -0.59025 -0.335072 0.508065 -0.373132 -1.08333 0.113308 -1.02539 -0.880132 0.339246 0.248647 0.22933 -0.65632 -0.21747 0.0664301 -1.18201 0.119121 0.408813 -0.700243 -0.820004 -1.23327 -0.888375 0.288454 -1.15276 0.0780743 -0.25109 -0.950199 -0.530923 -0.166445 -0.81535 0.786894 -1.18138 0.112774 -0.931391 0.450945 -0.204858 -0.326677 -0.20389 -0.689459 0.113209 0.910785 -0.76696 -0.373015 -0.904375 0.144867 -1.39409 -0.421282 0.703125 -1.22638 0.402162 -0.795191 0.104693 -0.61453 -0.49299 0.0613769 -0.516022 -0.264828 0.30232 -0.401572 0.44167 0.548732 0.439665 -0.629454 -0.358452 -0.0256318 0.360058 -0.966349 0.670027 0.847592 -0.641001 -0.545274 -0.0519617 -1.01283 -0.383968 -0.744378 -0.332439 0.326228 0.0139093 -0.621807 0.648923 -0.36593 0.623831 -0.676935 0.368943 -0.10795 -0.779521 0.934274 -0.0879983 -0.140533 -0.772007 0.366008 -0.621986 0.785994 -0.285746 0.394356 0.484683 0.378855 -0.209773 0.600613 -0.168873 -0.551505 0.755746 0.777594 -0.44083 0.560096 0.392641 -0.391416 0.0466704 0.827989 0.666109 0.903021 0.779343 -0.0814548 0.0860965 -0.830261 -0.543858 0.0208986 0.148016 -0.348423 0.546253 -0.829814 -0.0752432 -0.0189922 -0.0454878 -0.715729 0.408764 0.413211 0.986143 -0.00485503 -0.102618 -0.316063 0.698948 0.956359 -0.447277 0.180689 -0.759996 0.340438 0.940357 -0.661575 0.248398 -0.783453 0.501679 -0.785387 -0.208744 -0.597971 -0.665846 0.11768 0.940912 0.879282 0.879024 0.426183 0.251958 0.588512 -0.915946 -0.892305 0.0539451 0.148876 0.1319 0.70037 -0.262136 1.11314 0.13833 0.315689 0.258202 0.663578 0.467428 -0.142922 -0.333973 0.175638 -0.918442 0.16438 -0.94561 0.394377 0.452209 -0.375161 0.252944 -0.682201 -0.790754 -0.91637 -0.530033 0.581839 0.533391 -0.329249 0.727617 -0.0296856 -0.449585 0.0520939 0.992809 -0.322454 0.560096 0.297347 0.473705 -0.600799 0.275064 0.434504 0.449489 -0.318305 -0.27755 -0.261851 -0.135194 -0.191609 -0.938602 -0.949219 -0.385427 -0.824278 -0.993167 0.370708 -0.762157 -0.735526 0.798031 0.84678 0.950027 0.302466 -0.212319 -0.324546 0.0951699 -0.41508 0.5585 -0.297816 -0.711304 0.837724 0.802631 0.405921 -1.04346 0.548795 0.3404 0.634622 0.113241 -0.633402 -0.375062 0.631183 0.537033 0.213764 0.156114 0.424515 0.781387 -0.169074 -0.317118 0.315982 0.280936 -0.347499 0.851538 1.04818 -0.889385 0.0859677 0.76813 0.204408 -0.225524 0.350064 0.260185 -0.545992 -0.0465382 0.344718 -0.546198 -0.0516311 -0.676044 0.799602 -0.781589 0.248713 0.164991 0.0962602 -0.548125 0.151907 -0.444443 0.326323 0.636774 -0.551454 -0.473402 0.772528 0.00875559 -0.378459 0.104513 0.345061 -0.247761 0.905082 -0.613393 -0.34395 0.810105 0.81326 0.646769 1.00253 0.359236 -0.216718 0.422117 0.386172 -0.277312 0.644499 0.00715939 0.757791 0.0181587 -0.574784 -0.414823 0.91382 -0.535573 1.12329 -0.553258 0.461668 -0.919133 0.65243 0.508744 0.384746 -0.766753 0.552879 -0.0976676 -0.723998 -0.170534 -0.339444 -0.127484 0.344349 -0.154452 -0.457603 -0.364721 0.877804 -0.92833 0.701299 0.887226 0.266164 0.621801 -0.219188 -0.528513 0.913483 0.792611 0.64751 0.915118 -0.79232 -0.337342 0.222543 0.923895 0.278076 0.398145 0.79605 0.366949 -0.0906102 0.830253 0.53662 0.0840287 0.864081 -0.00774636 -0.0996137 0.764421 -0.28503 -0.843807 0.768928 -0.815372 0.349839 0.165362 0.754636 -0.44168 0.844955 -0.820237 -0.114653 0.8229 -0.510565 0.169618 -0.755149 0.82599 -0.560289 0.64195 0.368861 0.945166 -0.757375 1.07513 -0.424226 0.171543 0.792158 -0.168867 0.0266768 -0.728258 0.850137 -0.0209521 -0.872348 0.082667 0.169145 0.723024 0.968797 0.508163 0.470894 -0.992585 -0.0887549 -0.95005 0.968322 -0.534628 -0.63178 -0.710692 0.0498458 0.01076 -0.353005 -0.0425074 -0.520087 0.221872 0.359172 -0.465036 0.777024 0.713968 0.589422 -0.267057 0.713448 0.447625 0.0859041 -0.871736 -0.716916 0.647117 0.531828 -0.827098 0.243756 0.341035 0.792857 -0.764711 0.34805 0.108703 -0.658718 0.533179 -0.039586 0.660607 
0.961785 -0.485081 -0.0124105 0.796229 -0.495994 -0.801558 0.0335895 0.496426 0.439234 0.267148 -0.691679 0.799396 0.516198 -0.923694 -0.332053 0.342161 0.746452 0.807418 0.187179 -0.163356 0.359473 0.214432 0.0989339 -0.564849 0.255892 -0.175341 0.846164 0.303243 -0.505469 -0.809728 -0.224997 0.566478 -0.597211 0.731767 -0.472149 -0.376729 0.062717 -0.661161 0.611683 -0.421181 -0.75228 -0.132974 0.980978 -0.0206241 0.986214 0.859397 0.680145 -0.230483 -0.983451 -0.867408 0.0669004 0.935091 0.898553 -0.45855 -0.453538 -0.164066 0.545413 0.811414 -0.0216161 -0.546078 -0.0567852 0.894733 -0.580131 -0.177236 -0.629539 -0.451601 -1.01544 -0.112341 -0.870803 -0.129668 -0.539189 -0.0246426 -0.285818 0.832846 0.320425 0.270773 0.692989 -0.26706 -0.172692 0.923833 0.669759 0.958333 0.586546 0.79594 -0.278704 -0.260268 0.210499 0.45187 -0.656733 -0.451069 0.129546 0.830377 0.607773 0.0971767 0.767684 0.028022 -0.642148 0.854636 0.652413 -0.51943 0.452877 -0.376168 0.141849 0.286601 -0.34039 0.184551 -0.702015 0.775805 0.63819 0.944332 -0.725523 0.214568 -0.794244 -0.789865 0.836202 -0.211197 -0.947346 0.138583 0.525803 -0.0917539 0.0518414 -0.663979 -0.0737042 -0.440268 -0.0716849 -0.282281 0.454225 -0.8324 0.691546 -0.578521 -1.01346 -0.654238 -0.132118 -0.0750483 0.114715 0.777717 -0.11031 -0.588313 0.941996 -0.866272 -0.840943 -0.0432988 0.529317 -0.102606 -0.982756 -0.456414 -0.968347 0.596329 0.645974 -0.905391 0.216851 -0.169987 0.600105 -0.369871 -0.377577 0.729385 0.761861 -0.896935 0.0964151 -0.875145 0.812907 0.233742 0.149818 0.992115 -0.870548 0.539438 -0.783704 0.519564 -0.306452 0.00746669 -0.875078 0.744391 -0.58702 -0.754987 0.198202 0.714544 0.577643 -0.0251767 -0.186448 0.345182 -0.40945 -0.56735 0.987276 0.433506 -0.80865 -0.481126 -0.317556 -0.147033 -0.496206 -0.519424 0.591815 0.802897 -0.280917 -0.0949172 -0.35905 0.868531 0.97504 -0.750579 0.107769 -0.775714 0.55809 -0.864943 0.767951 0.191852 0.354805 -0.101771 0.394663 -1.00112 -0.62753 0.515143 -0.519162 -0.230379 -0.516316 0.0114099 0.205877 0.773521 -0.444143 -0.0881921 0.285766 0.0404616 -0.754431 -0.706117 0.825496 0.287848 0.148237 -0.858082 0.0256632 -0.836267 -0.542223 0.564605 0.517418 -0.653172 -0.381053 -0.0409334 -0.305145 -0.44062 -0.733757 0.234776 0.203045 -0.736294 0.746407 0.209906 0.380105 0.568524 0.193294 -0.266308 -0.102025 0.10942 -0.833657 -0.426957 0.241851 0.874266 -0.120247 0.208948 -0.562746 0.904234 0.550061 0.209965 0.882016 0.0686277 -0.432976 0.656784 -0.217879 -0.208344 -0.455886 -0.691882 -0.63221 0.146499 -0.360289 -0.532064 -0.607427 -0.363226 -0.248106 -0.0056159 0.102416 0.791477 0.596095 -0.921913 0.851782 0.517233 -0.829354 0.880619 0.446208 -0.817367 -0.929934 -0.0166661 0.244426 -0.483565 -0.177776 0.105042 0.183769 -0.533776 -1.00152 -0.873166 -0.684423 -0.0233191 -1.01385 -0.180742 -0.00815235 -0.728965 0.954215 -0.0722314 0.562935 0.390134 0.522931 -0.419253 0.480674 -0.907748 -0.433154 -0.764828 0.986388 -0.760653 -0.396652 -0.696186 0.458329 0.949309 -0.584524 -0.365817 -0.575221 -0.216486 0.714675 0.100513 -0.874811 -0.747131 -1.13727 0.744059 0.108505 -0.0828265 0.531822 0.799496 -0.3274 -0.764574 0.686558 -0.440023 0.826665 0.750266 0.58013 0.208853 -0.916682 0.788775 -0.812034 0.46254 -0.588271 0.370554 1.10236 -0.731195 0.460525 -1.17297 -0.796486 -0.174584 -0.225717 -0.962684 -0.865395 -0.81408 -0.312331 -0.0242511 -0.379553 0.0991462 -0.753498 1.00859 -0.532309 -0.746758 0.178218 -0.247945 -0.712919 -0.175756 -0.936125 -0.599824 0.150904 -0.744913 1.00716 0.0800556 -0.783356 -0.350334 0.429788 0.548551 -0.370275 0.158733 -0.334388 0.678286 -0.31798 -0.469571 -1.14881 0.00151333 0.184392 -0.137537 1.05664 -0.763075 -0.681259 -0.883633 0.980959 -0.316525 -0.0827033 0.508063 -0.0712357 -0.942227 -0.430101 -0.368389 -0.110316 -0.228408 -0.793645 -0.486394 -0.309035 1.00136 -0.217655 -0.759393 0.956463 -0.0128016 0.817861 0.653368 -1.01086 0.47873 0.253754 -0.627968 -0.0690595 0.881647 1.06425 -0.505326 -0.419498 0.396952 0.237623 0.239143 0.359204 0.115936 0.466045 0.790142 -0.0604562 0.189291 0.620594 0.915288 0.374268 -0.257337 0.746519 0.301193 0.521293 -1.14454 -0.0817174 -0.998875 -0.707736 -0.0525438 -0.945501 0.938218 0.957141 -0.331537 -0.343975 -0.469225 -0.57958 0.0705708 -0.610957 0.619896 -0.078002 1.00534 0.0518204 0.378398 -0.471123 -0.438264 0.52507 0.431953 -0.382324 0.900361 -0.70971 0.462345 -0.621595 0.373373 -0.937342 -0.676584 0.355875 -0.110685 0.0630081 -0.0168767 0.587431 -0.370284 0.743155 0.252474 -0.21742 -0.409857 -0.0513236 0.862501 -0.682515 0.0425921 -0.267978 -0.828004 0.224492 -0.677643 0.0967449 -0.650415 -0.901401 0.309611 0.13099 0.466384 -0.604848 -0.65202 -0.876139 -0.929008 -0.245857 -0.11377 -0.885946 -0.502373 0.450927 0.673738 -0.603403 -0.941468 -0.0598456 0.991137 -0.469471 -0.0466882 0.860853 -0.272194 -0.68348 -0.817548 -0.012182 -0.896526 0.512712 -1.02214 -0.582074 -0.95089 0.422465 -0.637179 -0.627647 0.416897 0.287526 0.455587 -0.408799 -0.785711 -0.00714474 1.00792 0.614545 0.875487 -0.145004 -0.214424 0.433402 0.44903 -0.0806491 0.516276 0.616853 0.544883 -0.425668 -0.625175 -0.667675 -0.141918 -0.810881 0.641319 -1.06886 0.0759006 -0.356761 -0.68396 0.747557 -0.0864132 -0.529252 0.8485 0.414121 0.307021 -0.913143 0.905479 0.0271161 0.263373 0.0498871 0.437548 0.852594 -0.185222 -0.905472 -0.658293 0.225851 -0.822969 -0.0316189 -0.768579 0.246395 0.899375 0.338146 0.879453 0.114246 0.594341 -0.278662 0.165165 -0.270793 -1.02515 0.401512 -0.0202932 -0.880382 -0.555781 -0.605242 0.476986 0.840709 0.416959 -0.778278 -0.286823 -0.233978 0.715488 0.562924 -0.00901645 0.0639665 -0.503475 0.809616 -0.443784 -0.711152 -0.823469 -0.378914 -0.928818 -0.779357 0.122049 0.890383 -0.0684906 0.860335 0.124304 -0.486188 -0.368513 0.569963 0.137498 0.597241 0.584965 -0.909226 -0.315452 0.0571938 -0.783579 -0.434315 0.939695 0.450692 0.576469 0.443259 -0.292126 -0.475324 -0.654174 -0.275477 0.645956 -0.890053 -0.256715 0.157392 -0.292893 -1.00829 -0.524898 -0.21745 -0.637074 0.468874 -0.728373 -0.341075 -0.25484 -0.0419285 -0.956608 -0.411479 0.0260862 -0.167424 0.611393 -0.802669 -0.531866 0.442135 -0.292504 0.404734 -0.0800587 0.373803 0.467395 -0.25744 0.749689 -0.499369 0.173435 -0.817364 -0.780123 -0.693581 -0.874436 -0.514418 0.115553 0.766669 -0.880064 -0.981086 0.464435 -0.0981055 0.0264132 0.359285 0.20586 0.416094 0.508233 0.0829282 0.212435 -0.0386858 -0.291572 -0.433668 0.585981 -0.299209 0.515426 -0.211614 0.8848 0.490729 0.515014 -0.832634 -0.830987 -0.00815977 -0.108791 0.265407 -0.775395 0.0214473 -0.101259 0.823637 -0.454404 0.466766 -0.588188 0.5594 -0.343591 -0.487795 0.556238 -0.681785 0.550728 -0.308063 -0.988993 -0.939738 0.440231 0.175936 -0.12095 -0.725703 0.265147 0.909935 -0.368762 -0.69982 0.231291 -0.830899 -0.396729 0.299704 0.831908 0.906279 0.370756 0.872841 0.331403 -0.438635 -0.58478 -0.376383 0.859529 0.346804 0.226902 -0.466032 -0.368082 -0.364177 -0.974253 -0.300047 -0.127239 -0.707898 -0.441099 -0.243057 -0.53656 0.908679 0.876173 -0.23736 -0.535659 0.986795 0.57985 0.0799298 0.579578 0.915263 -0.0664418 0.224271 0.89854 0.33411 0.592677 0.260501 0.23305 -0.843981 -0.83361 -0.65536 -0.749626 -0.661166 -0.346041 0.558458 0.63096 0.919705 -0.756222 -0.30555 0.0774079 0.264423 -0.40874 -0.472127 0.988902 
0.149867 -0.546993 0.562844 -0.510855 -0.63344 -0.465228 -0.670412 -0.634806 -0.333194 -0.133516 -0.320894 -0.671013 -0.781573 -0.411088 -0.138994 0.971954 -0.0750711 0.194354 -0.797735 0.899934 -0.463393 -0.903408 0.874074 0.315636 -0.35834 0.986759 0.678794 -0.129647 -0.453406 0.116081 -0.0294105 0.682813 0.382143 -0.131228 0.148487 0.351926 -0.553153 -0.315975 -0.591377 0.815684 0.377174 0.24337 -0.98624 0.430893 0.265287 0.885975 0.374733 -0.303486 -0.646466 0.781645 0.302154 -0.73272 -0.93305 -0.893595 0.681204 0.0901525 0.198913 -0.81598 -0.91783 0.37507 0.0982975 0.219569 0.621176 0.603164 0.50081 -0.677621 -0.663484 0.413507 0.63704 0.221954 0.104682 -0.333598 0.503422 -0.215437 0.890235 -0.457344 0.0181364 -0.918907 -0.0719874 -0.780093 0.503574 -0.249732 0.397965 0.206095 -0.305573 0.184265 0.057368 -0.824478 -0.674887 0.125774 -0.132427 -0.60047 0.328074 -1.14931 0.610387 -0.625336 -0.451846 -0.0223989 -0.450383 0.0903898 -0.379634 -0.701223 -0.342288 -0.473662 -0.498629 -0.548138 -0.181866 -0.500947 -0.62713 0.348113 0.33252 -0.746196 0.0183825 -0.61837 0.218355 0.96436 -0.927668 -0.539666 0.473644 -0.479484 -0.329234 -0.576411 -0.327375 -0.550121 0.486899 -0.0642853 -0.768017 -0.127048 -0.315699 0.710736 0.284415 -0.35855 0.281937 0.335272 -0.099167 -0.611739 -0.84637 0.211058 0.0487191 -0.586423 -0.556904 0.880378 0.264408 -0.398295 -0.146268 -0.555774 -0.125205 -0.0787024 0.657399 -0.690851 0.415964 0.895174 0.348699 0.0447694 -0.416741 -0.609433 0.535054 -0.59111 -0.0591715 -0.12576 -0.0588649 -0.822539 -0.219915 -0.207024 0.4973 -0.0122984 -0.494142 -0.504494 -0.354114 -0.700384 0.886417 -0.128293 0.550782 0.349797 -0.198482 -0.15259 -0.363499 -0.649196 -0.762952 0.718514 -1.10027 -0.586372 -0.563563 -0.767606 -0.464307 0.692293 -1.01362 -0.302684 0.373015 0.618102 -0.863641 0.526842 -0.35612 -0.0970917 -0.312882 0.0926485 -0.682037 0.802368 0.416381 0.606185 -0.217921 -0.924664 0.649641 -0.501692 -0.741718 -0.105466 -0.293081 0.705702 -0.750332 0.0333016 -0.155724 -0.175683 0.586606 -0.474484 0.75586 -0.0469776 -0.546737 0.978926 0.93029 -0.0595196 -0.483432 0.291269 0.681587 0.403368 -0.5192 0.608431 -0.587096 -0.0716368 -0.914543 0.601735 0.42046 -0.21967 0.50326 -0.618598 -0.337048 0.423042 -0.781326 -1.01049 0.658347 -0.58106 0.669183 0.370184 -0.280396 0.919496 0.578369 -0.319613 1.0374 1.0305 0.808188 -0.924875 0.328748 -0.290327 -0.659821 0.0788852 0.714718 -0.512659 0.347982 -0.394972 -0.0121957 0.757781 0.434517 -0.457448 -0.488169 -0.10731 0.758125 -0.450968 -0.396837 0.405954 0.908449 1.17501 0.129495 0.732146 0.867193 0.77894 -0.014649 0.909711 -0.795147 0.609921 -0.544962 -0.00458995 -0.62079 0.554023 0.831924 0.700809 1.07891 0.0958099 0.642689 -0.544211 1.01672 -0.573195 0.335008 0.771702 -0.171478 0.291531 -0.171177 0.565493 -0.959567 -0.297458 0.72417 0.686244 -0.590246 -0.48984 -0.393774 -0.469227 0.722431 -0.427316 0.159715 0.532949 -0.312173 0.544212 0.964512 0.611634 0.967701 0.498124 -0.246568 0.872197 0.793362 0.332166 -0.545316 -0.301546 0.575533 0.569386 0.122948 0.411924 -0.600246 0.614946 0.942755 0.345428 0.214962 -0.0866677 0.809896 0.0423411 0.642235 0.667457 -0.741916 -0.411876 -0.433563 -0.781598 0.362857 -0.000910331 -0.699851 -0.452862 -0.015234 0.199864 0.938282 0.288743 0.915857 0.623069 -0.82728 -0.714548 -0.0615746 0.223008 0.574344 -0.415006 -0.723543 0.221453 -0.272722 0.690825 0.456003 0.458032 0.673897 -0.462386 -0.187327 -0.00750168 0.0954822 -0.784832 -0.528011 -0.579831 1.17625 0.961713 -0.261767 -0.290598 -0.650749 -0.649728 -0.376561 0.916955 -0.566253 0.153353 0.910273 -0.369633 0.373501 -0.869841 0.182666 -0.0392896 -0.735396 0.94345 -0.11925 0.949058 -0.100414 0.333041 0.756819 0.983333 -0.673981 -0.238914 0.196604 0.85622 -0.27699 -0.352907 0.172326 -0.503982 0.649939 -0.409458 -0.134763 0.321864 0.396215 -0.134 0.442773 -0.309042 0.971383 0.886964 0.693201 -0.510849 -0.459466 -0.255033 1.21916 -0.659105 0.405875 -0.376712 0.64216 0.0734733 -0.933853 0.0164103 0.709837 1.0592 -0.46181 0.258349 1.07535 0.125385 -0.784127 0.358924 -0.700765 -0.971709 0.871673 0.141374 -0.0318589 0.553904 -0.210174 0.871996 0.204222 -0.123857 0.0954817 -0.477324 0.842868 0.534402 -0.212765 0.493572 0.245818 -0.12413 0.191916 -0.193958 -0.198408 0.522209 -0.341282 0.540197 -0.655474 1.05161 0.773928 0.833672 0.819029 0.515241 -0.345576 -0.557021 -0.127991 -0.443049 -0.567532 0.815716 0.685967 0.697537 0.55774 0.561639 0.271828 -0.349478 0.429418 1.02636 -0.0887965 0.401094 -0.800592 0.390959 0.714994 0.794682 0.575272 -0.523359 0.645182 0.411549 0.358854 0.353 -0.528402 0.40968 -0.0288074 -0.657258 0.675593 0.994157 -0.387055 0.772619 -0.46103 -0.0855637 0.919489 0.837562 -0.458349 -0.0159015 0.589929 -0.501134 -0.702568 -0.860351 -0.310199 0.947769 -0.0814225 -0.793021 0.0228484 0.119412 -0.310591 0.199605 1.21239 -0.167321 -0.669141 0.822342 0.334471 0.425048 -0.576607 0.757753 0.063866 0.937959 0.384429 -0.132408 -0.675685 0.262885 -0.283782 0.0724089 0.686337 0.292983 0.0501219 -0.693302 0.72844 -0.389414 0.639759 0.760262 0.133882 0.0034205 0.75123 0.754166 -0.55199 0.985761 -0.362181 0.390969 0.805129 0.0943735 -0.874655 -0.282055 -0.494384 0.982616 -0.450336 -1.03025 -0.136708 -0.30399 0.331615 -0.553418 0.997026 0.00167821 -0.904152 -0.321567 0.766698 0.943721 -0.957911 0.219185 -0.274522 0.772078 0.777048 0.589216 0.140866 -0.336813 -1.17822 -0.346433 0.231712 -0.019353 0.673754 0.213726 0.360822 -0.940905 0.917833 0.317008 0.255901 0.280006 -0.968499 -0.611672 -0.589914 0.262385 0.852299 -0.183741 0.894516 -0.204863 0.0342307 0.381304 -0.864368 0.345082 -0.669521 -0.450236 -0.244008 -0.166458 0.304213 -0.751174 0.291345 -0.900696 -1.09739 0.299538 -0.309052 -0.376809 -0.743274 0.0755737 -0.338394 -0.232363 -0.928615 0.0260976 -0.166648 -0.929304 -0.208738 0.536528 0.499 0.614307 0.795051 0.425598 -0.663727 -0.61544 0.0725906 -1.07212 -1.06333 0.312175 -1.20414 -0.869469 -0.805222 -0.824208 -0.651878 -0.360353 0.537196 -0.723666 -0.942827 0.277488 0.586839 -0.512986 0.310238 0.706009 -0.502002 0.838578 -0.674491 -0.735194 0.532126 -0.26499 -0.899665 -0.180544 -0.992814 -1.13898 -0.68864 0.288097 -0.59021 -0.202245 0.257465 -0.418626 -0.103839 0.488399 -0.173072 -0.964549 -0.110251 0.21241 0.552116 0.237926 0.19189 0.317471 -0.873971 -0.432908 0.770462 -0.801059 -0.299367 -0.756336 -0.87331 0.708769 -0.722025 -0.141361 0.300002 0.286845 0.088137 -0.0932153 -1.14836 -0.52056 -0.536161 -0.0877153 -1.05846 0.0430428 -0.264349 -0.721857 0.430763 -0.0223599 -0.690636 -0.0627264 0.103499 -0.727049 -0.909584 0.794731 0.322761 0.69344 0.627629 0.00928991 -0.46334 0.198905 0.806513 0.811559 0.281861 0.347473 -0.638485 -0.626656 0.615308 -0.847681 -1.23083 -0.258725 0.382407 -0.887327 0.159614 0.576974 0.473444 0.318876 0.387079 -0.197119 -0.0396005 -0.19324 -0.895799 -0.747257 0.729829 -0.457179 0.92364 -0.0189766 0.854996 0.643464 0.781979 0.582281 0.678633 0.700385 0.314659 0.349752 -1.0015 0.42589 -0.774515 0.766381 0.0612073 0.127051 -0.533324 0.532706 0.213216 0.508237 0.679662 0.437887 0.768343 0.891749 -0.704836 -0.555776 0.827638 -0.901724 -0.844003 -0.799117 0.380739 0.986802 0.749183 0.251763 0.121946 -0.991082 0.464509 0.673434 -0.628707 -0.850377 -0.191438 -0.794278 
